{
  "neurons": [
    [
      0.2656115782772359,
      0,
      0,
      0.08148295265862522,
      0.48764105508408523,
      0.4832550504481575
    ],
    [
      0.9880522185226788,
      0.1923471244596218,
      0,
      0,
      0,
      0,
      1.1691578006502585,
      0,
      0,
      0,
      0,
      0.3239513916632307,
      0.5369569529164336,
      0,
      0,
      0.3079542344277266,
      0,
      0,
      0,
      1.016511783983925
    ],
    [
      0.062005428016741304,
      0.9825814776976499,
      0,
      2.872693537793449,
      0,
      0,
      0,
      0.8912360833425825,
      0.9993568065616334,
      0,
      0.6355098398622647,
      0,
      0,
      1.2661724679540556,
      1.1953536605427952,
      0.6143875451088487,
      0.2467573699494066,
      0,
      0.2724645319058946,
      0.8903785171475264,
      0.29306001042108365,
      0.36251835450727976,
      1.4019757506467956,
      1.818298309471038,
      0.4420427850921157,
      0.6748738015409341,
      1.0853723066729677,
      0,
      0,
      0,
      0,
      0,
      0
    ]
  ],
  "bias": [
    [
      -0.5343884217227641,
      -0.9480974186505963,
      -0.7732531510423526,
      -0.11851704734137479,
      0.4876409684590852,
      0.4827550504481575
    ],
    [
      0.8915118554597823,
      0.00015876936816467188,
      0.08740168834120281,
      0.0026194264834290323,
      -0.8750644779813843,
      -0.37068233931479866,
      0.7398477979316325,
      -0.0003802968976835058,
      -0.700363617564649,
      -0.9611258602797901,
      -0.37410978708944387,
      0.44592009641369124,
      0.7191456316315366,
      0.023894760127003485,
      -0.27140708844438927,
      -0.03911951365180196,
      -0.3296256289973032,
      -0.18551856251601445,
      -1,
      0.7489733897902633
    ],
    [
      0.395393138102552,
      -0.09270469029592511,
      -0.8547257055903594,
      0.6489744384647873,
      -0.4825492855188893,
      -1,
      0.2960945983365534,
      -0.1554667541051249,
      -0.05689683588519405,
      1,
      -0.7985580071359866,
      -0.28144146387839963,
      -0.21997306127980085,
      -0.00016014927797353143,
      0.2904558168401997,
      -0.43033151772524825,
      0.18439032014139817,
      0.022274724656348832,
      -0.3572288711255065,
      0.8377975366858624,
      0.5695161320776443,
      0.01959835291731858,
      -0.5874828112547804,
      0.7295439811343608,
      0.5805425937543122,
      0.8523651012975886,
      -0.21466901701022723,
      -0.5470577685897835,
      0.6879607635183167,
      -0.6242390173985932,
      -0.3669752038479026,
      -0.009473188673544524,
      0.011555372722876864
    ]
  ],
  "weights": [
    [
      [
        0.001209838543538481,
        0.2055885970592357,
        -0.015275839244962418,
        0.8577624440868321,
        0.15066420157163116,
        -0.09755521615357943
      ],
      [
        0.22891859773380124,
        0.35360127306139544,
        1,
        0.15392271826346138,
        0.23874200549933877,
        0.005012765056852343
      ],
      [
        -0.13637150674478793,
        1,
        -0.3591038720816426,
        0.2760297477606648,
        -0.3685604092105381,
        -0.6878085548014918
      ],
      [
        -0.2045442575388744,
        -0.2527726803960297,
        0.05492561031655921,
        -0.0027119799522462504,
        -0.21625115470057332,
        -0.6363595920542086
      ],
      [
        -0.019390817117733643,
        0.35628977296537245,
        0.06815804980566456,
        0.00028943227823718086,
        1,
        -0.13335415687577162
      ],
      [
        -0.004026384297579365,
        -0.13076292917308383,
        -0.1902420183255126,
        0.7901512984219872,
        -0.2548174694650457,
        -0.10620314681296546
      ],
      [
        -0.01582650823435352,
        -0.09137702618703558,
        0.009136964862013288,
        -0.7040172114978592,
        1,
        0.006700504376766718
      ],
      [
        0.13666920299099905,
        1,
        1,
        0.3968988155019799,
        -0.12159743273820137,
        -0.8975513142421985
      ],
      [
        -0.16512045632162994,
        0.009178194064621331,
        0.08807250623229033,
        -0.6149256855254467,
        0.10376566214032636,
        1
      ],
      [
        0.11228727647953297,
        -0.00022538224816102433,
        0.19472145658202591,
        -0.2604543420811661,
        -0.7474000194639336,
        -0.7986396335645951
      ],
      [
        -0.311284076432851,
        0.15694409745319868,
        0.2153980478915354,
        0.0012861716140780048,
        0.442473246668464,
        -0.010231531077299912
      ],
      [
        0.22019419188456604,
        0.6986358591222551,
        -0.0664097144787673,
        0.004252846304913919,
        0.35460483253149405,
        -0.7319556006793309
      ],
      [
        -0.7309299444830759,
        0.14853098649508728,
        -0.09594368480418719,
        0.319705483647004,
        -0.0147529322930362,
        -0.014281555597218875
      ],
      [
        -0.0012649489691560225,
        0.595453322534727,
        -0.04421580732084348,
        -0.01193678935079025,
        -1,
        0.06530499960077246
      ],
      [
        -0.4029321153788515,
        -0.1981878545563343,
        0.9234636428724838,
        0.09616013638965429,
        -1,
        0.5325221012976287
      ],
      [
        0.283260845930416,
        -0.4556234035162375,
        0.07318799656156649,
        -0.3391195770799982,
        0.6297459561823322,
        -0.01577041011365045
      ],
      [
        0.02545451461646045,
        0.11510013616279689,
        0.87046668704566,
        -0.4845284305261255,
        0.5197493398326772,
        -0.0177581425258145
      ],
      [
        0.31905868807693943,
        -0.2330869156501715,
        -0.3153254107500538,
        0.5603830956779516,
        -0.7992270769919487,
        -0.8690242666928287
      ],
      [
        0.03413482349251229,
        0.4468030410057916,
        -0.7746881836364858,
        0.4420170218981148,
        0.007045343390204359,
        0.38189735049855333
      ],
      [
        0.9642476734306382,
        -0.15238142239050728,
        0.8268994735536408,
        -0.1585740388532849,
        0.009455908220795166,
        0.0408335921673239
      ]
    ],
    [
      [
        0.03158301302910057,
        -0.023907556085028765,
        0.7422327541454983,
        0.4258006497558654,
        -0.5154692598678776,
        0.013399433629535875,
        -0.03724663708395243,
        0.08278915072230338,
        -0.18212930918258535,
        -9.536171074307702e-05,
        -0.033717463030279046,
        -1,
        -0.1300032606669004,
        0.27687531272125016,
        -0.6266382717064829,
        0.05479664550694796,
        -0.0905782173548847,
        0.027185090769019246,
        -0.36160543585897675,
        0.05945337584836774
      ],
      [
        0.6024406194905388,
        -0.05088887107259943,
        0.9709783626417101,
        0.6074160319047799,
        -1,
        -0.1630110573999506,
        -1,
        -0.02359587804779629,
        1,
        0.6006163262163539,
        -0.42781070119309,
        0.8294257225765571,
        0.12761037869161337,
        -0.07678344641658984,
        -0.889649269102847,
        0.9912603585934454,
        1,
        0.26576884017019564,
        0.16041238018809528,
        1
      ],
      [
        0.03948589991258787,
        0.5190204661261315,
        0.6049977499238894,
        0.1911415493809485,
        0.7769800285439137,
        -0.18858566241894834,
        0.487881087334238,
        -0.12307976350486101,
        0.8703854113742794,
        0.4297147286014387,
        0.0060433922852138645,
        -0.04928287041401862,
        -1,
        -0.139977351555745,
        -0.325191659187529,
        1,
        0.5691843229674372,
        -1,
        -0.33785484495487556,
        -0.7411596186105112
      ],
      [
        0.9396523169525262,
        0.7343435767340138,
        0.3072158254490173,
        -0.608602069305352,
        0.1320257402166199,
        0.19826433207574765,
        0.5143479210514463,
        0.8002384851255723,
        -0.15074167068623548,
        -0.03251706718611749,
        0.12513576671416188,
        0.9204522713885599,
        0.682578163702832,
        0.045488851419624145,
        0.5555983344559243,
        -0.006836500197063505,
        -0.5163845362478027,
        -0.13446426231710687,
        0.5569416775948477,
        -0.10811559128412379
      ],
      [
        1,
        0.7985862441412683,
        0.2010934488963565,
        0.26889903689530925,
        0.013822295482716575,
        1,
        -1,
        -0.0160905092686525,
        0.2806684848051457,
        1,
        1,
        0.0412452047437417,
        0.024572791955832653,
        -0.10498989604844657,
        -0.001084591766964399,
        0.24202791804817947,
        -0.04794309018380709,
        -0.4555229858191525,
        0.11533912161949855,
        -0.2728561787191042
      ],
      [
        0.5610843970922076,
        -0.28978910591341034,
        0.06566658452185244,
        0.22967540250248714,
        0.018882183718362856,
        0.26695807592742155,
        0.16324134703929108,
        0.9619105406471612,
        0.4066572558205913,
        -1,
        0.6674862742541645,
        -0.49670576710267733,
        0.01524953087193467,
        -0.003094583874986818,
        -0.013583703503530668,
        0.0095580139555852,
        -0.7050549456684988,
        0.32195911742066446,
        0.5344061009002941,
        0.14395805411396445
      ],
      [
        -0.4360278554944741,
        0.21003088935865316,
        0.2928145040198772,
        -0.6493503174886932,
        -0.21440651471655678,
        -0.6718218790522116,
        0.2979718302851613,
        0.9745162016801971,
        0.09197680189014126,
        -0.11138469656719607,
        0.1204156888652892,
        -0.2555334177674387,
        -1,
        1,
        0.01457691956683774,
        -0.416944716606248,
        0.8937751545762312,
        -0.4752493257281335,
        0.03780074104617296,
        -0.2595179501606655
      ],
      [
        -0.06480075926543323,
        -0.04696902673316106,
        -0.885494619543275,
        -0.05735007139311743,
        -0.05540956606181231,
        0.5179796048049463,
        0.866687604735113,
        0.15014471662318218,
        -0.35316630928929693,
        0.514374692592697,
        0.03625900142006425,
        0.7002230515206472,
        0.013972589790633311,
        0.031427363857802204,
        -0.3543448155648737,
        -0.30041605863127624,
        -0.02509041034762279,
        -0.1405311286049613,
        0.9605499670732349,
        -0.034783029213135766
      ],
      [
        0.3364702497705616,
        -0.9525668979278568,
        0.261497639729789,
        -0.0886406646055027,
        0.3340451865419012,
        1,
        1,
        -1,
        -1,
        -0.17073077325667296,
        0.20095916666997615,
        -0.2573132250246233,
        0.04842053373650225,
        0.5223661785407574,
        -0.19536210117379268,
        -0.21224257910559974,
        -0.06573396930451933,
        0.26577425198236587,
        -0.016995683271014327,
        -0.13714803648424936
      ],
      [
        -0.5215920271798986,
        0.01526210510476443,
        -0.36439933143332365,
        -0.019983707636713255,
        0.03300421178494206,
        0.015397657527158453,
        -1,
        -0.114769076241372,
        -0.01201853413332201,
        0.12080896425789893,
        0.28310246963541896,
        -0.5072696060753602,
        0.03050204994194079,
        -0.8473732948423767,
        1,
        0.4396304592977207,
        0.2696810395468119,
        -0.4207390827533263,
        -0.32175930615266246,
        0.28389919492698723
      ],
      [
        0.16449086243268723,
        -0.27007995762835707,
        -0.13814350235226389,
        -0.0996675121010187,
        0.21594116145573805,
        -1,
        1,
        -1,
        -1,
        0.10100110059736137,
        1,
        0.10246238845938768,
        0.753334013232762,
        -0.09091824339705781,
        -1,
        -0.12863853883458698,
        -0.13670841236812897,
        -0.01210351586411918,
        0.9906138523969901,
        -0.2397929888128272
      ],
      [
        0.10363666147406513,
        0.09790516248486426,
        1,
        0.5097784895477289,
        -0.4848830560419475,
        0.13026839056478612,
        -0.4200595722994963,
        -0.030871531543504235,
        -0.22559823128330064,
        0.1487787906099616,
        -0.36819840964397244,
        0.34750695291393413,
        -0.41897300146604716,
        0.014534490526357847,
        0.00013272500314555818,
        -1,
        -0.7696138365140175,
        -0.0033882931715331233,
        -0.5239711596874681,
        0.6233916160667134
      ],
      [
        -0.06758025860884902,
        -0.425122471249624,
        0.9263054333499543,
        0.19047659755713675,
        0.46236944538853914,
        0.7468259957922155,
        -0.2459671302014339,
        -0.4456649507458811,
        0.12758196061874427,
        1,
        -0.1330094359675214,
        -0.48247820742346104,
        -0.344815353981922,
        0.5737967503346002,
        0.8979188526781088,
        0.21639019915758198,
        0.7809044657720886,
        -0.004677790584449504,
        0.42207734251147816,
        -0.0015943351541349343
      ],
      [
        1,
        -0.714867239234251,
        -0.026753716961731924,
        -0.5783552805438323,
        -0.5495112368309851,
        0.2640996692334915,
        0.08827050121681979,
        -0.4891861133095969,
        -0.7015359143335416,
        -1,
        -0.0011183476656481267,
        -1,
        0.13986829649945204,
        1,
        0.0011034985869776916,
        -0.7533982016241002,
        -1,
        0.3361810326311062,
        0.3265041239607691,
        0.7805528944656974
      ],
      [
        0.04229315171580171,
        -0.9316749558686311,
        0.5612749893509752,
        0.0059538143317652,
        -0.016288398991716205,
        -0.10106622977685278,
        0.8344911915261479,
        0.7181285922380211,
        0.08276599520752632,
        -0.4717706093283288,
        1,
        -0.1721135556118271,
        0.19395473305971975,
        0.491076179657703,
        -0.23802382807048983,
        0.10876729002178895,
        0.021722906458821675,
        -0.015600565756915322,
        -0.015068091332280856,
        -0.014973904390522645
      ],
      [
        0.9767011592678125,
        0.3289159905327477,
        -0.2701074460341266,
        -0.26064387508686904,
        0.27797856237407736,
        0.21460559762654158,
        0.0099775270014156,
        -1,
        -1,
        0.4809454519903588,
        -0.013584505116366588,
        0.2679203174494549,
        -0.032957666629857996,
        -0.02898564993864976,
        -0.00938556086311106,
        0.034687638795601806,
        -0.024732265632157,
        -1,
        -0.3908202647519071,
        -0.07380391529351517
      ],
      [
        0.9785994208237558,
        0.11488888014360185,
        0.12092185673471277,
        1,
        0.8718754995486937,
        -0.2678019636297205,
        0.3543419529376609,
        -0.8712509000083573,
        -0.041902892369604726,
        -0.1682753820956026,
        -1,
        -0.5397494057658101,
        -0.4248442390628688,
        0.06957202207090521,
        -0.035683462394341336,
        0.25512537687240516,
        -0.3224229577195727,
        -0.26737849789934653,
        0.05515685045616126,
        -1
      ],
      [
        -0.23716545479054307,
        1,
        -1,
        -0.07225427884224493,
        -0.36789872323315254,
        -0.08930964375977687,
        0.08464220869946536,
        0.8825871864260095,
        0.00021643032542680889,
        0.07824316354741186,
        -0.21956830885633605,
        -1,
        0.2947828527861005,
        -0.5587532215355002,
        -0.6813696489431214,
        -0.15294138255751713,
        -0.2577280607313199,
        -0.27246586400488926,
        0.2799573439433854,
        0.021662740106827186
      ],
      [
        -0.06411788937376386,
        -0.20354636820293653,
        0.018376651689454057,
        0.8498664822927642,
        1,
        -1,
        0.8853793181085448,
        0.05016812554439243,
        -0.7559205225477841,
        -0.052307977077760116,
        1,
        -0.25508593662910367,
        -0.21195059373842798,
        -0.0038935541700890136,
        0.029308343586014023,
        0.046571867270718346,
        -0.20670378260550254,
        -0.03133824754618198,
        0.16988262762850587,
        -0.118886537565845
      ],
      [
        0.07595106117036596,
        -0.054988589579176905,
        -0.2080266391596256,
        1,
        -0.8109666897972625,
        -0.34347440965420173,
        0.13776766133499585,
        0.2116953128299495,
        -1,
        1,
        -0.05136841207281522,
        0.35818584126726444,
        -0.11699561946842807,
        -0.007330207172946857,
        -0.08010741905161368,
        -0.00028124800403027514,
        0.5287172940490356,
        -0.8097577754482098,
        -1,
        -0.22241203234142112
      ],
      [
        -0.03175442475538944,
        -0.011349555953053553,
        -0.30716738381429454,
        -0.09140821930765329,
        -0.7368763023839366,
        0.07646163119743438,
        0.12058314901577323,
        -1,
        0.016144644813804773,
        0.4096887429109346,
        -0.49751075849385185,
        -0.52230233713492,
        1,
        -1,
        -0.02648330936120308,
        -0.4069793665153092,
        0.40257843659099224,
        -0.2175465702054693,
        0.9482943058856659,
        -0.6161307141086783
      ],
      [
        0.12050171841901328,
        -0.16894781830159578,
        1,
        0.5214633215908038,
        0.2636706089530113,
        1,
        0.020424878417441242,
        0.4981747839084705,
        -0.3259964008151417,
        0.34403794237740004,
        1,
        0.5484651015774298,
        0.05532269918033439,
        0.8012414107320387,
        0.06584113044670367,
        0.6029554211180045,
        0.24447243910713212,
        0.9927688967162109,
        0.6489374039316207,
        -0.15798132994932051
      ],
      [
        0.18431365294034396,
        -0.9372816661665938,
        -0.04291951020745946,
        -0.34509276024653734,
        -0.038086299699184104,
        0.6623125506359044,
        1,
        0.2884677215440933,
        -0.14989040575617793,
        0.1430966595869232,
        0.06893266547120633,
        0.10643392313481101,
        1,
        0.10433603185805082,
        -0.39738089510831526,
        0.8029582432922252,
        0.5674951669805863,
        -0.6656349487607212,
        -1,
        -0.00023421339025740123
      ],
      [
        0.4599629138939939,
        0.0603086104356975,
        0.058056246522216796,
        0.9384620477959562,
        -4.082704457352094e-05,
        0.9770051079805622,
        -0.32194400646220867,
        -1,
        0.33064743810684344,
        0.00666932175999723,
        0.013014196532428378,
        0.24642742471603699,
        -0.18071376577734527,
        0.1614954562525381,
        -0.674137999127995,
        -0.0007035739814691397,
        -0.247187099662482,
        -0.4774287026639675,
        -0.02861062496339991,
        1
      ],
      [
        -0.3900950489495877,
        -0.12071746892451159,
        0.4140624028152237,
        0.02974285314345821,
        0.19444115379122118,
        -0.00042450667830434743,
        0.3810687272632262,
        0.5481881928656156,
        -0.22052650919921074,
        0.05134183610454487,
        -1,
        -1,
        0.2395220607485422,
        0.12455179626958077,
        -0.7419225214378012,
        -0.08691051458402152,
        -0.19811189898921963,
        0.07362256901040742,
        0.21199365051461674,
        0.04596844850130439
      ],
      [
        0.23613165884711895,
        0.5183308550154921,
        -0.008828767520403215,
        -0.5406196624002659,
        0.041587007464509364,
        0.07139636141131918,
        -0.8297570711013693,
        -0.09613486392136318,
        -0.6952242724470299,
        0.30763197091634975,
        0.7103718219955513,
        0.9583363161907025,
        -0.1967248767814981,
        0.08244436320451155,
        0.0810206252479159,
        0.238169716447711,
        -0.006949389556018319,
        0.6589540121766371,
        0.36942227166455394,
        0.17850145069874293
      ],
      [
        -0.017173077406218474,
        0.6092204717858419,
        0.30592139683082,
        0.6154236271944514,
        0.01590116870915257,
        -0.2787961263283101,
        0.5766296597776555,
        0.0013664742370392876,
        0.044740388152073374,
        -0.07705634259951795,
        -0.4461949159850724,
        0.003327030650028595,
        -0.03985450237499545,
        0.839412036130732,
        0.8305154963427457,
        0.8499663581880355,
        0.896261090252424,
        -0.21060432404430549,
        0.9253525874569932,
        0.279611089106125
      ],
      [
        0.48818019719960437,
        -0.15717076597449087,
        0.005554784665242809,
        0.4057699078808826,
        0.1878514144995403,
        -0.03712875382185169,
        0.08183864524886235,
        0.19562720775967454,
        -0.01797611497547915,
        -0.1628030444481494,
        0.8726810403012857,
        -0.6154059728782623,
        -0.9707252894347591,
        -0.2980879547985555,
        0.8180240835718315,
        0.18658095168876154,
        -0.02524558550533502,
        0.2117436861840939,
        0.010710441119450577,
        -0.7745898954931928
      ],
      [
        0.06425170340973009,
        -0.28301223902929185,
        0.011477316203625241,
        -0.01773656713181772,
        -0.19722631604619423,
        0.20643321003056359,
        -0.9489385901271687,
        -1,
        -0.47032764855153064,
        -0.19475112143985407,
        1,
        0.003849479854301749,
        -0.15278802336025654,
        -0.8912154634883009,
        -0.3782796701788449,
        -0.18088438329147558,
        -0.28511092687170303,
        -0.014744519247812561,
        0.2913097235145065,
        0.10601302569132294
      ],
      [
        -0.2647812170113187,
        0.001891330035648228,
        1,
        -1,
        -0.4817529973762378,
        -0.09116892619631713,
        -1,
        -0.611192843234682,
        -0.6558265742584847,
        0.11938406622044305,
        0.7805719759559724,
        0.39722229546703947,
        -0.8558399676164425,
        -0.04007529124027515,
        -0.2875684410357833,
        0.06020321211898628,
        -1,
        -1,
        -0.29429314857913136,
        0.03475533486495129
      ],
      [
        0.7480916842852197,
        -1,
        0.0004493072089764447,
        -0.9754812613936885,
        -0.23109501307451027,
        0.3607047913865098,
        -0.4921538926866912,
        -0.0002420828364734187,
        0.563376916995628,
        0.6185605720009928,
        0.05535480056539264,
        0.2575178182728698,
        0.12587391289303473,
        0.17890909753419448,
        0.15028624212573996,
        0.34355187979463575,
        0.15519336889620572,
        -0.2360327269194203,
        0.14257635141834424,
        -0.20601131366617126
      ],
      [
        -0.0001819726821406903,
        0.4130506282315896,
        0.5027364302429012,
        -0.4985202498939675,
        0.039231030796016905,
        0.5008469228713701,
        -0.04674272670336173,
        1,
        -0.0481381783841244,
        -0.8033391462392642,
        -0.805991846435735,
        0.2004310025880962,
        -1,
        0.16939932272981834,
        -0.2869455320161779,
        -0.23374521068115542,
        0.3286115499978388,
        -0.014153369056681306,
        -0.2459380833586421,
        -0.4715873137544794
      ],
      [
        0.36431364986966086,
        0.853728189393171,
        0.4260724408540153,
        0.11873171720093996,
        0.4048961796413384,
        -0.16460985921473978,
        0.414305730328503,
        -0.011457622367755708,
        -0.07473013986763041,
        -0.4339845521007552,
        0.38261331306333,
        -0.7373147577973391,
        -0.2679429084708505,
        0.6903169353879088,
        -0.43281907394018854,
        -0.6257835101737017,
        0.02193823664187686,
        -0.16106048356342687,
        1,
        -1
      ]
    ]
  ],
  "generation": 87
}