{
  "neurons": [
    [
      0.5,
      0.6,
      0.6,
      1.4,
      8.09722e-07,
      0.001192,
      0,
      0,
      0,
      1.0,
      0.546448087431694
    ],
    [
      2.9541277846821714,
      0.32190089856183335,
      0,
      0,
      0,
      0,
      0,
      0.07703899251642404,
      2.167350411810811,
      0.22378104153742573,
      0,
      0,
      2.9780854142630724,
      0.3001212235728815,
      0,
      1.6311537414063306,
      1.3206121424766144,
      1.2882590568861885,
      0,
      0,
      1.1851895551505542,
      0
    ],
    [
      3.7074481513459436,
      0,
      0,
      6.507149144505746,
      0,
      0.7175198541587551,
      0,
      0.28161336827242645,
      0,
      0,
      0,
      5.263972447337736,
      0,
      4.972135598011103,
      5.033114908494761,
      2.191758396919406,
      0.11280497289573663,
      0,
      0,
      0,
      1.0937772546292917,
      0,
      2.6363682034193867,
      7.224918696665393,
      2.4435530432819914,
      0,
      0.9475510643112797,
      0,
      0.22677543489737173,
      0,
      0,
      0,
      0
    ]
  ],
  "bias": [
    [
      0.0,
      -0.0,
      -0.0,
      0.0,
      0.0,
      0.0,
      -0.0,
      -0.4200175549745327,
      0.0,
      1,
      -0.2830087410269425,
      0.0,
      0.0,
      0.0,
      0.0,
      0.0,
      0.0,
      0.0,
      0.0,
      0.0,
      0.0,
      0.0
    ],
    [
      0.39919688483630394,
      -0.0,
      -0.0,
      0.0,
      0.0,
      0.0,
      0.0,
      -0.0,
      -0.7339251912105069,
      0.5595120089921641,
      0.0,
      0.0,
      0.0,
      0.0,
      0.0,
      -0.0,
      -0.0,
      0.0,
      0.0,
      0.0,
      -1,
      -0.0,
      0.0,
      0.0,
      0.0,
      0.0,
      0.0,
      0.0,
      0.0,
      0.0,
      0.0,
      0.0,
      0.0
    ]
  ],
  "weights": [
    [
      [
        0.07958095058338693,
        0.13477608440465905,
        0.012365778304583516,
        1,
        -0.7944531743699635,
        -1,
        0.3003992271031245,
        -0.017693145365162533,
        -1,
        0.8807967476194516,
        1
      ],
      [
        0.7058600900670173,
        0.19369926028320572,
        -0.21914724930352367,
        -0.46230843725370674,
        -0.005727274260811115,
        0.9935986495719662,
        -0.931006540571429,
        -0.2153784189145396,
        0.9384785576706656,
        0.4631401407748261,
        0.3058789246636028
      ],
      [
        -0.933060740554311,
        0.016546156365757684,
        0.7944130676837994,
        0.46101753265232903,
        0.044574183973267886,
        -0.7436865549474259,
        0.32537685945483286,
        0.3571199471842669,
        0.6051774762022928,
        -0.9626059715319761,
        -0.3831814603075149
      ],
      [
        -0.05178481382370696,
        0.5680107388555427,
        -0.23375525288101195,
        -0.08288768949904321,
        -0.047206653961110824,
        0.35285657904280676,
        -0.9565513328249877,
        -0.6443426615566101,
        0.3671619480387998,
        -0.24166048475153945,
        0.041842119944154314
      ],
      [
        -0.14723033128734409,
        -1,
        0.24812405451123865,
        -0.2408142360057346,
        0.20654583871281265,
        -0.0555267265957331,
        1,
        0.10757281919165937,
        -0.9661104360745796,
        -0.44394965855792895,
        -0.021603791220189423
      ],
      [
        0.08760482875068874,
        0.530017003841841,
        -1,
        -0.5686550217687438,
        -0.2503136356902141,
        0.0014091963988911006,
        -0.3152910025744138,
        -0.47423600635831237,
        0.44873827852399173,
        0.38588314788950484,
        -1
      ],
      [
        0.056932304661891996,
        -0.8172268336948847,
        -0.18673656638723043,
        0.26734754486342815,
        -0.2837341936919706,
        -0.5791555296869066,
        -0.062459582623448806,
        0.8360596559250676,
        0.041536195230876156,
        -0.27348503072914404,
        -0.7676179547198988
      ],
      [
        -0.10886437766153056,
        -0.7080661376111075,
        1,
        -0.15348409888252454,
        1,
        0.34491263983838105,
        0.07363308477024821,
        -0.2495520982430537,
        1,
        0.044346124303539444,
        1
      ],
      [
        0.6745917942427897,
        0.11622403658201681,
        0.8507213177590638,
        0.2291001781859232,
        0.11307815161225987,
        0.10632644078731557,
        -0.6001508583074937,
        -0.28315698297467534,
        0.38600122579965357,
        0.9322570004445094,
        -0.005923308313755174
      ],
      [
        0.004830072395557996,
        -0.06471333743376541,
        -0.7398806534843286,
        0.2543914500630093,
        0.0725702628149057,
        -0.6643393116550735,
        -0.04054088790120762,
        0.013052352679573387,
        -0.8918727678811533,
        -1,
        0.6382421524050816
      ],
      [
        -1,
        -1,
        0.2914709468013341,
        -0.06475000609733117,
        -0.28719277378613883,
        0.04463916126947081,
        0.8280172979093661,
        0.5016052790086516,
        0.26203995778368033,
        0.09623375435516801,
        1
      ],
      [
        0.0168046313270448,
        -0.890397084443323,
        1,
        -0.9139964891305432,
        0.7300878226240606,
        0.09931613472575959,
        -0.38951715100544454,
        -0.06281914821137947,
        0.202447493747816,
        0.012507932986375984,
        0.3224453260513352
      ],
      [
        1,
        0.04449338138143822,
        0.7247108843477055,
        1,
        -0.012482703520407186,
        0.46460681608223564,
        -1,
        0.5177464129808036,
        0.27623328645364376,
        0.38304682228703835,
        0.42632088331797524
      ],
      [
        0.5931025083592041,
        -1,
        0.2615746935350272,
        -0.462405810339162,
        0.7453895959778547,
        0.3069184172962485,
        0.9021950068833647,
        -0.02283363401113192,
        -0.18158821657360313,
        0.7710926853680196,
        0.5902374982831569
      ],
      [
        0.0012107906347579096,
        -0.4970686825753889,
        -1,
        -0.01634824552509652,
        -0.31175099651143157,
        -1,
        -0.08707731565607905,
        1,
        -1,
        0.8409996145833134,
        -0.45574507968425304
      ],
      [
        0.02955176086053107,
        -0.40751602232993095,
        0.7707222057622675,
        0.3915641747624191,
        -0.10788265155256777,
        0.6169258993695308,
        -0.933641075695553,
        0.033528078329466804,
        -0.0014215298518670061,
        0.8609614602132099,
        -0.02092136937427661
      ],
      [
        0.6465211428496533,
        -0.5706232344113211,
        0.2933713931536948,
        0.3654394839524482,
        -0.02597039627122716,
        0.16941666377712128,
        -0.08630382930619143,
        0.39365827355128546,
        -0.25951647277996287,
        0.6402996392584085,
        0.021202078745595154
      ],
      [
        -1,
        -0.7927660622746211,
        0.9649540989371783,
        0.5032334470317035,
        -1,
        1,
        0.023187528974818114,
        -0.010603716234439026,
        -0.3701955579616894,
        0.9655612148206851,
        0.025010617220418467
      ],
      [
        -0.709994558461753,
        0.05892566816771413,
        0.0820600904940081,
        0.036567796109796324,
        0.7942132578134339,
        -0.08058760287558255,
        -0.24531696697186017,
        0.0031988086651125484,
        0.10095971243019486,
        0.0026707923784285697,
        -0.03756140301500091
      ],
      [
        -0.07334509228376108,
        -0.10310523636334162,
        0.035764465352323076,
        0.2658627760275587,
        0.6681589642327121,
        -0.6495388263346626,
        -1,
        0.6092419387915857,
        0.2433339912890715,
        -1,
        1
      ],
      [
        -0.29637501452693965,
        0.810763978362667,
        -0.04696361458059276,
        0.6480725261023564,
        -0.8178061242856943,
        -0.14221834765987107,
        0.9263382663103507,
        -0.14223140319146765,
        -0.6569582734211029,
        -0.037676622289627176,
        0.010325072933545681
      ],
      [
        -0.6370939200815066,
        0.13879515481501067,
        -0.05956239398010637,
        -0.8771602979703566,
        0.02488191307650762,
        -0.9353548353072303,
        1,
        -0.21385982871089285,
        0.6781107621320593,
        0.0627047115882775,
        -0.9303294875855936
      ]
    ],
    [
      [
        0.07886377074190998,
        -1,
        -1,
        0.15975437375893164,
        0.4006156196989634,
        -0.18237572988227435,
        0.5020415681259376,
        0.00011189465123973552,
        0.005711555554503276,
        -0.47225618763466803,
        0.27783272457217545,
        -0.3431202484930794,
        0.6868626843451457,
        0.09156097624193427,
        -0.04525229898070422,
        0.19174016434009386,
        0.8405115708265862,
        -0.3632838362623363,
        -0.11499248647721887,
        -0.4311017739482441,
        0.3904135090977633,
        -0.05550385850155063
      ],
      [
        0.1076475263665615,
        0.7814008038797979,
        0.1446321437632979,
        0.7333380130947273,
        0.0026686496472469257,
        0.4227015180415241,
        0.2557162564683024,
        -0.14990164606423673,
        -0.019892771569996803,
        -0.6535316026417659,
        -0.8549788268558374,
        -1,
        -1,
        -0.3928089868576087,
        0.7904390124315755,
        -0.5956210361164962,
        -0.5187863648631171,
        0.6905382638550972,
        0.0013475273340958526,
        -0.7680164532802987,
        0.027146522712301873,
        0.1129344469968272
      ],
      [
        -0.3553986482935489,
        0.5958253814789178,
        0.33580999873907696,
        0.3322264491072346,
        -0.6138385229892336,
        -0.22631067870960875,
        0.47603003532289867,
        0.4652829219091904,
        0.3520053679195867,
        0.09219167107762165,
        -0.12596939347706626,
        -0.4152949696479931,
        0.06303709152270431,
        -0.4411072405670389,
        0.03723100450257578,
        -0.923285571267501,
        0.8506442662408004,
        -0.1690443586141422,
        -0.5298249459194662,
        0.3133643644360271,
        -1,
        0.22498176928878613
      ],
      [
        1,
        -0.2406073314817945,
        0.012726307453484742,
        0.17150880294744753,
        0.8298576847375747,
        -0.8717807717902422,
        -1,
        -0.3462215314848982,
        -0.02894931635153987,
        0.3794814348226634,
        -0.01195329925351344,
        -0.6643703152668419,
        0.08174585336827987,
        0.5839110075378473,
        -0.416413514131105,
        0.05450691024794231,
        1,
        0.9077060796993286,
        0.507054155858951,
        0.7616700806851782,
        0.5378009807484461,
        0.2084344421013301
      ],
      [
        -0.800967936476843,
        -0.027343738764337804,
        0.18423493790714984,
        -1,
        -0.9808036314894282,
        0.0668166561745304,
        0.007238240495164345,
        0.012953021116482479,
        0.07391260148267229,
        0.5088961281332856,
        -0.16933134776539036,
        -0.4828193421674216,
        -0.03974035076002936,
        -0.4256547334796842,
        0.00010954620525164813,
        -0.36388740284087256,
        0.02412758474022853,
        0.11971680692237914,
        0.021693482868205546,
        -0.40723085280121646,
        0.4400300146262395,
        1
      ],
      [
        -0.0001561795345476158,
        -0.5988950726168389,
        -0.7176658397798776,
        -0.6462108784347155,
        1,
        -0.9229115125991446,
        -0.26506566276612803,
        0.9362248474480234,
        1,
        0.4448380856151789,
        0.17253875894331488,
        0.7148480104663575,
        -1,
        0.3026475435462481,
        0.40587980314081706,
        1,
        0.01970157929111867,
        -0.07446447808566531,
        -0.695357268545308,
        -0.9002303957487803,
        -0.08626835662511902,
        0.07774106537200044
      ],
      [
        0.0012692244362870644,
        -0.07322191173589523,
        1,
        0.11735123835993891,
        0.5906053622596024,
        -0.4669901585752062,
        0.1978242725795469,
        0.005686597300641464,
        0.11903409038679272,
        0.08234999483501028,
        0.11833745724943778,
        -0.36026438369183955,
        -0.20362172419097388,
        -0.6029906356837393,
        0.22720122351994387,
        -0.11043787922320472,
        0.019467740648714076,
        0.8691097012642357,
        -0.6086444061551857,
        0.08292111702003449,
        -1,
        0.405959699939883
      ],
      [
        0.012221116418935196,
        -0.2832362833461921,
        -0.9466619438806196,
        0.9810967877470835,
        0.5452846308459779,
        -0.003904605030852639,
        -0.12821583364013245,
        -1,
        0.15228110301647685,
        -0.15611413355903292,
        0.9298357985365414,
        1,
        -0.48593997323393645,
        -0.00970787785180633,
        0.348553905299519,
        0.8505922244228012,
        -0.27058689146536685,
        -0.1437436018608045,
        0.8762838676284439,
        0.8920787223654343,
        0.6106782101518747,
        0.5180006097921869
      ],
      [
        -1,
        -0.17140289759264724,
        1,
        0.2693398610378219,
        1,
        -0.377838147281915,
        0.72222791270059,
        0.8280836418113537,
        -0.7810933039268628,
        -0.46939989732286114,
        -0.1197621328203771,
        0.7862129427367686,
        0.7249942417126736,
        -0.1864659154820599,
        -0.6836194499468738,
        -0.01391446824836105,
        -0.16990603672650895,
        0.39146685943362236,
        -0.38162750411393187,
        0.10733831698364132,
        -0.7879704957277553,
        -0.0685496423824227
      ],
      [
        0.17860869462762952,
        0.7346031615488318,
        0.03805341875962232,
        0.8299257895681211,
        -0.5363984696214638,
        0.022764033525239428,
        -0.12542788508723307,
        0.7530378892156068,
        0.04814402539144232,
        -1,
        -0.16321486029841017,
        1,
        -0.4459380227792509,
        -0.1342937279552138,
        -0.5886836481943614,
        0.2762142996863365,
        -0.6976191602204274,
        -0.36892779687271177,
        1,
        0.3997842730741814,
        0.028996611425589087,
        0.049386794421316216
      ],
      [
        -1,
        0.9074924912374396,
        1,
        0.869441324336006,
        0.39890194104048704,
        -0.28228651163928353,
        -0.941916043717653,
        0.6598019719373325,
        -0.07094342597873589,
        -0.7265421500432476,
        -0.5029677790567004,
        -0.40493843587926637,
        -0.08090059535115768,
        -0.016413461121767194,
        0.6735409763915226,
        -1,
        -0.03768733903158824,
        -0.7881137039770391,
        0.7966976227551805,
        -0.19543747866662683,
        -0.15632888540523146,
        -0.2505623982914472
      ],
      [
        -0.005370656419730168,
        0.42548722093504554,
        0.07866936331851956,
        0.469984759771441,
        0.38367553217658257,
        0.3033581589232814,
        0.2320960081050606,
        0.41067200302345674,
        1,
        0.762649849999526,
        -0.05038651208420708,
        0.3948848837645613,
        0.938533420536777,
        0.6406388003054451,
        -0.012668762319529927,
        -0.7485837916943794,
        -0.6736682715388316,
        0.7876262370810048,
        0.4806248618659834,
        -0.20336777974825204,
        0.7441507653094774,
        0.168750570067113
      ],
      [
        0.36828234548206046,
        1,
        -0.02926001436612951,
        -0.5147356401971286,
        0.02151232565799068,
        0.03993188461083222,
        0.38346552611563667,
        0.26902274464160464,
        -0.07390018408786696,
        -0.7536684432938572,
        -0.40324046348744647,
        0.008636725837788345,
        -0.6301726860089902,
        0.713849880768199,
        -0.9266241056844525,
        -1,
        0.6643540535624892,
        0.8215009429161613,
        -1,
        0.4819220797620475,
        -0.37843176622217656,
        0.36782426455835754
      ],
      [
        0.8172705965487337,
        0.4773165573146998,
        0.3637191809228451,
        0.3251721662584116,
        -0.03340379081665047,
        -0.535009310392988,
        -0.3696487099959269,
        0.14755487817338994,
        -0.7768764757683426,
        0.0014796781905885934,
        0.4073143096423242,
        -0.7464995576582384,
        0.8519907875471933,
        0.09366553186869113,
        0.5945930590446777,
        0.17872801214558653,
        0.39010738583668286,
        0.6094013633762692,
        0.07121198574883682,
        0.07744193813583786,
        -0.06831181904536707,
        0.07080065826828182
      ],
      [
        0.9442735862051694,
        -0.5082666086999059,
        -0.5073408123029184,
        0.5057114798343061,
        0.009120502046905824,
        -0.45625842730209604,
        0.07584449318227016,
        0.31373665154607105,
        0.29378901350536624,
        -0.534475766713099,
        -0.12347333209065647,
        0.046871612704391295,
        0.8594054721290494,
        0.24613143732310716,
        1,
        -1,
        0.30760367272536426,
        0.07629319969186765,
        1,
        0.0008614266297583859,
        0.30316198574788167,
        0.005995944060015437
      ],
      [
        -0.9090008405683374,
        1,
        0.888455121615024,
        0.8037384201746423,
        -0.43251227349943966,
        -0.5054772315861795,
        0.7396904734355187,
        0.22757029666932405,
        0.25900614987177106,
        0.2941219914649924,
        0.11787892939667938,
        -0.2801945803091087,
        1,
        -0.8417798401169073,
        0.7042745489046607,
        0.32740018946650457,
        0.48925739721207057,
        0.0011664348696893126,
        0.36884330629270856,
        -0.02840994833290941,
        0.0028206017464429325,
        -1
      ],
      [
        0.02954464058305805,
        -0.7207371064404466,
        0.10300858913746151,
        0.5408796269939733,
        -0.4756675043347032,
        0.3079506887050699,
        -0.5832306302687995,
        -0.20960185734119272,
        0.8274130771019794,
        0.7382385750741288,
        -0.0010623402931218072,
        1,
        -0.15574017482877456,
        -0.01254758436487217,
        0.7634445748679821,
        -0.4914114357025776,
        0.014223610783576158,
        -0.28628661816533274,
        -0.5398533953162651,
        0.08210950292154051,
        -0.05539173544466116,
        1
      ],
      [
        0.5472432227420949,
        0.22759169663330045,
        -2.2409103633089e-05,
        0.7577609907879104,
        -0.43724032789999745,
        -0.022070131733261066,
        0.04426759091976311,
        -0.5453578742631076,
        -0.10527461911376747,
        0.3110907354192226,
        -0.737388736381881,
        0.7537426708459223,
        -0.3419935195860364,
        -0.5565562085839417,
        -0.7161385248133281,
        -0.8442446924413893,
        -0.31134202493717567,
        -0.1932612951220962,
        -0.7230818686518932,
        -0.09900677660266924,
        -0.21229899741367395,
        0.19086861066519986
      ],
      [
        0.1733390387454935,
        1,
        -0.14017588315016702,
        -0.07200248918542451,
        0.8165046781582324,
        -0.636963571691235,
        0.5023139926929889,
        -0.038357527791788464,
        -0.33584150627754394,
        -0.9535146402444767,
        0.4438783368125753,
        -0.032505145843240366,
        -0.4062881077351215,
        -0.6859052932321501,
        -1,
        -0.3739639435899231,
        -0.009834255702814034,
        0.07199970903613219,
        0.009167436565178126,
        0.970559452195874,
        0.0001308019117979871,
        0.576066625302287
      ],
      [
        -1,
        -0.014389983699667165,
        -0.23521066268640844,
        -0.715976976203886,
        0.19267471559424276,
        -1,
        -0.09766684497192779,
        0.5914929987072799,
        0.054581188267482955,
        0.01636892885541097,
        -0.24012240946890087,
        0.02391408426264332,
        -0.038002821396258143,
        0.4829722530516807,
        -0.0013373820466989984,
        -0.8170684422670454,
        0.21760379589654594,
        -0.5873287524286865,
        0.0950693113618842,
        1,
        -0.06605027899181534,
        0.7013170281682459
      ],
      [
        0.8975072267586826,
        0.5109580918899248,
        0.12262920588551204,
        -0.3407145353313667,
        0.38453464256645176,
        -0.7798481426100214,
        -0.24448330368189164,
        -0.9935598694097378,
        0.24236856064898724,
        -0.47133822833571226,
        -0.2288695126874015,
        -0.012192256347992723,
        -0.6601850716357646,
        -0.018814049205979264,
        -0.16311157296484702,
        0.18879559196662465,
        0.03199036531155009,
        -0.48824563923788555,
        0.18996990964131785,
        -1,
        1,
        -0.613968554069148
      ],
      [
        -0.424629888758533,
        0.10751441984491984,
        -0.032789150156758776,
        0.10306169894303455,
        -0.8680451338264712,
        1,
        -0.4119445981832504,
        0.21005084119907966,
        0.2591679141013328,
        -0.5947120484205128,
        -0.09913250072356836,
        -0.1670068518842874,
        -0.08571777970660556,
        0.9090495965311044,
        0.5478565311754958,
        -0.026473463379175236,
        0.1821220337856596,
        0.1456737689349792,
        -0.04605365741090943,
        -0.7899394665932284,
        -0.7822363271763277,
        0.0793934271892612
      ],
      [
        -0.33979655100346795,
        -1,
        0.0020363407684938916,
        0.01347116975605129,
        0.02631027885267906,
        0.17162587384322014,
        -0.23771513273019632,
        -0.034405003555512605,
        0.35420109663765764,
        0.014114631142494923,
        0.4298416463967262,
        0.5645965703338716,
        0.41483443378282675,
        0.7678812835244607,
        -0.09414142088905719,
        0.24059988281400307,
        0.8791215382779145,
        0.12756862385641068,
        0.37691661563360374,
        0.5544138509229819,
        0.008640240272438334,
        0.4043250111094392
      ],
      [
        -0.026874381694327428,
        0.03646935329488348,
        0.00487309594103195,
        -1,
        1,
        0.293815782947889,
        0.09511385694079189,
        0.17449600653274389,
        0.9837684222724594,
        0.9230612251991676,
        0.9929884597761001,
        1,
        1,
        -0.021972467581250356,
        -0.14235156059978998,
        1,
        0.8343910090470896,
        0.3268208716533192,
        -0.130896748474298,
        0.993067105840802,
        -1,
        -0.012701447208610024
      ],
      [
        -0.05264530055973449,
        -0.3887159759561365,
        0.6720564297407103,
        1,
        0.02106416691681473,
        -0.45285565774541303,
        -0.41166005005628836,
        -0.29311305623800776,
        -1,
        0.9741015982081946,
        -0.11730525181266117,
        -0.37663338855077155,
        1,
        0.1641074915449412,
        -0.6827050925524125,
        0.17886856833609,
        1,
        0.23184984329441188,
        1,
        -0.8953133300837532,
        -0.20439465170731397,
        0.9275421322690263
      ],
      [
        -0.0034081590177968885,
        0.37339820233662,
        0.019294723064350164,
        -0.08658224317254183,
        0.05425877251243788,
        0.8578214625938957,
        0.17560436760432224,
        -0.014019548712501507,
        -0.6557584400819298,
        -1,
        0.0036280077049249257,
        -0.07977194872455762,
        0.7078205328850289,
        0.6035423789157415,
        -0.011417109138388863,
        -0.47900883879638867,
        0.22578466375207362,
        0.22593564660819293,
        1,
        0.07856614393642891,
        -0.523269974887032,
        0.5597732675442832
      ],
      [
        0.4829068581936382,
        -0.10408234463999592,
        -0.4427163038720933,
        1,
        0.7125596186290448,
        0.03660540722638783,
        0.9844662253861767,
        -0.6255349921122431,
        -0.014653325061289097,
        0.15420808749299875,
        0.005434911050139248,
        -0.03387504520558364,
        -0.2876519934991377,
        0.12310767997668193,
        0.011729317312171165,
        -0.053661469406494716,
        0.21495827055932704,
        0.20341570906008138,
        0.33670642561125863,
        -0.27056522631020163,
        -0.032708877391625917,
        -0.12690021652938382
      ],
      [
        -0.9146573233174481,
        0.021800708381731676,
        -1,
        0.1069937837159757,
        0.2778312710593797,
        0.5461737345016408,
        0.11227302440438858,
        0.20419269368305637,
        -0.42189295474078237,
        0.7482890712890612,
        -0.003201586334379767,
        -0.05054746331634153,
        0.9733584252831369,
        -0.09315878517322276,
        -0.03789358121850859,
        -0.41901447891078725,
        -0.9458938498296698,
        0.23711267541302727,
        -1,
        -1,
        -0.08571245325214569,
        0.3390584790056059
      ],
      [
        0.0006664900298529098,
        0.8605890351692124,
        -0.27676807893930255,
        -0.4703190031082141,
        0.08073488919697325,
        -0.3082075787224011,
        0.33424005755999603,
        -0.0798485732060066,
        1,
        0.013226434855457495,
        -0.36455249529948675,
        -0.8340998401071948,
        -0.9409845671093295,
        -0.6002783340526658,
        -0.21504687370273232,
        0.15873346488255902,
        -0.6403230153801571,
        0.5205419465399518,
        0.1782718192252353,
        -0.049736027363399146,
        0.5756200241416329,
        0.5608195472898707
      ],
      [
        -0.7406532573150597,
        0.18185187597563923,
        1,
        -0.08445689341453375,
        0.05143993433949268,
        -0.10628499222956427,
        -0.01854988944042509,
        0.8783821792974333,
        -0.6715373407967967,
        -0.7214106330489501,
        -1,
        0.2133796978388773,
        -0.7766346095853114,
        0.2293155684153716,
        -0.13228771048460194,
        -0.013832718351632882,
        -0.4111890374234585,
        -0.24227640579409093,
        -0.003006641023806992,
        -0.3587327504337921,
        0.27252572504267336,
        -0.7042111506235128
      ],
      [
        0.002296469268312494,
        0.10049161459202242,
        -0.012917485588425105,
        0.586001557442811,
        -0.799191786280308,
        0.23285524868600005,
        -0.986192108666657,
        -0.012506886413001564,
        -0.15260468491010584,
        -0.4868998047026365,
        0.15923535101824693,
        -0.6066358229319762,
        0.22326074808294094,
        -0.07869166045374619,
        -0.5064284365638485,
        -0.7710406956020599,
        -0.06724327663464925,
        0.501908425471164,
        -0.8136543784462147,
        0.0019729901670128337,
        -0.3989950609177409,
        1
      ],
      [
        -0.18334374240870166,
        -0.03722096823779835,
        0.06558942497839075,
        -1,
        0.692713327419347,
        0.6012209403405222,
        0.24987138388545516,
        -0.25822972310116765,
        -0.28542740800112176,
        -0.20996337933685194,
        -0.4823698878076335,
        -0.027210528458890715,
        0.020095136819810514,
        -0.9134171815634919,
        0.00829181960033375,
        -0.08516153487411969,
        0.0169336785671456,
        -0.3729592690508212,
        -1,
        1,
        -0.11452140524411374,
        0.8241198095285807
      ],
      [
        -0.56711206617133,
        -0.017288886132919498,
        0.9257896785686938,
        -1,
        0.5723169940666528,
        0.02243741600773996,
        0.8755329503315733,
        -0.4563095334203663,
        -0.8033049291730201,
        -0.7507298993610627,
        -0.7796372315395799,
        -0.04355398070338734,
        -0.36175098242668186,
        0.20910577990401863,
        0.22201593674577658,
        0.06551513907636888,
        -0.5521288335317553,
        -0.2886943456006031,
        -0.012847043101474227,
        1,
        0.8748205103006365,
        -0.1194558591509538
      ]
    ]
  ],
  "generation": 478
}