{
  "neurons": [
    [
      0.3,
      0.5,
      0.5,
      3.0,
      5.153e-07,
      0.0003525,
      0,
      0,
      0,
      1.0,
      0.546448087431694
    ],
    [
      0,
      0,
      0,
      3.257971877524862,
      0.5925573142634439,
      0,
      1.296415038947804,
      0,
      1.0052870347468805,
      0,
      0,
      0,
      0.16013935700229665,
      0,
      0,
      0,
      1.0388706495040623,
      2.4463561710329857,
      0.8551445557686173,
      1.202494853790092,
      0,
      0
    ],
    [
      0.9207636145496818,
      0,
      6.4874382757640445,
      2.5848386931607363,
      0,
      0,
      0,
      0,
      0.13788867088629414,
      0.4886828182945785,
      0.39021463293279046,
      2.576841649803752,
      2.9742289592046443,
      6.294645748188174,
      3.514373552088002,
      0.3699448627119871,
      0,
      0,
      0.9333947634347863,
      0,
      1.025628892953594,
      0,
      1.0375918701770646,
      0,
      0,
      1.6250937266976184,
      0,
      1.3929721301031954,
      1.323256138802813,
      1.997246644452786,
      0,
      0,
      0.9591966235502498
    ]
  ],
  "bias": [
    [
      0.0,
      0.0,
      0.0,
      0.0,
      0.0,
      0.0,
      -0.0,
      0.0,
      0.0,
      0.0,
      0.0,
      0.0,
      0.0,
      0.0,
      0.0,
      0.0,
      0.0,
      0.0,
      0.0,
      0.0,
      0.0,
      0.0
    ],
    [
      0.0,
      0.0,
      0.0,
      0.0,
      0.0,
      0.0,
      0.0,
      -0.0,
      0.0,
      0.0,
      0.0,
      0.0,
      0.0,
      0.0,
      0.0,
      0.0,
      0.0,
      0.0,
      0.0,
      0.0,
      0.0,
      0.0,
      0.0,
      0.0,
      0.0,
      0.0,
      0.0,
      0.0,
      0.0,
      0.0,
      0.0,
      0.0,
      0.0
    ]
  ],
  "weights": [
    [
      [
        -0.7729372344240353,
        0.2109386185959873,
        -0.24561327113259002,
        -0.7000944021422746,
        -0.04045725533829714,
        -0.9169716739692482,
        0.04729525032649229,
        -0.5219968322484958,
        -0.13905274699670045,
        0.697044228297456,
        -0.01176953548994275
      ],
      [
        -0.9838525016602149,
        -0.6107487263423499,
        0.5727474749048183,
        -0.76486279814257,
        -0.07014275936949328,
        0.7439203151818945,
        -0.13793667210712957,
        1,
        0.07881521089852561,
        0.023052028700832228,
        0.8211147995438541
      ],
      [
        -1,
        0.10760370353903759,
        0.5981724045013206,
        -0.11316670898109439,
        -0.0959489169088541,
        -0.23162363832987995,
        -0.19878517457291944,
        0.06853701582360383,
        -0.7875856291540633,
        -0.5828550271838193,
        -0.24983152520201823
      ],
      [
        -0.041218715800158935,
        0.6361341980106745,
        -0.3255248744510735,
        0.9831908558166171,
        0.3028639567420848,
        0.9509522917394615,
        -0.21154352618601457,
        0.698290065256024,
        -0.27275516040739967,
        0.19626393580352608,
        -0.05698444231593269
      ],
      [
        -0.7617828223137586,
        -0.8063333811544859,
        -0.3227400037807908,
        0.2809109205177469,
        0.3872854550743432,
        0.8354639635647565,
        0.045699462119884515,
        0.9714746391224628,
        -0.600871719695049,
        0.2530647101037671,
        0.5298521265097165
      ],
      [
        0.5343254816263303,
        -0.07125964599480894,
        0.10840564045633891,
        -1,
        0.5782160469778697,
        0.9888367979064234,
        0.9579410540627185,
        -0.4000683699860226,
        0.9948766615048394,
        0.6240020410955605,
        0.2576625761123763
      ],
      [
        -0.1622566560038292,
        0.004913819030477147,
        0.5377477305501868,
        0.7102638696058223,
        -0.5491266815983693,
        -0.06194204134775333,
        0.8212728754989878,
        0.4450223052870508,
        -0.07411264180880624,
        -0.6156099800764008,
        -0.8077587979536409
      ],
      [
        -0.2091571006348154,
        0.12016534968308398,
        -0.46124660296034237,
        -0.37317187815774067,
        0.9076384217128424,
        -0.9948154060304748,
        0.8307684207685948,
        -0.18819596813319883,
        0.0254657845309727,
        0.3508503184754379,
        -0.39222947207397585
      ],
      [
        0.7006894842774323,
        -0.1698426961836106,
        0.539253242000617,
        0.3714755087861319,
        0.8917053353138489,
        -0.31038397347348035,
        0.051420464119080744,
        0.08499928692717984,
        -0.20921997392313596,
        -0.17331489397427902,
        -0.6050488099025638
      ],
      [
        -0.32054326918525344,
        0.4093408328214514,
        0.6334796340962074,
        -0.03819285487286018,
        -0.8680064999278847,
        -0.09705237715272312,
        -0.5729965352365207,
        0.5067232574347478,
        -0.7412154192654237,
        -0.7162210457847549,
        -0.04665517802090324
      ],
      [
        0.25836222860756775,
        -0.5175795035530084,
        -0.4764902030848084,
        0.2219027418165378,
        0.8863493593559773,
        -0.590087097403049,
        0.8470895881402563,
        -0.7108562956274488,
        0.0871308619806047,
        -0.06917609979026396,
        -0.7344941796257425
      ],
      [
        -0.8148013761835096,
        -0.39010385826298094,
        -0.3887557044070671,
        -1,
        -0.5667114386551602,
        -0.43832448114774325,
        0.004506045371575285,
        -0.32118838395057997,
        0.3589549387180451,
        0.8423670460549293,
        -0.7122273563367385
      ],
      [
        0.9668586029945618,
        -0.625750341853945,
        -0.09591965166369043,
        -0.24729081836643552,
        0.038384819892212096,
        -0.9240091101363641,
        0.3654257291248264,
        -1,
        -0.28219332486071647,
        0.6401643546289961,
        0.6092995371793672
      ],
      [
        -0.10733651304165193,
        -0.15655768928486036,
        0.39616802427782893,
        -0.8223410406549667,
        -0.726289529798436,
        -0.01600157001570901,
        0.26904161234994417,
        -0.9293968605488487,
        0.9034151921887577,
        0.905090261519599,
        0.2582942624522617
      ],
      [
        -0.31377319847031715,
        -0.8625173959072598,
        -0.7009319645466441,
        0.02286512744888336,
        -0.04509805409939238,
        -0.6791173452930204,
        -0.8076152908754666,
        -0.3317764571525783,
        -0.22258264553181784,
        -0.5033160179070717,
        -0.1165697250314699
      ],
      [
        0.9461827916003918,
        0.6130457577848281,
        0.95196960566421,
        -0.8739435344317339,
        0.021882144479659547,
        0.38850884184018497,
        -1,
        -0.7721044318226142,
        0.41819149238439784,
        -0.21008424539646975,
        -0.2717528810666967
      ],
      [
        -0.2554747401847489,
        -0.2545908339329084,
        -0.05202949602220608,
        0.41118490972845145,
        -0.5230103066614169,
        0.6992322765687771,
        -1,
        0.23007569911907821,
        0.824023654796564,
        -0.3942718006558672,
        0.7856081995912175
      ],
      [
        0.10608321943247923,
        0.1809046830939598,
        0.8795032536745608,
        0.7925053137298719,
        -0.23802944564022654,
        -0.8430899686287747,
        -0.3272608002143875,
        0.21651886441944823,
        -0.8636607889382537,
        -0.7616511624791085,
        0.4918303790615499
      ],
      [
        0.7979534626877963,
        0.7852099011821778,
        0.14153113593653344,
        -0.32964648853568046,
        -0.3975637898746217,
        0.39510139829134494,
        -0.20473338432903043,
        0.8104824411760367,
        0.4558359430965946,
        0.6047631014186046,
        0.9816582884099412
      ],
      [
        -0.7174228775288922,
        -0.8742703906546905,
        0.9916915010564922,
        0.2522512158826673,
        -0.25338067123851205,
        -0.4756517015632944,
        0.5987457883128724,
        0.25931909903190686,
        0.4270180647321318,
        0.40480192457135233,
        0.3616507989792688
      ],
      [
        -0.5863771119561698,
        0.1970282718704135,
        0.21243757350475478,
        0.1097781215390683,
        0.07721828142796361,
        -0.9329634308667585,
        -0.5637038351946388,
        0.3364735503936256,
        -0.9402149144500089,
        -0.7250152035253059,
        -0.5338716167573778
      ],
      [
        0.957636838678958,
        0.21589096670286234,
        -0.9831293188345611,
        -0.5007715258139764,
        0.36049596001035855,
        0.13081327074815685,
        -0.27110437467248105,
        0.08972837846889481,
        0.824633962451103,
        0.3763571960185855,
        0.015704172002405075
      ]
    ],
    [
      [
        -0.9534582871606743,
        -0.9121699296011865,
        -0.6724898196777847,
        0.8743383919572882,
        -0.9907854787283201,
        -0.7733577802779867,
        0.20665993237267674,
        -0.6792984116391205,
        0.9170737517250538,
        0.8747993739602924,
        0.041061089541697626,
        -0.008590070132807026,
        -0.3763754350310994,
        -0.9397257994807304,
        0.043192340687050246,
        -0.14457733415126062,
        -0.8651406457588802,
        -0.9854547991660674,
        0.312520134374448,
        0.47569167408006874,
        0.010770748744572067,
        -0.8430395381372218
      ],
      [
        -0.5623487406221688,
        0.7634715155134637,
        -0.1534290955108843,
        -1,
        0.9667162185827349,
        0.2964137134592486,
        0.8095807356858036,
        0.8182947981959556,
        0.19782634865219112,
        -0.3853995358222253,
        -0.668719607637908,
        -0.4809907455210079,
        0.6434598054805096,
        0.4760314204838434,
        0.6699411507686321,
        0.7944958689735138,
        -1,
        0.1601619015598632,
        -0.4987563129158099,
        0.5624660796610779,
        -0.9272851787187681,
        0.14259233166934582
      ],
      [
        -0.11468122191935914,
        0.12638468089981192,
        0.3140605957365381,
        0.7230197067461885,
        0.8020015294091578,
        -0.14750000008553044,
        0.12661259496739752,
        -0.21582221562153636,
        0.17916294747584716,
        -0.15066340048535065,
        -0.00934302311935188,
        -0.8070318929757108,
        0.3196174757716852,
        0.03753786628774547,
        -0.03535631451008969,
        -0.39399423964987523,
        0.29361655300937506,
        0.6398019886815678,
        0.4042967345823181,
        0.8692321778523304,
        -0.6321730270399712,
        0.5783187266085748
      ],
      [
        0.5469322197914102,
        0.6945123914312588,
        0.3203620566741172,
        0.6263557508500515,
        0.7215013792836864,
        0.6783326677146717,
        -0.8267488106163845,
        -0.22032245259852434,
        0.32151497256249084,
        0.16533351853249734,
        -0.9872020145124674,
        -0.02694970575472566,
        0.021377467373543207,
        -0.7037048085610127,
        -1,
        -0.4410711825565916,
        0.14637896581244014,
        0.39443103185538364,
        0.14931769098700642,
        -0.3183764763509476,
        0.03865006638406854,
        0.6017829146052105
      ],
      [
        -0.4287784432390953,
        0.9630627653884835,
        -0.8804145040724813,
        -0.8172270915469615,
        -0.49318735901033617,
        0.6910861813215725,
        0.06802401439759051,
        0.9169329101565793,
        -0.6101850517258571,
        0.5886477655816484,
        -0.6967117615653444,
        0.6604763875616766,
        0.029810052897320638,
        0.7319628910239215,
        -0.4579486560764677,
        0.2101676661306846,
        0.9130820270351447,
        0.4651343760594384,
        -0.2539505959588193,
        0.694757547451667,
        0.03617258149917357,
        -0.34979806906638633
      ],
      [
        0.3424531258286454,
        0.5053030265315208,
        -0.20568536964540107,
        -0.5905095394183086,
        0.23506533390287032,
        0.8554910627933143,
        0.6847366531668746,
        -0.8890825641746714,
        0.8451596222535999,
        -0.6585418999051127,
        -0.14237377485936298,
        0.002524886146742779,
        -0.3888875853921514,
        -0.7753816720669418,
        -0.4692875893352584,
        -0.7493350301406401,
        0.06557156745965576,
        -0.7197746307725224,
        -0.5495053339216556,
        0.08095970115329965,
        -0.5455663792865346,
        -0.1150984687322727
      ],
      [
        0.2035044033386353,
        -0.26850398588611624,
        0.6508917699856331,
        -0.038698500223102894,
        0.31515146281763373,
        -0.08243522414559634,
        -0.3048701951444439,
        0.7766886378552068,
        -0.14490291920732346,
        -0.7472354055664958,
        0.34362999721936593,
        -0.3900597209164387,
        -0.33843581005674017,
        -0.2616594614141441,
        0.3690702116311986,
        -0.6062944164658095,
        -0.08330726509698973,
        -0.7296880065450682,
        0.6984058476562578,
        -0.6358556490601592,
        0.9144893064002164,
        -0.6915320966158223
      ],
      [
        -0.2532720730766979,
        -1,
        0.2041274123947283,
        0.15941426922214985,
        -0.8152867718699395,
        -0.9817848227799026,
        -0.02188455552767934,
        0.7836884755893485,
        0.21873228374628262,
        0.1558006471102067,
        -0.3714571661878141,
        -0.10046016700695959,
        -0.9440261688211651,
        -0.15071432202101254,
        0.3959751319928397,
        0.8052541889581879,
        0.5891453334972911,
        -0.7161290184480873,
        -0.7778914394556691,
        0.015890759034300903,
        -0.67077945267857,
        0.5922590120547095
      ],
      [
        -0.42876662353132516,
        0.012049193221673526,
        -0.7714139828662372,
        -0.27534469263206285,
        0.38059021166365037,
        -0.7497259049604823,
        -0.4021628679856711,
        -0.9810325202220807,
        0.4733437212728384,
        0.6660318964228227,
        0.2849811624764138,
        -0.6203636816379396,
        -0.594127472157362,
        -0.5111921437913551,
        0.6524400392351815,
        0.34825364760409094,
        -0.16045105072224275,
        0.6736690297712506,
        -0.04220507773521809,
        -0.41177370441077743,
        -0.09078906326248104,
        -0.8782972448403299
      ],
      [
        0.00403352787696747,
        -0.9909377454066779,
        0.9891461057850541,
        -0.9888365686791878,
        0.543342768527183,
        0.8853745688522245,
        -0.10485917070799777,
        0.04216719475902608,
        0.7404635340905997,
        0.8568752239169577,
        -0.8075066720587643,
        0.33713136169877744,
        -1,
        0.08862775306495996,
        0.1757517378293474,
        -0.24814597167937236,
        0.06041208072411486,
        0.5692108288209434,
        0.8256971753600915,
        0.6475550255458964,
        -0.23293574034807918,
        0.47334544480401997
      ],
      [
        -0.02736350966825163,
        0.6111800553496927,
        -0.23963881601068815,
        0.7914970659895706,
        -0.6442512950715729,
        -0.5708214892072929,
        -0.37021973194617663,
        -0.7309318672699834,
        -0.8585833158532774,
        0.3040269127547488,
        -0.6804031758105678,
        0.8837826044254795,
        -0.15668321165941285,
        0.24579220073079977,
        0.3703740747293134,
        -0.5824202407339769,
        0.5314812696465103,
        -0.054005991598768066,
        -0.7511865880474009,
        -0.17977770016278022,
        0.9013374562097942,
        0.353869311133288
      ],
      [
        0.5034940939501624,
        -0.6438266155346746,
        -0.07533234031937086,
        0.6768300142074892,
        -0.7250456316679155,
        -0.26828185806036986,
        -0.016966031494868083,
        -0.5823729391395823,
        0.550104552247014,
        -0.8719229374038535,
        -0.7257504006809381,
        -0.20098281075609137,
        1,
        0.7895526400083666,
        -0.1767194114967825,
        -0.10985226190666175,
        -0.28697306542339973,
        0.2956651105768191,
        0.14514399790909893,
        -0.36513345072738396,
        -0.1796592882784087,
        0.3205020919806783
      ],
      [
        0.5164215194014048,
        -0.28594708966503957,
        0.3245168285547504,
        0.6404269325580187,
        0.2886562957803238,
        0.009292252111424926,
        0.35245158268320065,
        0.08813424925897517,
        -0.39845741678449875,
        -0.35060055298043347,
        0.3036315807397074,
        0.11256757340521299,
        -0.0014554863676292415,
        0.00048186666256566646,
        -0.6337888285038022,
        -0.24906141146645003,
        0.20862945377697706,
        0.31782584145271464,
        -0.05907263437654442,
        -0.23548902087021228,
        -0.993410504393968,
        0.42573876643154485
      ],
      [
        -0.19143217853039096,
        -0.1947709561527495,
        0.5301157446840585,
        0.346776030878704,
        0.9249288237558708,
        -0.403010833931978,
        0.36998404021159814,
        0.7001425730531279,
        0.9280899929735675,
        -0.6150014916191562,
        0.38849932833347234,
        0.015282746952171857,
        0.3690582660699544,
        -0.2370261469276569,
        0.5988582202138966,
        -0.6914082094588683,
        -0.18078102624173664,
        1,
        0.5723571424907286,
        0.33017956231971834,
        0.06284392905372949,
        0.8807997322676788
      ],
      [
        -0.6147936347985231,
        0.5637668782716017,
        0.8804270161056342,
        0.06888834182830683,
        0.597312058724264,
        -0.2538131522157112,
        1,
        0.29407391062870186,
        0.6895833611645172,
        0.02320330200500531,
        0.37982113783925664,
        0.3675522183413653,
        0.8010094797339777,
        -0.8006910338242266,
        -0.5453367558478432,
        0.8328139582207461,
        0.4785092191032543,
        -0.004835167328929302,
        -0.19374082403347348,
        0.4145331812498687,
        0.7055153721139078,
        -0.036203398827925344
      ],
      [
        0.1781765528681185,
        0.5652858447437648,
        0.0231518371086159,
        -0.5377232274744108,
        -0.6687071310885355,
        0.00023667034912944196,
        -0.499490781992068,
        0.937151195894648,
        0.636667247549356,
        -0.7383874940059469,
        0.7468107597987548,
        0.8766930834313624,
        -0.04787855791725918,
        0.7235840404127143,
        0.5439475706125039,
        -0.31983680698517847,
        0.20047033153535,
        0.2760508998654041,
        0.5229340095333919,
        1,
        0.5817922542634284,
        -0.9078910766044317
      ],
      [
        0.967225265646178,
        -0.1906745529930467,
        -0.05335606133850734,
        -1,
        -0.296068962358208,
        -0.4944806621425417,
        0.3321497355150571,
        -0.19101977339732978,
        0.8667375836550057,
        0.24687038024399044,
        0.4048730491354777,
        -0.02069086963105904,
        0.2763295806851831,
        -0.7747961645771901,
        -0.008834312791918163,
        -0.5726082793075911,
        0.7303658192658102,
        0.2890190624635911,
        -0.7600257076321946,
        -0.7326076985333616,
        0.34393088360303437,
        -0.5910900775928072
      ],
      [
        0.5428079963990988,
        -0.6763084703716491,
        -0.1956549835809717,
        -0.5564887108070873,
        0.48752269922355884,
        -0.8769990995754804,
        -0.7090433991093978,
        0.7807431521128294,
        -0.8497889580200435,
        -1,
        0.6058790195989712,
        0.9475266426100664,
        -0.3565620412912005,
        -0.14911486460125145,
        0.6807411173275757,
        0.9944486608792396,
        0.7925239009616847,
        -0.5110986406736424,
        -0.8279248281874554,
        0.6993690043230247,
        1,
        0.6666140369053746
      ],
      [
        -0.7870526484727096,
        -0.38733698523773774,
        0.9781284198865425,
        0.8213109498156954,
        0.7229523303925796,
        -0.5595250005395156,
        -0.3159981073565603,
        -0.16754699286515584,
        -0.5856060811994541,
        0.7527883354619833,
        -1,
        -0.44233962589029296,
        0.9394816282116007,
        0.08371205125937665,
        0.8494568315511672,
        0.973543102252757,
        0.7226499013286165,
        -0.8000620002353553,
        -0.8593638795259007,
        0.514340823056719,
        -0.14185275312842638,
        -0.6146904424325308
      ],
      [
        0.8767323324711047,
        0.65027199277805,
        0.2203629833293792,
        -0.09212208139086075,
        0.5467184178870119,
        -0.24596867223466323,
        0.17875273587125104,
        -0.36294838928606943,
        -0.3761142289364048,
        -0.5966203824407497,
        -0.18127697135373544,
        0.6539824394935454,
        -0.9578092557687805,
        0.12033146572274123,
        -0.5820158127921553,
        -0.8937586083150801,
        -0.4967366426843649,
        -0.30716392431912487,
        0.733441544080438,
        0.4939039955257778,
        -0.06192194120278538,
        -0.5402181028689219
      ],
      [
        -0.6736537218861229,
        -0.9400001940450291,
        -0.7957541755235047,
        -0.40368142672961715,
        0.032761455542523965,
        -0.5442386115947269,
        0.8784948968467794,
        0.7584290488836198,
        0.9292059047294845,
        0.3084601725128988,
        1,
        1,
        -0.8117682040637448,
        -0.5404122361295484,
        0.5845533668973499,
        0.09980294975502622,
        -0.8185254590922915,
        0.44938341857848285,
        0.3762979074111541,
        -0.16001477914177734,
        -0.15422221918875284,
        -0.941500607257286
      ],
      [
        -0.16351220837463787,
        0.7666455507596166,
        0.6936597505942479,
        -0.34414169167811526,
        0.809463878557446,
        0.11903333977859872,
        -0.7955659635156738,
        -0.33113849586327615,
        -0.5441726718705875,
        -0.1911043705724242,
        0.5065661110814865,
        -0.012902428620604534,
        -0.6326678757811863,
        0.7332922311876215,
        -0.5668093746975185,
        0.12587864670976545,
        -0.24335493436849137,
        -0.5681174121888635,
        0.6585396672618196,
        0.3486257467658425,
        0.3282217781163099,
        -0.20446919550493145
      ],
      [
        -0.093022659541804,
        -0.1580359817412862,
        0.3914347468915782,
        -0.6324488656333327,
        0.9640129607991323,
        0.6330710384729468,
        0.34221075017441627,
        0.9430195036973856,
        -0.9442091223012783,
        0.8332378362523443,
        -0.5468631309823893,
        -0.3442543598559882,
        0.30200150301849304,
        -0.8637056551729685,
        -0.773382977306394,
        0.8001224881760971,
        0.5102308877425565,
        0.6121583891887017,
        0.18345997760408972,
        0.6649052229004513,
        0.3918089916364734,
        0.8220903985618142
      ],
      [
        -0.3349081564565466,
        0.0420532319142858,
        0.012397019317909486,
        0.6061304237152579,
        0.11817612243735653,
        -0.1900254581403309,
        0.013538163660170945,
        0.8848750456709946,
        -0.11305955863158479,
        -0.8162751656522591,
        -0.7449046134145876,
        0.26700203349071905,
        0.0017113466648852604,
        0.16849302148549405,
        -0.9511630744394144,
        -0.06098586561742647,
        -0.5688613419276582,
        -0.8323891088557271,
        -0.8887945926086689,
        -0.28784785040372296,
        0.947187499491666,
        -0.5565431308646618
      ],
      [
        -0.37833263407289186,
        0.7712681841306208,
        -0.12028516791302168,
        -1,
        -0.12879529440566126,
        0.22140460527461348,
        0.8117027759001101,
        -0.4483109886855714,
        -0.5232037899547866,
        0.6531768073337068,
        0.3317212941278431,
        0.019324241808400755,
        -0.36780051053993823,
        -0.2792416047008015,
        -0.17018844943190237,
        -0.8910915398114105,
        0.6407788684123947,
        -0.07982382530532162,
        0.8821416697520257,
        -0.6681874534384786,
        -0.26082796489063864,
        0.38516763959493683
      ],
      [
        0.22350647998910222,
        0.14804011341637313,
        0.8753992842804579,
        0.6968018197635119,
        -0.7735252859807562,
        -0.7667005074240498,
        0.9675338413076329,
        -0.955297067197006,
        -0.7530864697007418,
        -0.6881951037253593,
        0.533295233963275,
        0.7938757350236918,
        0.34744526240027906,
        -0.8977382535120988,
        0.40447771425140777,
        -0.711735487093589,
        -0.09244067096784947,
        -0.1576001352377483,
        0.7723981098163768,
        -0.7638602627564597,
        -0.9789691292669003,
        0.35778485430653295
      ],
      [
        -0.284019172418158,
        -0.6491599931588983,
        0.7721700602211565,
        0.5778776056686776,
        -0.5050000661105594,
        0.49038537211734645,
        0.007097849706931392,
        -0.0416470027227378,
        -0.5706280000525419,
        -0.6743767429466374,
        0.962597366614123,
        -0.7831039167740981,
        -0.11811119017495475,
        -0.04901742066312775,
        -0.36529412531212957,
        -0.2052452024144329,
        -0.8131730072219441,
        -0.4092568937034933,
        -0.6450706809818587,
        0.8768970330680219,
        0.45220939661606896,
        -0.835793037586197
      ],
      [
        -0.942698662528332,
        0.6771406560992499,
        0.5330730542266391,
        -0.060507834261604214,
        0.1922191166497207,
        -0.13212782715062543,
        0.32015111957588305,
        0.0016618043620312392,
        -0.06827789247318128,
        0.2968669191273794,
        0.7031665736892017,
        -0.030487729453751975,
        0.31422104940389095,
        -0.5501569999887069,
        0.2111307184505582,
        0.1907320277483735,
        0.8548083676646712,
        -0.48896747941468144,
        0.44548994234188966,
        0.8371512698397536,
        0.14814121763408483,
        -0.664723095276827
      ],
      [
        0.43006023010454975,
        -0.472867524135544,
        -0.8553059538228727,
        0.496947746468986,
        0.5898363554462289,
        -0.006365703307324841,
        0.9701500149609088,
        0.3371092036747063,
        0.028845521715016285,
        0.08565435229389601,
        -0.5728423322274869,
        0.30051778235123194,
        -0.40010636075381134,
        0.8945375858580649,
        -0.70933053660642,
        -0.0018572286271165694,
        -0.9261196368243927,
        -0.5540238190813314,
        0.10633830169037983,
        0.29819974940957383,
        0.3715160483080904,
        0.6218292187537913
      ],
      [
        -0.39704483798595325,
        0.3432879901003947,
        -0.5826179072461916,
        0.7315995149710894,
        0.16817179892840506,
        0.3910844913294851,
        0.03904657462962424,
        -0.18930026171800973,
        0.4026189419916426,
        1,
        -0.32390703572107205,
        0.6919437470233041,
        -0.9363938194332793,
        0.8701140540915793,
        1,
        -1,
        -0.3596449855511117,
        -0.1041813968311529,
        -0.3780379915410701,
        0.13340303072053183,
        -0.06091805690224259,
        0.45682751504090446
      ],
      [
        0.4018603327292203,
        -0.7618842215447019,
        0.6773439123011571,
        -0.8637562221769259,
        -0.2940699309954009,
        0.9507352584362545,
        -0.16063302247241285,
        -0.05992425535125645,
        -0.1693062913371255,
        0.07555681785582294,
        0.9481198784760858,
        0.716619032511725,
        -0.30856736975107424,
        -0.9373221632440583,
        -0.5673627901299076,
        0.2655520252550241,
        0.7980435079973909,
        0.22786407948176168,
        -0.7449672641340446,
        0.5693625471353501,
        0.7500094702482687,
        -0.3846932881336025
      ],
      [
        0.5415041424538869,
        -0.017759989218857797,
        -0.7731383878494336,
        -0.7071531852701849,
        -0.7074338436669985,
        -0.014163394309529842,
        -0.6763418004880839,
        0.9144471341228104,
        0.4693299345086377,
        -0.48898863199934395,
        0.6244844701825787,
        0.2661287073397578,
        -0.353327801231786,
        0.7675054794264797,
        0.3221738897524009,
        0.9821941806038614,
        0.44778500311647856,
        0.014129575407082078,
        -0.013526372401284847,
        0.9149367403625037,
        -0.18950657597026588,
        -0.6386094770443467
      ],
      [
        -0.013579670178226692,
        0.7694760512154066,
        0.6926711284124278,
        -0.6748414938954583,
        -0.0708944743551907,
        -0.16228463438540125,
        0.5667499872302748,
        -0.8261806161102927,
        0.4873006228687935,
        0.3555654749066113,
        -0.5438022416013444,
        0.2227572081584377,
        -0.9221578453966199,
        -0.6920982894450731,
        0.9306052866025718,
        0.204181266407087,
        0.03298580377236782,
        0.6370032698497723,
        0.5051348711505459,
        0.08175139574559975,
        0.31852820435033724,
        -0.5559119857704544
      ]
    ]
  ],
  "generation": 8
}