{
  "neurons": [
    [
      0.5,
      0.4,
      0.4,
      1.9,
      4.9969e-08,
      4.05e-05,
      0,
      0,
      0,
      1.0,
      0.546448087431694
    ],
    [
      0,
      0.43287157709990565,
      2.0351105011350183,
      3.46833160829151,
      0,
      0,
      0.7249349408887156,
      0,
      0.7855816123804199,
      1.2287760675051735,
      0.49000791277445516,
      0,
      0,
      0,
      0,
      0.3843561771232898,
      2.3282917442448596,
      0.40284729568672006,
      0,
      0,
      0.8699970764648739,
      2.88272777657604
    ],
    [
      0.5730164554018813,
      0,
      1.431313736488178,
      0.1892046363567942,
      5.231657399414182,
      3.7490466092098336,
      0,
      0,
      0,
      0,
      4.43057074801628,
      0,
      0,
      0,
      2.893180613310164,
      0,
      0,
      0,
      0,
      0,
      2.476817141738207,
      0,
      0.11314842444358986,
      5.3671019551011305,
      4.767337457109842,
      0,
      0,
      3.6035415221506226,
      0,
      0,
      2.346420927404509,
      1.04910680691932,
      0
    ]
  ],
  "bias": [
    [
      0.0,
      -0.0,
      0.0,
      0.0,
      0.9626206627420639,
      0.0,
      0.0,
      0.0,
      0.0,
      0.0,
      -0.0,
      0.0,
      0.0,
      0.0,
      0.0,
      0.0,
      0.0,
      0.0,
      0.0,
      0.0,
      0.0,
      0.0
    ],
    [
      0.0,
      0.0,
      0.0,
      0.0,
      0.0,
      0.0,
      0.0,
      0.0,
      -0.0,
      0.0,
      0.0,
      0.0,
      0.0,
      0.0,
      0.0,
      0.0,
      0.0,
      -0.0,
      0.0,
      0.0,
      0.0,
      0.0,
      0.0,
      0.0,
      0.0,
      0.0,
      0.0,
      0.0,
      0.0,
      0.0,
      0.0,
      0.0,
      0.0
    ]
  ],
  "weights": [
    [
      [
        -0.6636286732030898,
        -0.9850853020144623,
        -0.11555674764813166,
        0.019502775444788466,
        -0.08646259604275741,
        0.6253705748120046,
        -0.5514559944562916,
        0.7399554501600036,
        0.5192389322972701,
        0.7144804835530056,
        -0.5435451704224779
      ],
      [
        -0.16320528046666982,
        -0.4521928902203016,
        0.477322622064079,
        -0.13413866637856442,
        0.29957967333947894,
        0.04813092964879262,
        -0.1466693082953574,
        0.14372286922505806,
        -0.18939686857282312,
        0.9414192566047666,
        -0.3333078371966651
      ],
      [
        -0.2870518818041903,
        -0.2715577319499221,
        0.500958320333254,
        0.5799010653359835,
        0.41576059992487036,
        -0.867783576247408,
        -0.03341397450036898,
        0.2438002305872371,
        -0.9254221299934877,
        0.9998474603724121,
        -0.026989120662165522
      ],
      [
        0.6373273052471145,
        0.21965724169569853,
        0.7426632274554197,
        1,
        -0.8597889550105404,
        -0.5292471261469944,
        0.5046851518955644,
        0.50622191670494,
        -0.7611308286099288,
        0.4057495833904663,
        0.8399913416218496
      ],
      [
        0.2003557797261697,
        -0.13651028262293163,
        -1,
        -0.7873288128191938,
        -0.013441584520156617,
        -1,
        1,
        -0.29540938040910225,
        1,
        0.6328325069045349,
        -0.7727357637454253
      ],
      [
        0.001058645824865858,
        -0.41875170003016593,
        0.03866202905503391,
        -0.6539517121601656,
        0.7789889476012347,
        0.9111451339811438,
        -0.5387217261778448,
        0.06720040874551252,
        -0.466404895490087,
        0.11895728235179846,
        0.28710725327343933
      ],
      [
        0.0007174389291775148,
        -0.6341056034282071,
        -1,
        0.044042547344457894,
        0.7448355523732211,
        0.2645768917431392,
        0.06648205356157988,
        -0.37792411876902565,
        -0.010107652134584115,
        0.9820807292153722,
        0.5717764381082588
      ],
      [
        0.7836632461549584,
        -0.8747003230726773,
        -0.3194121714858482,
        -0.48426872881979566,
        -0.28606627692337966,
        0.0549612543287066,
        -0.0469400105599406,
        0.17959781976580502,
        -0.17356277921410124,
        0.833949274203968,
        0.22777382699964988
      ],
      [
        -0.6937096219782912,
        -0.0975874401483472,
        0.9081483996197015,
        0.2243140128360317,
        -0.5860949863066445,
        -0.03377149611514933,
        0.030347720085390512,
        -0.06429156987423656,
        1,
        0.3335548205949923,
        0.08868544468243211
      ],
      [
        -0.16720235748298803,
        -0.24217736509214244,
        0.8263232145053647,
        0.41305832080209204,
        -0.012450817070992937,
        -0.10158023154191897,
        -0.024472474337810857,
        0.8295964566552685,
        -0.09378946161130886,
        0.3230655533605023,
        -0.05335061546026587
      ],
      [
        0.8972410007785145,
        -0.7330044846112929,
        0.2667967910238902,
        0.5574579355001903,
        -0.24587845287412782,
        0.2128685263257264,
        -0.11482464406315339,
        -0.2003996560305555,
        -0.2226242628490055,
        -0.7065918856404396,
        -0.2282308489081648
      ],
      [
        0.1140597651551285,
        -0.4254059165133779,
        0.017161824297361246,
        -0.8146561009597473,
        0.2477263320342058,
        0.6657368609470532,
        0.04269518687254845,
        -0.7933708847696765,
        -0.9133790236088071,
        0.986299910873155,
        -1
      ],
      [
        0.005679928222883213,
        -0.8363975122510053,
        0.8984041810804455,
        -0.21289468017007884,
        0.8961621121987788,
        -0.38048382291612437,
        0.7966758143214487,
        0.08910435762945185,
        0.12978095162133832,
        0.3064390735347018,
        -0.154906111098704
      ],
      [
        -0.4399229510231726,
        0.048729162330521936,
        0.5342646111864024,
        -0.2552681314254963,
        -0.6985326723232227,
        0.8797508534222394,
        0.7425730885857618,
        0.22253130242124985,
        -0.9974497572730519,
        -0.35024389884058427,
        0.10464304775691691
      ],
      [
        0.035460862016001855,
        -0.3830696466104373,
        0.2904542269271837,
        -0.9455479321421365,
        0.45984980802539344,
        0.011658544806221477,
        -0.8217556775028657,
        0.4168280131361775,
        -0.2198513389789487,
        0.9617414831348972,
        -0.6417414084675739
      ],
      [
        -1,
        -0.14122668397284974,
        0.16555034473964247,
        -0.1338075565561152,
        0.33677027648944824,
        0.3030265114914844,
        -0.03256773876124197,
        -0.2721935246890451,
        -0.5533432652746915,
        1,
        0.23579326899466624
      ],
      [
        -0.3397757391430054,
        0.6441496477141151,
        -0.12405155932694348,
        0.43829854579212313,
        0.9416442511952152,
        1,
        0.1532103869469098,
        0.4615700749038595,
        -0.6331701393010474,
        0.9848786166027643,
        0.8645907793752337
      ],
      [
        0.7108786467549719,
        -0.8979867549475895,
        0.09570278531963497,
        -0.20805753668048044,
        0.8834307326148381,
        -0.02729398661663396,
        -0.8423156091074492,
        -0.5186170643423189,
        -0.36236462345096454,
        0.34134658888132585,
        0.7727821945887883
      ],
      [
        -0.21891876994803972,
        -0.4167843550473045,
        -0.8742067595930367,
        -0.25854336093678554,
        0.5395160952284583,
        -1,
        -0.6838335848269128,
        0.3550667235044889,
        1,
        0.13737258663810312,
        -0.9817825088721703
      ],
      [
        -0.2802024598145037,
        -0.5763779881847855,
        -0.33086875754817147,
        -0.3456052402194194,
        0.11910376414221746,
        0.03128115908949658,
        0.22932049432271473,
        0.0358758459009691,
        0.12134056475872099,
        0.5425591744455357,
        -0.6432876704157642
      ],
      [
        0.7921930229987661,
        -0.6712639906430367,
        -0.6818409557767671,
        0.018885751053893805,
        0.28469936023385434,
        0.6010140001293701,
        -0.2133207581833016,
        -0.8181016848347035,
        0.6962118956515801,
        0.9714653753854487,
        0.01421889110992458
      ],
      [
        0.19418969463731406,
        0.059210112357893314,
        -0.5393241738507093,
        1,
        0.752795202990902,
        0.37083630833613457,
        -0.055627893400942874,
        0.48526551856427114,
        0.9210067210962005,
        1,
        0.1421242001827041
      ]
    ],
    [
      [
        0.9770287515225256,
        1,
        0.6117441889941106,
        -0.6012846718322501,
        -0.8635921627831717,
        0.23234351248624563,
        -0.9111483080167957,
        0.9639315813484166,
        0.46999859931059845,
        -0.2852083321741493,
        1,
        0.4475721615801769,
        0.3663491484154867,
        0.2827293063685169,
        0.969414428071651,
        -0.46743349703229153,
        0.5982733453669322,
        -0.3521033429172906,
        0.5723730898691219,
        1,
        0.4684425274225472,
        -0.12023714342272829
      ],
      [
        -0.17620058363993074,
        -1,
        -0.20151194427320918,
        -0.8588648149446549,
        0.5834369265295696,
        0.6524179833417567,
        -0.22199061139974607,
        -0.20563768604032373,
        -0.4737841691321727,
        -0.807893402823187,
        -0.21106456099513538,
        0.8233339356439089,
        -0.25382724179094107,
        0.11579805497967488,
        -0.08605658491380241,
        0.7520316737618784,
        0.4941313256626776,
        0.5581063697817096,
        0.5023938540427234,
        0.9063416162511997,
        -0.28275475605949196,
        -0.18122754597437307
      ],
      [
        -0.49697543585734055,
        0.8918161379400925,
        -0.08474709826855742,
        -0.4610155088340211,
        0.789610070627276,
        -0.4316085548577613,
        -0.8921341887394871,
        1,
        -0.015536691539816818,
        0.6612390199177594,
        -0.9592326564166913,
        -0.22580226542302584,
        0.2979860155504619,
        0.31563848610662704,
        -0.1614513985777788,
        -0.46349800836521293,
        0.05852572389978544,
        1,
        0.980386535367046,
        -0.6430126620951029,
        0.3823530444960349,
        0.8462636670372774
      ],
      [
        0.2503917068160113,
        -1,
        -0.08539841463233921,
        -0.09980960957960461,
        -0.3276199857723656,
        1,
        -0.40640743878288654,
        -0.43925929305490113,
        0.5324371801896401,
        -0.2123369316170464,
        -0.5382290358054926,
        1,
        -0.6081478887205882,
        0.30535664985452365,
        0.31432469394461315,
        -0.48039286552632676,
        0.34240653444975,
        0.7127807076518944,
        0.22901835755083533,
        -0.6389174940298175,
        -0.01617166386536836,
        0.2280439211197125
      ],
      [
        -0.17280436577025604,
        0.9290637930026184,
        0.8787017389731155,
        0.038412751081503015,
        0.2618328871741167,
        -0.43452974713621684,
        -0.4144697072436323,
        -0.30858300139136174,
        0.024063639056440482,
        0.18353623781956765,
        0.3519928450112406,
        -0.11632469414178548,
        -0.32808819026373315,
        -0.24208947667678693,
        -0.12189119634943602,
        -1,
        0.6102712813797989,
        0.3881183637332679,
        -0.9415652382471784,
        0.9114842888546388,
        -0.6235198241210895,
        0.7427474764452338
      ],
      [
        -0.4269514843328539,
        -0.28844386061003385,
        -0.6448306234635106,
        0.8847587159987571,
        0.5264041813582299,
        -0.030586355010685767,
        0.1861691684980138,
        1,
        -0.2708028449807478,
        -0.145010332166416,
        -0.3145417712210147,
        -0.7774136208488918,
        -0.44976028744322005,
        0.689572932500629,
        0.9174972897187268,
        -0.26994938911794564,
        -0.04111800736100779,
        0.1824367970259233,
        -0.27144209451013546,
        -0.2008985911745344,
        -0.2632990695493559,
        1
      ],
      [
        -0.38529983053123384,
        0.8440898652306379,
        -0.7754422596253197,
        -0.07393324149559422,
        -0.301259920425355,
        1,
        0.14860083254774492,
        -0.05380020044197216,
        -0.9722292616477273,
        -0.3777078466909509,
        0.5289904290981946,
        0.3028602840935841,
        1,
        -0.5112334689890257,
        0.26806483453694785,
        0.17865428578043785,
        -0.4649348254822513,
        -1,
        -0.18634409721412704,
        -0.7182612377798698,
        -0.4807727616715374,
        1
      ],
      [
        0.2788173428222618,
        0.5924240023091902,
        -0.7303341388338724,
        -0.28121745245473984,
        -0.32271496882311596,
        -0.5313111870762806,
        0.936089670205466,
        -0.8724325242354232,
        0.9946063339926605,
        -0.028375476358851515,
        0.672707620931537,
        0.3449040851517549,
        0.1031558311469174,
        1,
        -0.4590760563464691,
        -0.8440525900369498,
        -0.40141855451718983,
        -0.012289405936776283,
        -1,
        0.19873814553520863,
        0.0766836549952703,
        -0.4819232210310307
      ],
      [
        -1,
        -0.26556525354681804,
        0.6242010417702988,
        -0.3111010206813394,
        -0.46523655806936093,
        -0.3718705338761253,
        -0.8029529035440626,
        -0.6539924931046053,
        -0.9935821490794869,
        0.7003705855259609,
        0.907655034309536,
        -0.21969832193324623,
        -0.6817501069058118,
        0.07320184490256687,
        -0.06288142404133423,
        0.08244551081507755,
        -0.011782839680498241,
        0.23942974441170328,
        -0.5039551889497496,
        0.6787038332766966,
        0.9446888196390872,
        -1
      ],
      [
        0.7734637535716147,
        0.6109072597515528,
        0.4938952636217977,
        0.10805854819018428,
        0.084604965020733,
        0.4269245236605992,
        0.05689124627820519,
        -0.3702582353759707,
        -0.11340575159844574,
        0.28449171700119824,
        0.4039406613216816,
        -1,
        -0.861406635478748,
        0.6681121608160892,
        0.6617088250633634,
        -0.924281954080332,
        -0.955631236628937,
        -0.28344574934029265,
        1,
        -1,
        -0.3037676505672358,
        -0.7181473202051867
      ],
      [
        0.03131822077973023,
        0.4202417371285636,
        0.17955070309837418,
        0.6323169249507465,
        0.42492048747216415,
        0.14110230905841373,
        -0.20356509288019842,
        -0.08680528247349611,
        0.3332714468974678,
        0.8001077912050152,
        0.13241202811971511,
        -0.5521956839286065,
        -0.34244347938295827,
        -0.8134504996704258,
        -0.003809027883756759,
        0.005597517326408209,
        -0.6038629558639008,
        0.11329960819919718,
        -0.16355060658554677,
        -0.8819948587186427,
        0.06495102933798624,
        0.6346631443834736
      ],
      [
        -0.8684883637936911,
        -0.29375880417279115,
        -0.6836608387921259,
        0.43725915055896225,
        1,
        -0.14314182142455212,
        -0.9406762787529153,
        -0.7027385965961342,
        -0.9230420127385819,
        0.26999329408370176,
        -0.04096994373097429,
        -0.7581721089796492,
        -0.7683112401339168,
        -0.6070197630067233,
        -0.5306043539194405,
        -1,
        0.6530822154555129,
        0.6328782604794554,
        1,
        -0.30940422469507345,
        -0.8091386200283679,
        0.09007571894824906
      ],
      [
        0.542871051345216,
        -0.5050845614815243,
        -0.98081295222773,
        -0.17282454061373853,
        -0.542332976381921,
        -0.7965465903437832,
        0.577119790445874,
        -0.15162630368140784,
        -0.3087689357899096,
        0.007152568353472724,
        -0.03777824470153582,
        0.09252882971218031,
        -0.9584603479208933,
        0.4742393664032327,
        -1,
        0.9849584069575819,
        -0.6481474321594873,
        -0.5095340767341427,
        -0.9208619144913848,
        -0.8437213875683087,
        -0.6525082797417097,
        0.6839630912398844
      ],
      [
        -0.7922084708368063,
        0.7167259676885366,
        0.0045593214653925915,
        -0.9846615142581161,
        0.8440245998134415,
        -0.5606872227939108,
        -0.42354810785712305,
        0.6201180655051626,
        0.5516959088365863,
        0.4625572013012693,
        -0.7421987399982126,
        0.8677552980128537,
        -0.2716890559188141,
        0.7503414248551391,
        0.12284138234763908,
        -0.5136670070559863,
        -0.2534369800616889,
        -0.28964544174195744,
        1,
        0.05907903928641564,
        -0.09222807224401497,
        0.9184221461903324
      ],
      [
        -1,
        0.6492457881479472,
        0.24570575358215185,
        0.8712008155010575,
        -0.5341328839804662,
        -0.1390570430008669,
        0.3397983583862385,
        0.7132333151953436,
        0.10484427692986253,
        -0.6694778253098808,
        0.06527908661485804,
        0.18687793758493298,
        -0.364006334466992,
        0.7378587265641292,
        0.9604022767155205,
        0.04146794567336143,
        0.5213263459919162,
        0.23320893784466756,
        -0.20222587931408714,
        0.7676128122237206,
        0.9530377381314574,
        -0.9020558388478006
      ],
      [
        0.3660650202844867,
        -0.17850103331539763,
        0.43981305934618575,
        -0.9529551110072678,
        -0.3876898986047381,
        -0.9179005858920561,
        -0.9757904319710613,
        0.599601261339854,
        -0.6216272000307255,
        0.03624097948229193,
        -0.007072741955925159,
        -0.9902784721103075,
        -0.5173627891584078,
        -0.41061098947594943,
        -0.01711197303152745,
        0.46532616959485607,
        0.21604904375254352,
        -1,
        0.855084846130798,
        0.10497939485169461,
        -0.2649071340965463,
        -0.10820286017985903
      ],
      [
        0.2927842253630979,
        0.9909402353464409,
        0.29340725512749144,
        -0.48234301212457065,
        0.7839265230691543,
        0.12355551619452941,
        0.34173170658534224,
        0.6246322795849112,
        -0.7567826395230433,
        0.5357041950249526,
        0.9722417098643559,
        -0.2813002200462009,
        -0.026562228261718612,
        0.3609303026013282,
        0.357099180705325,
        0.18557507568323905,
        -0.5668633357778667,
        0.8633357368690424,
        0.8117940449221526,
        -0.6714887193260355,
        0.40915320432566443,
        -0.6740749213517232
      ],
      [
        1,
        0.8444809855363196,
        -0.5928005109403021,
        -0.5104570480438555,
        0.033183158413145626,
        0.15317492042117098,
        -0.24238791647611224,
        0.09258802510041186,
        0.4871974655846485,
        0.2730084187312409,
        0.0383398044417468,
        0.733300325853522,
        0.7232834058708348,
        -1,
        0.7671329342311741,
        -0.17533418983000246,
        0.09914919458718185,
        -0.9112179328938934,
        -0.318281818014603,
        -0.6086189137322486,
        0.9644501751181043,
        -0.7656451170701515
      ],
      [
        -0.45827317741503615,
        -0.7076962442781756,
        0.3834984168477481,
        -0.10925870879190244,
        0.012702177750508612,
        -0.3239004794334239,
        -0.3834166073514469,
        -0.8368417337970835,
        0.43407383021646995,
        0.33128358139444536,
        -0.07885740667029228,
        -0.9693352596250522,
        0.013010216699729635,
        -0.8867327038499722,
        -0.6774254869388083,
        0.9507738596231757,
        -1,
        -0.926747226926921,
        0.44609685071217364,
        0.6972163229165795,
        -0.2650545746332367,
        -0.1308204576061507
      ],
      [
        -0.5129552198778173,
        -0.2740280318614629,
        0.9745342834625024,
        -0.7688317058170773,
        0.45138438830854327,
        -0.31363102932412756,
        0.008686931469499943,
        0.13547649926359295,
        -1,
        -0.6764485552441306,
        -0.436209122796577,
        0.6356570083583346,
        0.22894338374136303,
        -0.5549426187658566,
        -0.7374730608845534,
        0.049386575974154745,
        -0.9754338283435204,
        0.4640337575772693,
        -0.1171776257927181,
        -0.5933412466417665,
        0.054147539086970786,
        -0.1981408040782699
      ],
      [
        1,
        0.24548303592532264,
        -0.269271542645205,
        0.3977787749070935,
        -0.18923297402080075,
        -0.9483626896628472,
        0.8833956115378818,
        0.4310170478364279,
        -0.7534420619246052,
        0.9694700969847845,
        0.5223576320280964,
        -0.4358178259683072,
        0.2793809165159946,
        -1,
        0.016092233865517835,
        -0.0497696699949548,
        0.34653912629105105,
        0.25810220782302024,
        -0.3430437940648836,
        0.4624053024722758,
        0.23040825556530575,
        -0.3638765975449618
      ],
      [
        -0.30986059205967603,
        -0.25983842391628675,
        0.5807879862899967,
        -0.1251996738569597,
        0.21895904042771427,
        -0.29372570298413575,
        -0.13321292895096049,
        0.5897163865817969,
        0.2054686684142542,
        -0.8349970768361148,
        0.569444342822234,
        -0.041208545565142286,
        -0.18971499131329117,
        -0.0641403425465833,
        -0.7562311508362458,
        0.7308641206394452,
        -0.4115869008566374,
        -0.3916464129940054,
        -0.08281244520576811,
        0.04802734400611157,
        0.02016158366292964,
        -0.6619346056075657
      ],
      [
        -0.07641630158011892,
        1,
        -0.14385358372381285,
        -0.4332265959873849,
        0.5898806316881535,
        -0.954118115494818,
        -0.5053690139401424,
        -0.37840026050586695,
        0.4330123713850375,
        0.13263879042797375,
        0.9554891619885624,
        0.5712437996448798,
        0.046177702297048304,
        0.13207677107546645,
        -0.3995854151126039,
        -0.8114602400325552,
        -0.19247339023679313,
        0.27829166173074604,
        -0.9542682885100184,
        -0.11554846478521541,
        0.12712340564068714,
        0.48840500958655864
      ],
      [
        -0.7107295257206374,
        -0.03905927235092398,
        -0.8016811093713163,
        0.6491141067267188,
        0.018157452068611468,
        0.09953678766459517,
        -0.865773788663156,
        0.3307281526558576,
        0.8680615014773234,
        1,
        -0.8218240399980661,
        -0.04524409504482185,
        0.809305016424695,
        -1,
        0.1382137868631136,
        1,
        0.35190193592845076,
        -0.8663654250073116,
        -0.14121372421106276,
        0.8747746569144743,
        0.647300460824217,
        0.8554307265813568
      ],
      [
        0.2399219277743605,
        -0.8887777473858796,
        0.20418173612823054,
        0.40489044918014305,
        0.4648263456515058,
        0.3094113954512648,
        0.2923483566523728,
        -0.1529755107552588,
        -0.5480065157687952,
        0.4653080027719747,
        -0.9626183232936087,
        -0.5453920838119957,
        -0.5450395695382708,
        -0.9557247310951191,
        0.7927264165566581,
        -0.06385962868188923,
        0.24182529705631173,
        -0.8443967223331688,
        0.06990345341296351,
        -0.20856939263639784,
        0.9790627433305161,
        0.8327616421655335
      ],
      [
        0.6269417575774159,
        0.80672201659115,
        0.7817913274429669,
        -0.4416171110247493,
        0.09823849705379768,
        1,
        0.07674398104185043,
        -0.33434271785781483,
        -0.07226447576578184,
        0.7647150075546476,
        -0.6842012226012162,
        0.8246957311319334,
        -0.6597225865586589,
        0.015359038039981485,
        -0.41403331699281054,
        0.28299449205074256,
        -1,
        -0.41712614099050493,
        0.5195509714303952,
        -0.09720618081871878,
        0.0015938814292817732,
        -0.596549256940458
      ],
      [
        0.7960776277316819,
        -0.007144127481918838,
        -0.7394973334823745,
        0.13074946203260596,
        0.2442035245806516,
        -0.001081907776372994,
        -0.05886280371123487,
        0.41326615352890594,
        0.36327721038913835,
        0.14122790390643164,
        -0.26570896335435856,
        -0.002799854574893351,
        -0.5854259827984394,
        -0.16194565762516108,
        0.6364048562220987,
        -0.33596209839372815,
        -0.7470159612244078,
        0.7188325264034638,
        0.1820102553374096,
        -0.1246480806419421,
        -0.5498855327071991,
        0.695072523291304
      ],
      [
        0.3455158100065092,
        0.608489582489286,
        -0.11566204384947554,
        0.4073737678344689,
        -0.5839510684662262,
        0.004802930028936334,
        -0.8742409346585154,
        0.8070456337262624,
        0.34371895103312733,
        -0.4204905724102239,
        -0.40679590141018945,
        -0.451346523658667,
        0.25343694487411944,
        0.08387214169392779,
        0.7841303638440562,
        -1,
        0.12690530120838472,
        0.907631028414226,
        -0.40435040294921865,
        0.4056663800018281,
        0.09530032810956679,
        1
      ],
      [
        -0.37698893783106224,
        -0.5034211721204387,
        0.27398945216758297,
        0.5082443784013073,
        -0.14089485979349958,
        -0.3803146719652486,
        -0.33243518761283547,
        -0.033247063475209095,
        -0.14569213637992373,
        -0.36950053770565616,
        -0.6525548652890796,
        -1,
        -0.0076633997658194595,
        -0.8035061566669637,
        0.28613576403047514,
        0.2591627683227757,
        -0.31146898001437706,
        -0.09653756993395435,
        -0.12846894883101467,
        -0.38118651241764684,
        -0.7770109854288103,
        -0.9486114207426108
      ],
      [
        0.06662127698338921,
        -0.29356341124978147,
        -1,
        -0.7989889602610503,
        -0.03253751568879505,
        -1,
        0.33270140823332983,
        -1,
        -0.6806078699855436,
        0.8630619405811891,
        1,
        -0.6571301381015522,
        -0.38513385596256644,
        0.762878722870511,
        0.9516360247421787,
        -0.6845103566265831,
        0.04640776651874268,
        -0.2761089676331811,
        -0.9878145978067581,
        -0.0935491258172838,
        -0.7030948287557564,
        1
      ],
      [
        0.12661563108781282,
        -0.7967725982429696,
        -0.3366911196594604,
        0.4299125311183893,
        0.10578796626922457,
        0.25730535889863515,
        -0.961252538327461,
        0.9362573013338538,
        0.3671306079078047,
        0.6499853166224829,
        0.021828328788515823,
        0.6032476195872646,
        -1,
        0.5552475007242866,
        0.695084058111774,
        -0.06920264336978926,
        0.8446069115427397,
        0.5433546713339883,
        0.4651623166593283,
        0.5682624112620001,
        0.4291938479405334,
        -0.3634341070427911
      ],
      [
        0.2934964924576726,
        0.3783405456362089,
        -0.2052864059415216,
        -0.6400622499447004,
        0.26069612861188546,
        0.7193237976055527,
        -0.22306000404805593,
        0.029711815585960213,
        -0.15019899028615294,
        0.8333408626002816,
        -0.35574987680232173,
        -0.16144891544879347,
        -0.7827552833829763,
        -0.11421363866340618,
        -0.96130842729958,
        -0.29194140796261103,
        0.5286870369382428,
        0.0722783402446554,
        0.8874113593218664,
        -0.9588496943410039,
        0.7035605674865979,
        0.413896224588405
      ],
      [
        -0.973258927629578,
        -0.37795024478451644,
        -0.3721397570413621,
        -0.3004908370485124,
        -1,
        -0.7253538934416142,
        -0.3539254614999961,
        -0.5256324317835537,
        -0.19559875431987717,
        0.28137694577714667,
        -0.2263536179943358,
        0.007307851568336243,
        0.27564976426084664,
        -0.3798344686964561,
        0.6748264476719663,
        0.903677986674011,
        0.7389424410982863,
        -0.7408138868449448,
        0.07401047077291478,
        0.9620793920686501,
        -0.9352025039572884,
        -0.17934525421791886
      ]
    ]
  ],
  "generation": 16
}