{
  "neurons": [
    [
      0.1,
      0.4,
      0.5,
      1.6,
      2.7809e-08,
      3.505e-05,
      1,
      1,
      0,
      1.0,
      0.546448087431694
    ],
    [
      0,
      0.559195147642611,
      2.0978544672815413,
      1.6735078767152907,
      0,
      0,
      1.058098298530173,
      0,
      0,
      2.3910185506218635,
      0.49513322165158186,
      0,
      1.91224436621105,
      0.10043094616838776,
      0,
      0,
      0.5565368921112654,
      0,
      0,
      0,
      1.1432817023959507,
      0
    ],
    [
      1.5060887798575042,
      0,
      0,
      0,
      0,
      0,
      0,
      0,
      1.4602060139618573,
      2.243142173695077,
      0,
      2.4305950437063006,
      0,
      0,
      3.7598808124847936,
      0,
      0,
      1.8982096204838719,
      0,
      0,
      1.7892778375957543,
      0,
      2.4993234398030006,
      5.82468172943145,
      0.06908869944239227,
      3.818590169073306,
      0,
      0,
      0,
      0,
      0,
      0.6993345359479952,
      1.0677610482166202
    ]
  ],
  "bias": [
    [
      0.0,
      0.0,
      0.0,
      0.0,
      0.0,
      0.0,
      0.0,
      0.0,
      0.0,
      0.0,
      -0.0,
      0.0,
      0.0,
      0.0,
      0.0,
      0.0,
      0.0,
      0.0,
      0.0,
      0.0,
      0.0,
      0.0
    ],
    [
      0.0,
      0.0,
      0.0,
      0.0,
      0.0,
      0.0,
      0.0,
      0.0,
      0.0,
      0.0,
      0.0,
      0.0,
      0.0,
      0.0,
      0.0,
      0.0,
      0.0,
      0.0,
      0.0,
      0.0,
      0.0,
      0.0,
      0.0,
      0.0,
      0.0,
      0.0,
      0.0,
      0.0,
      0.0,
      0.0,
      0.0,
      0.0,
      0.0
    ]
  ],
  "weights": [
    [
      [
        -0.6636286732030898,
        -0.9850853020144623,
        0.628546657880596,
        0.010300705513034978,
        -0.08646259604275741,
        0.6253705748120046,
        -0.5514559944562916,
        0.7399554501600036,
        0.5192389322972701,
        -1,
        -0.5435451704224779
      ],
      [
        -0.5642852811520191,
        -0.4521928902203016,
        0.509567257244907,
        -0.13413866637856442,
        -0.17736186625110872,
        0.04813092964879262,
        -0.1466693082953574,
        0.14372286922505806,
        0.04457480893418166,
        0.9414192566047666,
        -0.3333078371966651
      ],
      [
        -0.2870518818041903,
        -0.2715577319499221,
        0.500958320333254,
        0.5799010653359835,
        0.41576059992487036,
        -0.867783576247408,
        -0.03341397450036898,
        0.2438002305872371,
        -0.9254221299934877,
        0.8612541850706252,
        -0.026989120662165522
      ],
      [
        0.6373273052471145,
        -0.33111843241625594,
        0.7426632274554197,
        0.6945500978427472,
        -0.8597889550105404,
        -0.5292471261469944,
        0.8325638625528622,
        -0.6690452261001398,
        -0.7611308286099288,
        -0.4042897206457303,
        0.9157327449849968
      ],
      [
        0.2003557797261697,
        -0.13651028262293163,
        -0.3372797672461179,
        -0.7873288128191938,
        0.4300158154742517,
        -0.9718147248391631,
        -0.9138636284134123,
        -0.29540938040910225,
        0.7243563484427726,
        0.6328325069045349,
        -0.7727357637454253
      ],
      [
        -0.00147610122209052,
        -0.41875170003016593,
        0.03866202905503391,
        0.424696099177593,
        0.6672672265431249,
        0.9111451339811438,
        -0.5387217261778448,
        -0.8306730891531973,
        -0.466404895490087,
        -0.4754384395957263,
        0.28710725327343933
      ],
      [
        -0.0009002741621824129,
        -0.6341056034282071,
        0.7674432702598659,
        0.044042547344457894,
        0.7448355523732211,
        -0.682104971491736,
        -0.05893800798638349,
        -0.37792411876902565,
        0.018823844055688044,
        0.9820807292153722,
        0.5717764381082588
      ],
      [
        0.7836632461549584,
        -0.8747003230726773,
        -0.20017170374919124,
        -0.6815203376139665,
        0.1436436976572104,
        -0.05888841945945195,
        -0.20337443386644494,
        0.17959781976580502,
        -0.17356277921410124,
        0.8011349329205533,
        0.22777382699964988
      ],
      [
        -0.6937096219782912,
        -0.0975874401483472,
        0.9081483996197015,
        0.2243140128360317,
        -0.5860949863066445,
        0.7013524972357092,
        -0.30041546991397017,
        -0.06429156987423656,
        1,
        -0.3560419585719945,
        -0.6124353765877002
      ],
      [
        -0.8318958377420866,
        0.17369844652963895,
        0.8263232145053647,
        0.395560807771018,
        -0.012450817070992937,
        -0.10158023154191897,
        -0.024472474337810857,
        0.8295964566552685,
        -0.09378946161130886,
        0.5827027762953743,
        -0.05335061546026587
      ],
      [
        0.8972410007785145,
        -0.7330044846112929,
        0.2667967910238902,
        0.5574579355001903,
        0.6413958538477553,
        0.2128685263257264,
        -0.11927225815420783,
        -0.9701669270624329,
        -0.11294392338165427,
        0.8874278403229923,
        -0.2282308489081648
      ],
      [
        0.1140597651551285,
        -0.4254059165133779,
        -0.08874500604637281,
        -0.8146561009597473,
        0.2477263320342058,
        0.8971501230628456,
        0.04269518687254845,
        -0.7933708847696765,
        -0.9133790236088071,
        -0.9354586463793892,
        -1
      ],
      [
        0.005679928222883213,
        0.9997385565716288,
        0.8984041810804455,
        0.30125806174573255,
        -0.370729389143489,
        -0.3049878301480915,
        0.7966758143214487,
        -0.29534464275388306,
        -0.5763477732125917,
        0.3064390735347018,
        -0.4157642578827596
      ],
      [
        -0.4399229510231726,
        0.048729162330521936,
        -0.2774254293976899,
        -0.2552681314254963,
        -0.6985326723232227,
        0.8797508534222394,
        0.7425730885857618,
        0.22253130242124985,
        -0.9974497572730519,
        -0.35024389884058427,
        0.10464304775691691
      ],
      [
        0.2798301881038441,
        -0.3711086141600255,
        0.2904542269271837,
        -0.5656629959868518,
        0.45984980802539344,
        0.011658544806221477,
        -0.9682996965728179,
        -0.34522519490587844,
        -0.2198513389789487,
        0.9617414831348972,
        -0.6417414084675739
      ],
      [
        -0.8140069531044098,
        0.14141986184485486,
        0.16555034473964247,
        -0.1338075565561152,
        0.33677027648944824,
        -0.5087587546788619,
        -0.03256773876124197,
        -0.9238014480431815,
        -0.5533432652746915,
        -0.8602083302451025,
        0.23579326899466624
      ],
      [
        -0.3397757391430054,
        0.6441496477141151,
        0.4430464302014776,
        -0.22790259986800354,
        0.9416442511952152,
        1,
        -0.23287983904279863,
        -0.748512279918838,
        -0.6331701393010474,
        0.9848786166027643,
        0.8645907793752337
      ],
      [
        -0.13456847492071167,
        -0.8979867549475895,
        0.7898169093296816,
        -0.20805753668048044,
        0.8834307326148381,
        -0.02729398661663396,
        -0.8423156091074492,
        -0.5186170643423189,
        -0.36236462345096454,
        0.34134658888132585,
        0.7443323827404174
      ],
      [
        -0.21891876994803972,
        -0.4167843550473045,
        -0.8742067595930367,
        -0.25854336093678554,
        0.5395160952284583,
        0.9162380228304112,
        -0.6838335848269128,
        0.9092473912680279,
        1,
        -0.13114251806330723,
        -0.7519934718965415
      ],
      [
        0.3978974631598824,
        -0.5763779881847855,
        -0.33086875754817147,
        -0.3456052402194194,
        0.11910376414221746,
        0.03128115908949658,
        0.22932049432271473,
        0.0358758459009691,
        0.10943657480089009,
        -0.3986932254607263,
        -0.6432876704157642
      ],
      [
        0.7921930229987661,
        -0.6712639906430367,
        -0.6818409557767671,
        -0.045155933634370864,
        0.8960318634681932,
        -0.7575806117722035,
        0.2738544964058609,
        0.4926747386956307,
        0.6962118956515801,
        0.9714653753854487,
        0.01421889110992458
      ],
      [
        0.19418969463731406,
        0.045623463902322525,
        -0.5393241738507093,
        -0.7121533331961831,
        0.752795202990902,
        0.37083630833613457,
        -0.055627893400942874,
        -0.9919291775802073,
        0.9210067210962005,
        1,
        0.1421242001827041
      ]
    ],
    [
      [
        0.9770287515225256,
        -0.8358111830023254,
        0.6117441889941106,
        0.41403311460502157,
        -0.8635921627831717,
        0.23234351248624563,
        -0.9111483080167957,
        0.5006953106157512,
        0.6545980335048993,
        -0.14380427587998845,
        -0.6171413012776208,
        0.4475721615801769,
        0.3663491484154867,
        0.4147193062584733,
        0.969414428071651,
        0.8224260277379827,
        0.5982733453669322,
        -0.3521033429172906,
        0.5723730898691219,
        0.8585655844592843,
        0.4684425274225472,
        -0.12023714342272829
      ],
      [
        -0.17620058363993074,
        -1,
        -0.20151194427320918,
        -0.8588648149446549,
        0.5834369265295696,
        0.6524179833417567,
        -0.22199061139974607,
        -0.20563768604032373,
        -0.4737841691321727,
        -0.807893402823187,
        -0.21106456099513538,
        0.43458336484391924,
        -0.25382724179094107,
        0.11579805497967488,
        -0.08605658491380241,
        -0.27816861385971103,
        0.4941313256626776,
        0.43070962913087363,
        0.6326500187537816,
        0.9063416162511997,
        0.7332936629841047,
        -0.18122754597437307
      ],
      [
        -0.6151032232047704,
        0.47732297393297207,
        -0.08474709826855742,
        0.2821647459704104,
        0.45804676214642037,
        -0.4316085548577613,
        -0.8921341887394871,
        -1,
        -0.11015389075062942,
        0.6612390199177594,
        -0.9592326564166913,
        -0.22580226542302584,
        -0.6316034930452767,
        0.31563848610662704,
        -0.1614513985777788,
        -0.46349800836521293,
        0.08673282164729415,
        -0.8968158429825139,
        0.980386535367046,
        -0.6430126620951029,
        -0.7081466744966038,
        0.8462636670372774
      ],
      [
        0.3166367968641801,
        -0.6531820610101353,
        -0.08539841463233921,
        0.32998256363630074,
        -0.3276199857723656,
        -0.8924019201903457,
        -0.40640743878288654,
        0.5913528912995849,
        0.40136449357271853,
        -0.10810096471150143,
        0.6878268204286044,
        1,
        -0.6081478887205882,
        0.844008124322476,
        0.31432469394461315,
        -0.48039286552632676,
        0.39813085850209845,
        0.7127807076518944,
        0.22901835755083533,
        -0.8799833058518174,
        -0.009058245455182412,
        0.2280439211197125
      ],
      [
        -0.17280436577025604,
        0.9290637930026184,
        -0.9005203531992922,
        0.0459616137115233,
        0.2618328871741167,
        0.6891661337756319,
        -0.4144697072436323,
        -0.30858300139136174,
        0.024063639056440482,
        0.5534918000290259,
        0.18861191338422967,
        -0.11632469414178548,
        -0.32808819026373315,
        -0.24208947667678693,
        -0.12189119634943602,
        -0.6605121338668667,
        0.6102712813797989,
        0.3881183637332679,
        -0.9415652382471784,
        0.9114842888546388,
        -0.6235198241210895,
        0.7427474764452338
      ],
      [
        -0.4269514843328539,
        -0.714349813657011,
        -0.6448306234635106,
        0.8847587159987571,
        0.5264041813582299,
        -0.2209507701281023,
        0.1861691684980138,
        -0.8422261240357103,
        0.5894812847544013,
        0.1855037606189589,
        0.4262540512870583,
        -0.7774136208488918,
        -0.44976028744322005,
        0.6990718452596936,
        0.9174972897187268,
        -0.26994938911794564,
        -0.04111800736100779,
        0.1824367970259233,
        0.5754904250893969,
        -0.7173035158334351,
        -0.9607868832870208,
        0.9481542268162979
      ],
      [
        -0.38529983053123384,
        0.8440898652306379,
        -0.5137547227965718,
        -0.07393324149559422,
        -0.301259920425355,
        -0.760587773075027,
        0.09976296452577804,
        -0.05380020044197216,
        -0.9722292616477273,
        -0.3777078466909509,
        0.9038500207036952,
        0.3028602840935841,
        -0.32891426784474853,
        -0.5112334689890257,
        0.26806483453694785,
        -0.20352139709139183,
        0.6345769585423751,
        0.8834602504592817,
        -0.18634409721412704,
        -0.7182612377798698,
        -0.4807727616715374,
        1
      ],
      [
        -0.5028265667854646,
        0.5924240023091902,
        -0.7303341388338724,
        -0.5602039714922495,
        0.24644200234623553,
        -0.5313111870762806,
        0.936089670205466,
        -0.8724325242354232,
        0.9946063339926605,
        -0.028375476358851515,
        0.672707620931537,
        0.19151134220324284,
        0.1031558311469174,
        -0.6348901153581608,
        -0.4590760563464691,
        0.46052971906539053,
        0.2037065682231629,
        -0.05170795828744316,
        -0.6955131371303891,
        0.19873814553520863,
        0.0766836549952703,
        0.4179005692326596
      ],
      [
        -0.43201541224460627,
        -0.26556525354681804,
        0.7734074196977287,
        -0.3111010206813394,
        -0.46523655806936093,
        0.20102175795290922,
        -0.8029529035440626,
        -0.6539924931046053,
        -0.9935821490794869,
        0.7003705855259609,
        0.907655034309536,
        -0.21969832193324623,
        -0.6817501069058118,
        0.07320184490256687,
        -0.06288142404133423,
        0.8747286329608184,
        -0.9905684394227978,
        0.23942974441170328,
        -0.5039551889497496,
        0.6787038332766966,
        0.9446888196390872,
        -0.7950241874189441
      ],
      [
        0.7734637535716147,
        0.6109072597515528,
        0.4938952636217977,
        -0.258362893651904,
        0.084604965020733,
        0.4269245236605992,
        0.05689124627820519,
        -0.3702582353759707,
        -0.651053413929835,
        0.28449171700119824,
        0.4039406613216816,
        1,
        0.7293199722413057,
        0.6681121608160892,
        0.6617088250633634,
        -0.5518450250305402,
        -0.955631236628937,
        -0.28344574934029265,
        1,
        -0.7020580662858853,
        -0.5007876001463707,
        -0.7181473202051867
      ],
      [
        0.03131822077973023,
        0.4202417371285636,
        0.15220396954915683,
        0.6323169249507465,
        0.42492048747216415,
        -0.09913055305372365,
        -0.20356509288019842,
        0.1249636411110937,
        0.3332714468974678,
        -0.948777823800073,
        0.2825244905753299,
        -0.5521956839286065,
        -0.34244347938295827,
        0.772787382696734,
        0.7779825570604268,
        0.14236551007425224,
        -0.6038629558639008,
        -0.08343888612367767,
        0.1942928239092292,
        -0.46610455011083296,
        0.06495102933798624,
        -0.2332753201577913
      ],
      [
        -0.8684883637936911,
        0.19740305598862773,
        0.8191491777060931,
        0.43725915055896225,
        0.618408936086636,
        -0.14314182142455212,
        -0.9406762787529153,
        0.3969943941341223,
        -0.9230420127385819,
        0.11709689307016125,
        -0.04096994373097429,
        0.9562309963153042,
        0.6422825179969587,
        -0.6070197630067233,
        -0.5306043539194405,
        -0.8770016277664403,
        0.6530822154555129,
        0.729911806485146,
        1,
        0.3356383305376718,
        -0.8091386200283679,
        0.09007571894824906
      ],
      [
        -0.8267370665290041,
        -0.5050845614815243,
        -0.98081295222773,
        -0.17282454061373853,
        0.8833124603417135,
        -0.7965465903437832,
        0.34407269847724464,
        -0.15162630368140784,
        0.9340585235878696,
        -0.04256836344211834,
        -0.5539953353267841,
        -0.09030183203428077,
        -0.9584603479208933,
        0.4742393664032327,
        -0.8942956381224092,
        0.9849584069575819,
        -0.6481474321594873,
        -0.5095340767341427,
        -0.9208619144913848,
        -0.8437213875683087,
        -0.6525082797417097,
        0.6839630912398844
      ],
      [
        -0.7922084708368063,
        0.9669162291619735,
        -0.13185822964247773,
        -0.9846615142581161,
        0.8440245998134415,
        0.9236528741075198,
        -0.42354810785712305,
        0.6201180655051626,
        0.5516959088365863,
        0.374704240723579,
        -0.7421987399982126,
        0.8677552980128537,
        -0.2716890559188141,
        0.892410078091207,
        0.12284138234763908,
        -0.5136670070559863,
        -0.2534369800616889,
        0.9096142050930762,
        1,
        0.10228057600362916,
        -0.09222807224401497,
        0.9277748270256909
      ],
      [
        -0.9248248515160742,
        0.6492457881479472,
        0.24570575358215185,
        0.8712008155010575,
        -0.5341328839804662,
        -0.3852657303792979,
        0.3397983583862385,
        0.7132333151953436,
        0.10484427692986253,
        -0.6694778253098808,
        0.46311184748495227,
        0.18687793758493298,
        0.5132551923176436,
        0.7378587265641292,
        0.9604022767155205,
        -0.6799995516943114,
        0.5213263459919162,
        0.23320893784466756,
        -0.20222587931408714,
        -0.8104660558541763,
        0.9530377381314574,
        -0.4017411544019247
      ],
      [
        0.49332440230139807,
        -0.22296438629768112,
        0.43981305934618575,
        -0.9529551110072678,
        -0.3876898986047381,
        -0.9179005858920561,
        0.6686819227070178,
        0.599601261339854,
        -0.6216272000307255,
        0.03624097948229193,
        -0.08056788679520506,
        -0.9902784721103075,
        -0.5173627891584078,
        -0.5139856593373984,
        -0.01711197303152745,
        0.46532616959485607,
        0.21604904375254352,
        -0.6482768324667585,
        0.4605977613437624,
        0.10497939485169461,
        -0.3833052774461667,
        -0.10820286017985903
      ],
      [
        0.2927842253630979,
        0.9909402353464409,
        -0.27565518944205736,
        -0.2933920474769056,
        0.7839265230691543,
        0.12355551619452941,
        -0.2555220578353816,
        0.6277549384511922,
        -0.7567826395230433,
        0.2780979420412657,
        0.6466543613628306,
        -0.2813002200462009,
        -0.026562228261718612,
        0.3609303026013282,
        0.357099180705325,
        0.18557507568323905,
        -0.5668633357778667,
        0.8633357368690424,
        0.8117940449221526,
        0.4174769572114736,
        -0.986947042084334,
        -0.6740749213517232
      ],
      [
        -0.5360761716625402,
        0.06955697320936838,
        0.6682420509560345,
        -0.5104570480438555,
        0.056129153738693184,
        0.15317492042117098,
        -0.24238791647611224,
        0.8256992308339455,
        0.4871974655846485,
        -0.4586588155850715,
        0.04742361837059397,
        0.4596351331227493,
        0.7232834058708348,
        1,
        0.7671329342311741,
        0.6298756969695993,
        0.09914919458718185,
        -0.9112179328938934,
        -0.318281818014603,
        -0.6086189137322486,
        0.9644501751181043,
        -0.7656451170701515
      ],
      [
        -0.45827317741503615,
        -0.7076962442781756,
        -0.40097793049439345,
        0.2927525217680198,
        0.357687766535695,
        0.39642391700581037,
        -0.3834166073514469,
        -0.8368417337970835,
        0.379262271814909,
        0.33128358139444536,
        0.1803028874671877,
        -0.9693352596250522,
        0.013010216699729635,
        -0.8867327038499722,
        -0.6774254869388083,
        -0.8284159277713103,
        -0.5845756301346592,
        -0.926747226926921,
        0.44609685071217364,
        -0.5361544385350434,
        -0.2650545746332367,
        -0.1308204576061507
      ],
      [
        -0.5129552198778173,
        -0.6545958589437215,
        0.6919144478541321,
        -0.7656017793190169,
        -0.22757013035257123,
        -0.31363102932412756,
        -0.12122765972512362,
        0.1132528651017164,
        -1,
        -0.6764485552441306,
        -0.436209122796577,
        0.6356570083583346,
        -0.4219217727305853,
        -0.5549426187658566,
        -0.7374730608845534,
        0.049386575974154745,
        -0.9754338283435204,
        0.4640337575772693,
        -0.15005859206819294,
        -0.5933412466417665,
        0.054147539086970786,
        0.21441973047981833
      ],
      [
        -0.9338028199431292,
        0.6842141580483441,
        -0.48436409434753736,
        -0.5341146861937511,
        -0.18923297402080075,
        -0.9483626896628472,
        -0.5325525660473767,
        -0.8004133032688481,
        -0.7534420619246052,
        0.9694700969847845,
        0.5223576320280964,
        -0.4358178259683072,
        0.43254576892895824,
        0.9659865348356879,
        0.016092233865517835,
        -0.0497696699949548,
        -0.3341348347710196,
        0.25545647884981015,
        -0.3430437940648836,
        0.280504229740721,
        0.49444042051065096,
        -0.3638765975449618
      ],
      [
        -0.4165632987165462,
        -0.33888671447500895,
        0.5807879862899967,
        0.4521257653410171,
        -0.9178790966549021,
        0.5155993902605664,
        -0.13321292895096049,
        0.5897163865817969,
        0.103226949915453,
        -0.8349970768361148,
        0.569444342822234,
        -0.041208545565142286,
        -0.18971499131329117,
        -0.0641403425465833,
        -0.7562311508362458,
        0.7716408978358764,
        0.4469629209823027,
        -0.3916464129940054,
        -0.08281244520576811,
        0.306568275666806,
        0.02016158366292964,
        0.11261511082462938
      ],
      [
        -0.07641630158011892,
        0.8911104966061298,
        -0.14385358372381285,
        0.8983854006512391,
        0.776978208492181,
        -0.954118115494818,
        -0.5053690139401424,
        -0.37840026050586695,
        -0.47491879840223206,
        0.2895457053028512,
        0.9554891619885624,
        -0.3755316903112358,
        -0.4621809982897873,
        0.13207677107546645,
        -0.3995854151126039,
        -0.8114602400325552,
        0.11789567480095786,
        0.27829166173074604,
        -0.9542682885100184,
        -0.11554846478521541,
        0.8515829893161404,
        -0.42965981831173705
      ],
      [
        0.302776328270594,
        -0.016761421414802153,
        -0.41266317674002306,
        0.6491141067267188,
        0.4218919093225528,
        0.09953678766459517,
        1,
        -0.5029927930654983,
        0.8680615014773234,
        1,
        -0.8218240399980661,
        -0.04524409504482185,
        0.809305016424695,
        0.8740109622746381,
        -0.6095970073019019,
        -0.8367839568804045,
        0.35190193592845076,
        -0.8663654250073116,
        -0.14121372421106276,
        0.8747746569144743,
        0.647300460824217,
        0.8554307265813568
      ],
      [
        0.2399219277743605,
        -0.8887777473858796,
        -0.5588869764583941,
        0.40489044918014305,
        0.4648263456515058,
        -0.19667437868685367,
        0.2923483566523728,
        -0.13075986270765672,
        -0.5480065157687952,
        0.4653080027719747,
        -0.9626183232936087,
        -0.5453920838119957,
        -0.5450395695382708,
        -0.9557247310951191,
        0.7927264165566581,
        -0.056102896712484585,
        0.24182529705631173,
        -0.8443967223331688,
        -0.09341258750695602,
        -0.20856939263639784,
        0.9790627433305161,
        0.8327616421655335
      ],
      [
        0.6269417575774159,
        0.80672201659115,
        0.7817913274429669,
        0.5597324363291065,
        0.09823849705379768,
        -0.5741974281369944,
        0.9508066816199321,
        -0.6976492894768276,
        -0.2780188702049675,
        0.7647150075546476,
        -0.6842012226012162,
        -0.4212306238314618,
        -0.6597225865586589,
        -0.06436746316812458,
        -0.41403331699281054,
        0.28299449205074256,
        -0.7885494392498213,
        -0.41712614099050493,
        0.5195509714303952,
        -0.09657840893419715,
        0.0015938814292817732,
        -0.596549256940458
      ],
      [
        0.7960776277316819,
        -0.007144127481918838,
        -0.7394973334823745,
        0.13074946203260596,
        -0.23956977287111925,
        0.1052772875140866,
        -0.05886280371123487,
        0.41326615352890594,
        -0.8917681078304525,
        -0.1436198457135527,
        -0.26570896335435856,
        0.007394387209995745,
        -0.5854259827984394,
        -0.16194565762516108,
        -0.1498288224190958,
        0.5172206955446685,
        0.5099193421470587,
        0.42987011812545717,
        -0.25247921935636675,
        -0.1246480806419421,
        0.7988860947056946,
        0.695072523291304
      ],
      [
        0.934617751279933,
        0.608489582489286,
        -0.11566204384947554,
        0.4073737678344689,
        -0.5561184355943602,
        0.004802930028936334,
        -0.8742409346585154,
        0.8070456337262624,
        0.34371895103312733,
        -0.4204905724102239,
        -0.876815235308773,
        0.3032496845738679,
        -0.5717470438116232,
        -0.12468595011388017,
        0.7841303638440562,
        -0.9511460208008804,
        0.12690530120838472,
        0.5464221803868614,
        -0.40435040294921865,
        0.4056663800018281,
        0.10459683785243334,
        -0.575771863782218
      ],
      [
        -0.37698893783106224,
        -0.5034211721204387,
        0.5504031837404639,
        0.5082443784013073,
        -0.14089485979349958,
        -0.3803146719652486,
        -0.8457006564250542,
        -0.14669658609236608,
        -0.14569213637992373,
        -0.45543072554125197,
        -0.6525548652890796,
        -0.6193794706701461,
        -0.003886467771753388,
        -0.8378999971201941,
        0.28613576403047514,
        0.2591627683227757,
        -0.31146898001437706,
        -0.09653756993395435,
        -0.12846894883101467,
        -0.38118651241764684,
        -0.7770109854288103,
        -0.9258981272068949
      ],
      [
        0.041107416141646924,
        -0.29356341124978147,
        -0.8006646784121121,
        -0.7989889602610503,
        0.3176039540460367,
        -1,
        0.2007713820420316,
        1,
        -0.6806078699855436,
        -0.7615083408598666,
        0.767189542487464,
        -0.6571301381015522,
        0.3450029152941012,
        0.762878722870511,
        0.9516360247421787,
        -0.6845103566265831,
        0.2655074316733419,
        -0.17018363976712614,
        -0.9878145978067581,
        -0.0935491258172838,
        -0.7030948287557564,
        -0.941248785078951
      ],
      [
        0.12661563108781282,
        -0.7967725982429696,
        -0.3366911196594604,
        0.3123757939283689,
        0.6295568361219379,
        0.25730535889863515,
        -0.961252538327461,
        0.9362573013338538,
        0.3671306079078047,
        0.6499853166224829,
        0.01182483100654208,
        0.6993258485977218,
        -0.9486227777334575,
        0.5316253298368672,
        0.695084058111774,
        -0.04402352217470762,
        0.8446069115427397,
        0.5433546713339883,
        -0.25868234749166064,
        0.5682624112620001,
        0.7442156515770144,
        0.4351421218451479
      ],
      [
        0.2934964924576726,
        0.3102702717801562,
        -0.2052864059415216,
        -0.6400622499447004,
        0.34994387119635584,
        0.7193237976055527,
        0.5832918668547755,
        0.22643379479301773,
        -0.6292427767750197,
        0.8333408626002816,
        -0.35574987680232173,
        -0.16144891544879347,
        -0.7827552833829763,
        -0.07676187338418868,
        0.9872529039146096,
        0.5574628514181768,
        0.5286870369382428,
        0.0722783402446554,
        0.8874113593218664,
        -0.9588496943410039,
        0.7035605674865979,
        0.413896224588405
      ],
      [
        -0.973258927629578,
        -0.37795024478451644,
        -0.3721397570413621,
        0.6152887302711822,
        -1,
        -0.7253538934416142,
        0.79675395735698,
        -0.5256324317835537,
        -0.18764583174290683,
        0.28137694577714667,
        -0.45254029105014815,
        0.007307851568336243,
        0.17968628898441508,
        0.5248065889432039,
        0.6748264476719663,
        0.903677986674011,
        0.7389424410982863,
        -0.5723786345674469,
        0.07401047077291478,
        0.9620793920686501,
        -0.9352025039572884,
        0.4548847660989917
      ]
    ]
  ],
  "generation": 2
}