{
  "neurons": [
    [
      0.7,
      0.5,
      0.5,
      0.3,
      6.7265e-08,
      0.0002625,
      0,
      0,
      0,
      1.0,
      0.546448087431694
    ],
    [
      0,
      0.12851659159913695,
      1.310721161544187,
      0.969030923912792,
      0.5294992328727883,
      0,
      0.3551461606371992,
      0.7953873755352816,
      0,
      0,
      0,
      0.059676614753171875,
      0.20867036296318792,
      0,
      0.34417818027713737,
      0.5382266982986548,
      1.2754930373598572,
      0,
      0,
      0.5981332255115104,
      2.0155328851268193,
      0.20076139966418677
    ],
    [
      3.2975834883925024,
      1.1170509723694357,
      0,
      0.4103004972357706,
      0,
      2.063629989916788,
      0,
      1.309217642618895,
      0,
      0,
      0,
      0,
      0,
      2.0388205071655614,
      3.717069537401176,
      0.9148655501134646,
      0.5432165289430488,
      0,
      0,
      0,
      0.594650014207173,
      0.08219170476515575,
      0,
      1.0919689271488355,
      2.4184840188904526,
      1.5350623413605322,
      0,
      0.8987145998095665,
      0,
      0,
      2.8464590904095424,
      0,
      0
    ]
  ],
  "bias": [
    [
      -0.0,
      0.0,
      -0.0,
      0.0,
      0.9626206627420639,
      0.0,
      0.0,
      0.0,
      0.0,
      0.25622919930908794,
      -0.0,
      0.0,
      0.0,
      0.0,
      0.0,
      0.0,
      0.0,
      0.0,
      0.0,
      0.0,
      0.0,
      0.0
    ],
    [
      0.0,
      0.0,
      0.0,
      -0.0,
      0.0,
      0.0,
      0.0,
      0.0,
      -0.0,
      0.0,
      0.0,
      -0.0,
      0.0,
      -0.0,
      0.0,
      -0.0,
      0.0,
      -0.0,
      0.0,
      0.0,
      0.0,
      0.0,
      0.0,
      0.0,
      0.0,
      0.0,
      0.0,
      0.0,
      0.0,
      0.0,
      0.0,
      0.0,
      0.0
    ]
  ],
  "weights": [
    [
      [
        -1,
        -0.9850853020144623,
        0.1292244053190117,
        -0.03274814293107249,
        -0.08646259604275741,
        -0.43565533985956517,
        -0.5514559944562916,
        0.7399554501600036,
        0.765432836402982,
        0.7144804835530056,
        -0.5435451704224779
      ],
      [
        -0.16320528046666982,
        -0.4521928902203016,
        -0.500380665426605,
        -0.13413866637856442,
        0.11164365319205248,
        0.01840651605218179,
        -0.1466693082953574,
        0.028765784331733355,
        -0.18939686857282312,
        0.9414192566047666,
        -0.3333078371966651
      ],
      [
        -0.4095772792938462,
        0.37592078380608834,
        0.500958320333254,
        0.5799010653359835,
        -0.8276657293180414,
        -0.3194893438487409,
        -0.03341397450036898,
        -0.13564832906908497,
        -0.9254221299934877,
        0.9998474603724121,
        -0.026989120662165522
      ],
      [
        -0.903199214431026,
        0.1306330000244187,
        0.7426632274554197,
        1,
        -0.8597889550105404,
        -0.5292471261469944,
        -0.020602721632576853,
        0.50622191670494,
        -0.7611308286099288,
        0.4057495833904663,
        0.8399913416218496
      ],
      [
        0.2003557797261697,
        -0.018431818471264974,
        -1,
        -0.7873288128191938,
        -0.002037178518063983,
        -1,
        1,
        0.12075042836223113,
        1,
        0.6328325069045349,
        -0.8427624507355851
      ],
      [
        0.001058645824865858,
        0.21068307195578093,
        0.009533390949777015,
        -0.6539517121601656,
        0.7789889476012347,
        0.11883964124479762,
        -0.5387217261778448,
        0.06720040874551252,
        0.4588527568764711,
        -0.43027585422471515,
        0.21263522894352713
      ],
      [
        -0.5960607711049184,
        -0.10666449770520264,
        -1,
        0.044042547344457894,
        -0.11117475511316831,
        0.23638664880545537,
        0.10655596462119635,
        -0.4221891252079182,
        0.009410963681615427,
        1,
        0.5717764381082588
      ],
      [
        0.4703704232322213,
        -0.8747003230726773,
        0.4921765330158618,
        -0.48426872881979566,
        -0.28606627692337966,
        0.6891919341260536,
        -0.0469400105599406,
        0.3514418530696843,
        -0.17356277921410124,
        0.6780231271756569,
        0.22777382699964988
      ],
      [
        -0.6937096219782912,
        -0.0975874401483472,
        -0.07086555942256201,
        0.2243140128360317,
        -0.5860949863066445,
        0.03419576579506165,
        -0.04177447736232623,
        -0.06429156987423656,
        -1,
        0.3335548205949923,
        0.08868544468243211
      ],
      [
        -0.16720235748298803,
        -0.24217736509214244,
        -1,
        0.19009730396012048,
        -0.012450817070992937,
        0.02684678299710201,
        0.027789056401370776,
        0.8750960965914022,
        -0.09378946161130886,
        0.3230655533605023,
        -0.05335061546026587
      ],
      [
        0.8972410007785145,
        -0.7330044846112929,
        -0.4852308600305846,
        1,
        -0.24587845287412782,
        0.2128685263257264,
        -0.0756043516141406,
        -0.2003996560305555,
        -0.2226242628490055,
        -0.7065918856404396,
        0.09542530210937858
      ],
      [
        -0.10857915255742487,
        -0.4254059165133779,
        0.017161824297361246,
        -0.33335407671949047,
        0.2477263320342058,
        -0.15828357161162637,
        0.04269518687254845,
        0.5281893961540904,
        -0.9133790236088071,
        0.986299910873155,
        -1
      ],
      [
        0.005679928222883213,
        -0.5708307345817807,
        0.49056296969110597,
        0.19164702868535533,
        0.8961621121987788,
        -0.38048382291612437,
        0.7966758143214487,
        0.08910435762945185,
        -0.13713682658024137,
        0.3064390735347018,
        -0.2177792776692735
      ],
      [
        -0.5935517917336243,
        0.048729162330521936,
        0.5342646111864024,
        -0.2552681314254963,
        0.15958088156972977,
        0.8797508534222394,
        0.7425730885857618,
        -0.2325772858970354,
        -0.2821007399834004,
        -0.35024389884058427,
        0.10464304775691691
      ],
      [
        0.035460862016001855,
        -0.3830696466104373,
        0.2904542269271837,
        -0.9455479321421365,
        -0.9039201915424089,
        0.023209277039552386,
        -1,
        0.5245781398069237,
        0.2615741326284011,
        1,
        -0.6417414084675739
      ],
      [
        -1,
        0.16723546870690972,
        0.13164576585702592,
        -0.1338075565561152,
        0.33677027648944824,
        0.3030265114914844,
        -0.027200496151524225,
        -0.5144721147727017,
        -0.5533432652746915,
        1,
        0.23579326899466624
      ],
      [
        0.2028733869803458,
        -0.5692719398021628,
        -0.34193417021215894,
        0.43829854579212313,
        0.9416442511952152,
        1,
        0.1532103869469098,
        0.4615700749038595,
        -0.6331701393010474,
        0.9848786166027643,
        0.8645907793752337
      ],
      [
        0.007587443306486117,
        -0.8979867549475895,
        0.09570278531963497,
        -0.013228996821124099,
        0.8834307326148381,
        -0.02729398661663396,
        -0.8423156091074492,
        -0.5186170643423189,
        -0.36236462345096454,
        -0.018303915869965274,
        -0.31305634203675614
      ],
      [
        -0.21891876994803972,
        -0.4167843550473045,
        -0.8742067595930367,
        -0.25854336093678554,
        0.5395160952284583,
        -1,
        -0.6838335848269128,
        -1,
        -0.7200461964786733,
        0.13737258663810312,
        1
      ],
      [
        -0.2802024598145037,
        -0.5763779881847855,
        0.6512673721204688,
        -0.40443600700782806,
        0.018618741289530817,
        0.046983820375502,
        -0.15826422678347637,
        0.02174629106123201,
        0.12134056475872099,
        0.7264527656148385,
        0.27760360203485
      ],
      [
        0.7921930229987661,
        0.9168147580672343,
        0.035823418328501895,
        0.018885751053893805,
        0.8446773966688375,
        -0.8470953959813504,
        -0.2133207581833016,
        -0.34113675795848275,
        0.6962118956515801,
        0.9714653753854487,
        0.01421889110992458
      ],
      [
        0.16171142521921889,
        0.059210112357893314,
        -0.5393241738507093,
        -0.15666321353903134,
        -0.46742571934195615,
        0.6302778285784916,
        -0.025755345725498802,
        0.48526551856427114,
        -1,
        0.2967904829626422,
        0.1421242001827041
      ]
    ],
    [
      [
        -1,
        -1,
        0.6117441889941106,
        1,
        -0.8635921627831717,
        0.03295204037654655,
        -0.9111483080167957,
        0.9639315813484166,
        0.0568455952357794,
        -0.2852083321741493,
        1,
        0.4475721615801769,
        0.5935084101667931,
        0.2827293063685169,
        0.969414428071651,
        0.6244657426500537,
        -0.9217173638931955,
        -0.3521033429172906,
        1,
        1,
        0.7157483727932392,
        -0.07974571459840875
      ],
      [
        -0.17620058363993074,
        0.35285702566355237,
        -0.20151194427320918,
        1,
        0.5834369265295696,
        0.6524179833417567,
        0.2367181150597973,
        -0.20563768604032373,
        -0.4737841691321727,
        0.08122004796241773,
        -0.21106456099513538,
        1,
        -0.25382724179094107,
        0.1865165311688876,
        -0.08605658491380241,
        0.7520316737618784,
        -0.14137468535793726,
        -0.17017565192780473,
        0.5023938540427234,
        0.9063416162511997,
        -0.28275475605949196,
        -0.18122754597437307
      ],
      [
        -0.5218018528065916,
        0.8918161379400925,
        -0.08474709826855742,
        -0.4610155088340211,
        0.6428131223360175,
        -0.4316085548577613,
        -0.8921341887394871,
        -1,
        -0.015536691539816818,
        0.6612390199177594,
        -0.9592326564166913,
        -0.22580226542302584,
        0.2979860155504619,
        -0.47588964516483084,
        -0.1614513985777788,
        -0.46349800836521293,
        0.05852572389978544,
        1,
        -1,
        -1,
        0.3823530444960349,
        -0.06253918894678945
      ],
      [
        -0.17032100883408297,
        -0.8833923281656157,
        0.0819038827849414,
        0.15920630579266376,
        -0.3276199857723656,
        1,
        -0.2417254459525535,
        0.5572963225122194,
        0.6557159832826883,
        -0.2123369316170464,
        -0.09444409922984896,
        1,
        0.872572038177019,
        0.30535664985452365,
        0.2868920985269387,
        -0.37767951720450726,
        0.34240653444975,
        0.7127807076518944,
        0.24720445289637397,
        -1,
        0.0281068779121583,
        0.2280439211197125
      ],
      [
        -0.17280436577025604,
        -0.6320596506050369,
        0.07717809235477734,
        0.01979320450103209,
        -0.5067828046598702,
        -0.092068360184148,
        -0.4144697072436323,
        -0.30858300139136174,
        -0.016878212630697605,
        0.016424557631415097,
        0.3519928450112406,
        -0.038313031072127635,
        0.34329713050380195,
        -0.123409344391996,
        -0.12189119634943602,
        -1,
        0.7822123766464378,
        0.6689103661884412,
        -0.9415652382471784,
        0.9114842888546388,
        -0.8097413266261877,
        0.9894804681054552
      ],
      [
        -0.5444434760986966,
        -0.27070485598797134,
        0.7027020405785526,
        0.8847587159987571,
        -0.48197978485882015,
        0.6283877182412283,
        0.1861691684980138,
        1,
        -0.2708028449807478,
        -0.145010332166416,
        0.21516642400989514,
        0.2493494008782417,
        0.011933644593324315,
        0.689572932500629,
        1,
        -0.26994938911794564,
        -0.04111800736100779,
        0.1824367970259233,
        -0.27144209451013546,
        -0.2008985911745344,
        -0.2632990695493559,
        1
      ],
      [
        -0.38529983053123384,
        0.8440898652306379,
        0.11402636216201596,
        0.08554153336870707,
        -0.3276592653087177,
        0.28567185423375685,
        -0.007402368842262426,
        0.02533096916614988,
        -0.9722292616477273,
        -0.3215808759743151,
        0.5289904290981946,
        0.09233948295925103,
        1,
        -0.5112334689890257,
        -0.2788471999741615,
        0.17865428578043785,
        0.15019841612886345,
        0.7866568939524814,
        -0.18634409721412704,
        -0.7182612377798698,
        -0.4807727616715374,
        -0.8038129646354017
      ],
      [
        0.2788173428222618,
        0.5924240023091902,
        0.8575285557866446,
        -0.5264055291827251,
        -0.32271496882311596,
        -0.5313111870762806,
        0.936089670205466,
        0.9404756938169172,
        0.9946063339926605,
        -0.019142128712513258,
        -0.23012943118486723,
        0.468026304253374,
        0.1031558311469174,
        1,
        -0.558626641208922,
        -0.8440525900369498,
        0.5861218400290286,
        0.39626409827033937,
        -0.6982537118107723,
        0.19873814553520863,
        -0.22972672132570213,
        -0.4819232210310307
      ],
      [
        -1,
        -0.2595034838159035,
        0.6976091970396346,
        -0.5176951125756367,
        -0.4690910324407157,
        0.0962723909962327,
        -0.037942622026173066,
        -0.6539924931046053,
        -0.9935821490794869,
        0.7003705855259609,
        -1,
        -0.21969832193324623,
        -0.6817501069058118,
        0.07320184490256687,
        -0.06288142404133423,
        0.08244551081507755,
        -0.011782839680498241,
        0.025822481177450382,
        -0.5039551889497496,
        -0.35614991632541093,
        -1,
        -1
      ],
      [
        0.870670280570543,
        0.06029902820906261,
        -0.392491172970718,
        -0.16250898543154857,
        0.084604965020733,
        0.4269245236605992,
        0.05689124627820519,
        -0.3702582353759707,
        -0.11340575159844574,
        0.526673971683169,
        -0.8467521406040266,
        -1,
        -0.861406635478748,
        -0.35069912916163193,
        0.6617088250633634,
        0.03273742704543695,
        -0.955631236628937,
        0.700022206857165,
        -1,
        0.24551211631895908,
        0.04471867688155648,
        -0.7181473202051867
      ],
      [
        -0.015100390076870444,
        -0.18513823734399834,
        0.17955070309837418,
        0.9572378640963289,
        -0.11182496670480581,
        0.42450460848884713,
        -0.14155935220665566,
        -0.08680528247349611,
        0.45275574740108715,
        -0.20967004298533276,
        0.13241202811971511,
        1,
        -0.34244347938295827,
        -0.8134504996704258,
        -0.003809027883756759,
        0.00812632888979337,
        -0.6038629558639008,
        0.11329960819919718,
        0.04031256163648043,
        -0.8819948587186427,
        0.06495102933798624,
        -0.8194347778932483
      ],
      [
        -0.8684883637936911,
        -0.06571910308129832,
        -0.6836608387921259,
        0.43725915055896225,
        1,
        -0.14314182142455212,
        -1,
        -0.7027385965961342,
        -0.9230420127385819,
        0.1744465759738374,
        0.7759052938409299,
        -0.7581721089796492,
        -0.7683112401339168,
        -0.6070197630067233,
        -0.5306043539194405,
        -0.6017891267508695,
        0.6530822154555129,
        0.6328782604794554,
        0.5744341928301266,
        -0.30940422469507345,
        -0.4933850292286708,
        0.09007571894824906
      ],
      [
        -0.5196612972377994,
        -0.5050845614815243,
        -0.7593981520534205,
        0.2782603850432464,
        -0.542332976381921,
        -0.7965465903437832,
        0.577119790445874,
        -0.15162630368140784,
        -0.3575630389304893,
        0.007152568353472724,
        0.04547571594620853,
        0.09252882971218031,
        -0.9584603479208933,
        0.4742393664032327,
        -1,
        1,
        0.2410174605484405,
        -0.5095340767341427,
        -0.25185526633835753,
        -0.8437213875683087,
        -0.4190106820707946,
        -0.634209070469376
      ],
      [
        -0.31441467636488024,
        0.7167259676885366,
        0.0045593214653925915,
        1,
        0.8440245998134415,
        -0.5606872227939108,
        -0.42354810785712305,
        0.6201180655051626,
        0.5516959088365863,
        -0.5782147223401055,
        1,
        0.8677552980128537,
        -0.2716890559188141,
        -1,
        0.12284138234763908,
        -0.5136670070559863,
        -0.07498909526344893,
        -0.28964544174195744,
        -1,
        0.05907903928641564,
        0.14735823935740552,
        0.9184221461903324
      ],
      [
        -0.8749972404529864,
        0.388332923337831,
        0.24570575358215185,
        0.8712008155010575,
        1,
        -0.2776979323854684,
        0.7904949067758733,
        -1,
        0.10484427692986253,
        -1,
        -0.07356808392244392,
        -0.9337646439516385,
        -0.28096847021127863,
        0.7378587265641292,
        -0.46518072858693915,
        0.04146794567336143,
        0.5213263459919162,
        0.23320893784466756,
        0.45216105797013095,
        0.5903550048869248,
        0.9530377381314574,
        -1
      ],
      [
        0.3660650202844867,
        -0.17850103331539763,
        0.43981305934618575,
        1,
        -0.3876898986047381,
        -0.3338188003352174,
        -1,
        -0.030320919445438164,
        -0.6216272000307255,
        -0.007464595609969952,
        -0.007072741955925159,
        -0.9902784721103075,
        -0.5173627891584078,
        -0.41061098947594943,
        -0.01711197303152745,
        0.46532616959485607,
        0.3372307779877822,
        0.13067100262385362,
        0.8070577315823677,
        -0.1884317613663864,
        -0.2649071340965463,
        0.5770103404990408
      ],
      [
        0.23263453730186479,
        0.9909402353464409,
        0.29340725512749144,
        -0.9308114755015412,
        0.7839265230691543,
        0.12355551619452941,
        0.34173170658534224,
        0.6246322795849112,
        1,
        1,
        -1,
        -0.2813002200462009,
        -0.026562228261718612,
        0.22284497337015902,
        0.357099180705325,
        0.18557507568323905,
        -0.5668633357778667,
        0.7402361007696743,
        0.4347911600090313,
        -0.6714887193260355,
        0.40915320432566443,
        -0.0022551699899035086
      ],
      [
        1,
        0.8444809855363196,
        -0.5928005109403021,
        -0.5104570480438555,
        0.033183158413145626,
        0.15317492042117098,
        -0.24238791647611224,
        0.09258802510041186,
        0.7831251446506631,
        0.2730084187312409,
        0.0383398044417468,
        -1,
        0.7232834058708348,
        -1,
        -1,
        -0.17533418983000246,
        0.09914919458718185,
        1,
        -0.39668004199146745,
        0.22763495674377918,
        0.04968867971876408,
        -0.7656451170701515
      ],
      [
        0.41127721257200095,
        -1,
        0.7503880780318994,
        -0.028993654384085545,
        0.012702177750508612,
        0.21609032812976353,
        -0.3834166073514469,
        -0.8368417337970835,
        -0.5363791090133215,
        0.33128358139444536,
        -0.05397658990742324,
        0.23920680159155738,
        -0.00025047594005438135,
        -1,
        -0.6774254869388083,
        -1,
        -1,
        0.49271453494946965,
        0.44609685071217364,
        0.6972163229165795,
        -0.43402966509642504,
        -0.06958306605307679
      ],
      [
        -0.5129552198778173,
        -0.14321061742051047,
        0.9745342834625024,
        -0.7688317058170773,
        0.45138438830854327,
        -0.31363102932412756,
        0.008686931469499943,
        -0.1573732074103206,
        -1,
        1,
        -0.436209122796577,
        0.6356570083583346,
        0.31048352002766416,
        -0.5549426187658566,
        -1,
        0.049386575974154745,
        -0.9754338283435204,
        0.7287771100574891,
        0.551037490087156,
        -0.40812722494514647,
        -0.09508122269556758,
        -0.1981408040782699
      ],
      [
        1,
        0.24548303592532264,
        -0.8534822914687947,
        0.3977787749070935,
        -0.18923297402080075,
        -0.9483626896628472,
        0.8833956115378818,
        0.4310170478364279,
        -0.7534420619246052,
        0.9694700969847845,
        -0.9912399375867783,
        -0.4358178259683072,
        0.2793809165159946,
        -1,
        0.031732540674236004,
        -0.0497696699949548,
        -0.1010433369208486,
        0.25810220782302024,
        0.3772673206424047,
        0.4624053024722758,
        0.36103495541806196,
        -0.7563456993924618
      ],
      [
        -0.30986059205967603,
        -0.5203033718479982,
        0.5807879862899967,
        -0.1251996738569597,
        -0.025362025504747848,
        0.5833117077264323,
        -0.11825231996594933,
        0.07796883037218527,
        0.2054686684142542,
        0.24350226507817233,
        0.3894936589941389,
        -0.041208545565142286,
        -0.18971499131329117,
        0.11159407333657802,
        -0.7562311508362458,
        0.7308641206394452,
        -0.4115869008566374,
        -0.3916464129940054,
        -0.08281244520576811,
        0.04802734400611157,
        0.02016158366292964,
        -0.6619346056075657
      ],
      [
        -0.07641630158011892,
        0.7843516137428264,
        -0.14385358372381285,
        -0.865707584701076,
        0.5898806316881535,
        -0.9815984163504323,
        -0.5053690139401424,
        0.40932892212157723,
        0.15030274082219158,
        0.13263879042797375,
        0.9554891619885624,
        -0.4576569140793264,
        0.046177702297048304,
        -0.22468958996849642,
        0.6205905758529163,
        -0.8172707878559733,
        0.11693685385101489,
        0.16204991725444615,
        -0.9542682885100184,
        -0.11554846478521541,
        -0.13396868207126442,
        0.48840500958655864
      ],
      [
        -0.7107295257206374,
        -0.03905927235092398,
        -0.8016811093713163,
        0.936591652865108,
        -0.005418209191602619,
        -0.14969140084385457,
        -0.5443498398289415,
        -0.14692717555375742,
        1,
        1,
        -0.8218240399980661,
        -0.047100894245125445,
        -0.6294454300861818,
        -0.22288741486712274,
        0.06377301396424892,
        1,
        0.12615063169260313,
        0.6688954608574058,
        -0.18719591039173727,
        0.8747746569144743,
        0.13462815133099346,
        0.8554307265813568
      ],
      [
        -0.04881261158579794,
        -0.8887777473858796,
        0.1689746609424415,
        0.40489044918014305,
        0.4648263456515058,
        0.3094113954512648,
        -0.8906940322670356,
        0.11748735254814587,
        -0.5480065157687952,
        -0.34753610087767206,
        -0.7126116334342529,
        -0.5453920838119957,
        0.5044162330601933,
        -0.9557247310951191,
        -1,
        -0.06385962868188923,
        0.14559263975672848,
        -0.8443967223331688,
        -0.3445282936722409,
        -0.20856939263639784,
        0.9790627433305161,
        0.8327616421655335
      ],
      [
        0.3955298753319374,
        0.7998054989675896,
        0.7817913274429669,
        -0.4416171110247493,
        0.09823849705379768,
        -0.6292204203223388,
        0.07674398104185043,
        -0.33434271785781483,
        -0.07226447576578184,
        0.7647150075546476,
        -0.6674161634964815,
        0.8246957311319334,
        -0.6597225865586589,
        0.015359038039981485,
        -0.41403331699281054,
        0.28299449205074256,
        1,
        -0.3835407549904422,
        -0.6833758693510593,
        -0.09720618081871878,
        0.0015938814292817732,
        -0.596549256940458
      ],
      [
        0.7960776277316819,
        -0.007144127481918838,
        -0.7394973334823745,
        0.13074946203260596,
        0.047907756763837135,
        -0.000437045172970207,
        0.11500429121727714,
        0.41326615352890594,
        0.36327721038913835,
        -0.005878292953447626,
        0.4384635762946499,
        -0.002799854574893351,
        -0.5854259827984394,
        0.0028412671851273303,
        -1,
        -0.4698190535159571,
        -0.48185740749268197,
        0.7188325264034638,
        -0.6852023846143072,
        -0.1246480806419421,
        -0.5498855327071991,
        0.695072523291304
      ],
      [
        0.2526094277489932,
        -0.558148205619762,
        -0.18874403359607472,
        0.4073737678344689,
        -0.5839510684662262,
        -0.003923318753830077,
        -0.8742409346585154,
        0.8070456337262624,
        0.34371895103312733,
        -0.4204905724102239,
        -0.0506950617440061,
        0.7677130556131551,
        0.25343694487411944,
        0.08387214169392779,
        0.7841303638440562,
        -0.4656158467126641,
        0.03715591281374415,
        0.907631028414226,
        -0.40435040294921865,
        0.4056663800018281,
        0.09530032810956679,
        1
      ],
      [
        0.2894757750691753,
        -0.5034211721204387,
        0.27398945216758297,
        -0.8777756633583301,
        -0.6055582000168576,
        0.9562268070976938,
        -0.33243518761283547,
        -0.033247063475209095,
        0.16272727143835375,
        0.5098277174056705,
        -0.6525548652890796,
        -0.6116855861371389,
        -0.0076633997658194595,
        -0.8035061566669637,
        0.28613576403047514,
        0.07297145559501785,
        -0.31146898001437706,
        -0.09653756993395435,
        -0.12846894883101467,
        0.5955070322830611,
        -0.7770109854288103,
        -0.759716628696767
      ],
      [
        -0.0176523180758709,
        -0.3462505240403647,
        -1,
        -0.7989889602610503,
        -0.0031408165766021994,
        -1,
        0.21579428319147353,
        0.406102492101017,
        -0.6806078699855436,
        0.8630619405811891,
        1,
        -0.127513866280674,
        -0.38513385596256644,
        0.6625710790077435,
        0.9516360247421787,
        0.14739055115335167,
        0.04640776651874268,
        -0.2761089676331811,
        -1,
        -0.11989840548801871,
        -0.7030948287557564,
        1
      ],
      [
        -0.028015291397790007,
        -0.7967725982429696,
        0.3956260811678722,
        0.4299125311183893,
        -0.018300174322461126,
        0.25730535889863515,
        -0.961252538327461,
        0.08631075888336127,
        0.14897504287242586,
        0.6499853166224829,
        0.021828328788515823,
        0.6032476195872646,
        -1,
        -0.46695172414272185,
        0.695084058111774,
        -0.06920264336978926,
        0.8446069115427397,
        0.40719478362905137,
        0.1518134346124152,
        0.5682624112620001,
        0.4291938479405334,
        -0.07684985082305908
      ],
      [
        0.24413496279434235,
        0.3783405456362089,
        -0.2052864059415216,
        -0.6400622499447004,
        0.26069612861188546,
        -1,
        -0.22837270111719443,
        0.029711815585960213,
        -0.15019899028615294,
        0.8333408626002816,
        0.03642098252505922,
        0.09697949977965278,
        -0.7827552833829763,
        -0.11421363866340618,
        -0.96130842729958,
        -0.24351765622089763,
        -0.002095723779965001,
        -0.13235683625164296,
        -0.04364965245430689,
        0.10473971689611394,
        0.7035605674865979,
        -0.6078148559765982
      ],
      [
        -0.973258927629578,
        0.7180052352893272,
        -0.3721397570413621,
        0.0061492804961728945,
        0.8184534297683812,
        0.2256439334093662,
        -0.5596337960818055,
        0.2062644349723446,
        -0.19559875431987717,
        0.28137694577714667,
        -0.2263536179943358,
        0.014481493624342482,
        0.27564976426084664,
        -0.3798344686964561,
        0.6748264476719663,
        -0.33786286660975995,
        0.7389424410982863,
        -0.7408138868449448,
        0.048674749321266184,
        0.9620793920686501,
        -0.9352025039572884,
        -0.17934525421791886
      ]
    ]
  ],
  "generation": 26
}