{
  "neurons": [
    [
      0.5,
      0.5,
      0.5,
      2.0,
      2.66302e-07,
      0.00025,
      0,
      0,
      0,
      1.0,
      0.546448087431694
    ],
    [
      0,
      0.4219734007817586,
      2.115858955790464,
      2.84967721125826,
      0,
      0,
      0.2513187457934832,
      0.025418719216674365,
      0.399554928169904,
      0.8598966752977677,
      1.2286226032217615,
      0,
      0,
      0,
      0,
      0.17936286746854585,
      2.66515427796663,
      0.8534251283674908,
      0,
      0,
      1.9370925586624408,
      0
    ],
    [
      7.650264699212175,
      3.313024026468702,
      0,
      0.5387272415225635,
      3.5962261281980306,
      3.4268691692490787,
      0,
      0,
      0.022332925453144137,
      0,
      2.8774076875391685,
      0,
      0,
      3.2936053309670297,
      5.759973562614714,
      3.473106728213047,
      1.8727882340978077,
      0,
      0,
      0,
      0.5602393129910207,
      0.7170456303409155,
      0,
      0.7635293701174629,
      2.03866404561731,
      2.1562234288239286,
      0,
      2.170868988867376,
      0,
      0,
      5.0389814701819615,
      0,
      0
    ]
  ],
  "bias": [
    [
      0.0,
      -0.0,
      0.0,
      0.0,
      0.9626206627420639,
      0.0,
      0.0,
      0.0,
      0.0,
      0.4445509750221407,
      -0.0,
      0.0,
      0.0,
      0.0,
      0.0,
      0.0,
      0.0,
      0.0,
      0.0,
      0.0,
      0.0,
      0.0
    ],
    [
      0.0,
      0.0,
      0.0,
      -0.0,
      0.0,
      0.0,
      0.0,
      0.0,
      -0.0,
      0.0,
      0.0,
      0.0,
      0.0,
      0.0,
      0.0,
      0.0,
      0.0,
      -0.0,
      0.0,
      0.0,
      0.0,
      0.0,
      0.0,
      0.0,
      0.0,
      0.0,
      0.0,
      0.0,
      0.0,
      0.0,
      0.0,
      0.0,
      0.0
    ]
  ],
  "weights": [
    [
      [
        -0.6636286732030898,
        -0.9850853020144623,
        -0.11555674764813166,
        0.019502775444788466,
        -0.08646259604275741,
        -0.43565533985956517,
        -0.5514559944562916,
        0.7399554501600036,
        0.765432836402982,
        0.7144804835530056,
        -0.5435451704224779
      ],
      [
        -0.16320528046666982,
        -0.4521928902203016,
        0.477322622064079,
        -0.13413866637856442,
        0.29957967333947894,
        0.01840651605218179,
        -0.1466693082953574,
        0.028765784331733355,
        -0.18939686857282312,
        0.9414192566047666,
        -0.3333078371966651
      ],
      [
        -0.2870518818041903,
        -0.2715577319499221,
        0.500958320333254,
        0.5799010653359835,
        0.41576059992487036,
        -0.867783576247408,
        -0.03341397450036898,
        -0.13564832906908497,
        -0.9254221299934877,
        0.9998474603724121,
        -0.026989120662165522
      ],
      [
        -0.903199214431026,
        0.1306330000244187,
        0.7426632274554197,
        1,
        -0.8597889550105404,
        -0.5292471261469944,
        -0.020602721632576853,
        0.50622191670494,
        -0.7611308286099288,
        0.4057495833904663,
        0.8399913416218496
      ],
      [
        0.2003557797261697,
        -0.13651028262293163,
        0.7441239582760804,
        -0.7873288128191938,
        0.005159352934236589,
        -1,
        1,
        0.12075042836223113,
        1,
        0.6328325069045349,
        -0.8427624507355851
      ],
      [
        0.001058645824865858,
        -0.41875170003016593,
        0.009533390949777015,
        -0.6539517121601656,
        0.7789889476012347,
        0.9111451339811438,
        -0.5387217261778448,
        0.06720040874551252,
        0.4588527568764711,
        0.11895728235179846,
        0.21263522894352713
      ],
      [
        -0.5960607711049184,
        -0.7024963647917041,
        -1,
        0.044042547344457894,
        -0.24863809276070256,
        0.2645768917431392,
        0.10655596462119635,
        -0.37792411876902565,
        -0.010107652134584115,
        1,
        0.5717764381082588
      ],
      [
        0.765485474304425,
        -0.8747003230726773,
        0.4921765330158618,
        -0.48426872881979566,
        -0.28606627692337966,
        -0.05715357652261203,
        -0.0469400105599406,
        0.3514418530696843,
        -0.17356277921410124,
        0.6780231271756569,
        0.22777382699964988
      ],
      [
        -0.6937096219782912,
        -0.0975874401483472,
        -0.07086555942256201,
        0.2243140128360317,
        -0.5860949863066445,
        -0.03377149611514933,
        -0.04177447736232623,
        -0.06429156987423656,
        -1,
        0.3335548205949923,
        0.08868544468243211
      ],
      [
        -0.16720235748298803,
        -0.24217736509214244,
        -1,
        0.41305832080209204,
        -0.012450817070992937,
        0.02684678299710201,
        0.027789056401370776,
        0.8295964566552685,
        -0.09378946161130886,
        0.3230655533605023,
        -0.05335061546026587
      ],
      [
        0.8972410007785145,
        -0.7330044846112929,
        -0.3982037894106579,
        1,
        -0.24587845287412782,
        0.2128685263257264,
        -0.0756043516141406,
        -0.2003996560305555,
        -0.2226242628490055,
        -0.7065918856404396,
        0.09542530210937858
      ],
      [
        -0.10398894630379135,
        -0.4254059165133779,
        0.017161824297361246,
        -0.33335407671949047,
        0.2477263320342058,
        0.6657368609470532,
        0.04269518687254845,
        -0.7933708847696765,
        -0.9133790236088071,
        0.986299910873155,
        -1
      ],
      [
        0.005679928222883213,
        -0.5708307345817807,
        0.49056296969110597,
        -0.21289468017007884,
        0.8961621121987788,
        -0.38048382291612437,
        0.7966758143214487,
        0.08910435762945185,
        0.12978095162133832,
        0.3064390735347018,
        -0.17712596160216065
      ],
      [
        -0.5935517917336243,
        0.048729162330521936,
        0.5342646111864024,
        -0.2552681314254963,
        0.13059794944303357,
        0.8797508534222394,
        0.7425730885857618,
        -0.2325772858970354,
        -0.9974497572730519,
        -0.35024389884058427,
        0.10464304775691691
      ],
      [
        0.035460862016001855,
        -0.3830696466104373,
        0.2904542269271837,
        -0.9455479321421365,
        -0.9039201915424089,
        0.011658544806221477,
        -0.8217556775028657,
        0.5245781398069237,
        -0.2198513389789487,
        0.9617414831348972,
        -0.6417414084675739
      ],
      [
        -1,
        -0.14122668397284974,
        -0.22266660922934445,
        -0.1338075565561152,
        0.33677027648944824,
        0.3030265114914844,
        -0.038935969623427984,
        -0.2721935246890451,
        -0.5533432652746915,
        1,
        0.23579326899466624
      ],
      [
        0.2028733869803458,
        0.6441496477141151,
        -0.1850743522600652,
        0.43829854579212313,
        0.9416442511952152,
        1,
        0.1532103869469098,
        0.4615700749038595,
        -0.6331701393010474,
        0.9848786166027643,
        0.8645907793752337
      ],
      [
        0.7108786467549719,
        -0.8979867549475895,
        0.09570278531963497,
        0.06775121846281447,
        0.8834307326148381,
        -0.02729398661663396,
        -0.8423156091074492,
        -0.5186170643423189,
        -0.36236462345096454,
        0.34134658888132585,
        0.7727821945887883
      ],
      [
        -0.21891876994803972,
        -0.4167843550473045,
        -0.8742067595930367,
        -0.25854336093678554,
        0.5395160952284583,
        -1,
        -0.6838335848269128,
        -0.7667215821717908,
        -0.7200461964786733,
        0.13737258663810312,
        -0.9817825088721703
      ],
      [
        -0.2802024598145037,
        -0.5763779881847855,
        -0.33086875754817147,
        -0.3456052402194194,
        -0.1565783292305714,
        0.046983820375502,
        0.22932049432271473,
        0.02174629106123201,
        0.12134056475872099,
        0.5425591744455357,
        -0.6432876704157642
      ],
      [
        0.7921930229987661,
        1,
        0.048401665454237526,
        0.018885751053893805,
        0.8446773966688375,
        -0.8470953959813504,
        -0.2133207581833016,
        -0.34113675795848275,
        0.6962118956515801,
        0.9714653753854487,
        0.01421889110992458
      ],
      [
        0.19418969463731406,
        0.059210112357893314,
        -0.5393241738507093,
        -0.15666321353903134,
        0.752795202990902,
        0.37083630833613457,
        -0.025755345725498802,
        0.48526551856427114,
        -1,
        0.2967904829626422,
        0.1421242001827041
      ]
    ],
    [
      [
        0.9770287515225256,
        1,
        0.6117441889941106,
        1,
        -0.8635921627831717,
        0.03295204037654655,
        -0.9111483080167957,
        0.9639315813484166,
        0.46999859931059845,
        -0.2852083321741493,
        1,
        0.4475721615801769,
        0.3663491484154867,
        0.2827293063685169,
        0.969414428071651,
        -0.46743349703229153,
        0.5982733453669322,
        -0.3521033429172906,
        0.5723730898691219,
        1,
        0.4684425274225472,
        -0.07974571459840875
      ],
      [
        -0.17620058363993074,
        0.35285702566355237,
        -0.20151194427320918,
        1,
        0.5834369265295696,
        0.6524179833417567,
        0.2367181150597973,
        -0.20563768604032373,
        -0.4737841691321727,
        0.4376220694219642,
        -0.21106456099513538,
        0.8233339356439089,
        -0.25382724179094107,
        0.1865165311688876,
        -0.08605658491380241,
        0.7520316737618784,
        0.4941313256626776,
        -0.17017565192780473,
        0.5023938540427234,
        0.9063416162511997,
        -0.28275475605949196,
        -0.18122754597437307
      ],
      [
        -0.49697543585734055,
        0.8918161379400925,
        -0.08474709826855742,
        -0.4610155088340211,
        0.789610070627276,
        -0.4316085548577613,
        -0.8921341887394871,
        1,
        -0.015536691539816818,
        0.6612390199177594,
        -0.9592326564166913,
        -0.22580226542302584,
        0.2979860155504619,
        -0.47588964516483084,
        -0.1614513985777788,
        -0.46349800836521293,
        0.05852572389978544,
        1,
        -1,
        1,
        0.3823530444960349,
        1
      ],
      [
        0.2503917068160113,
        -0.8833923281656157,
        -0.08539841463233921,
        -0.09980960957960461,
        -0.3276199857723656,
        1,
        0.2063492973539901,
        -0.43925929305490113,
        0.5324371801896401,
        -0.2123369316170464,
        -0.09444409922984896,
        1,
        -0.6081478887205882,
        0.30535664985452365,
        0.2868920985269387,
        -0.37767951720450726,
        0.34240653444975,
        0.7127807076518944,
        0.22901835755083533,
        -0.6389174940298175,
        -0.01617166386536836,
        0.2280439211197125
      ],
      [
        -0.17280436577025604,
        0.9290637930026184,
        0.8787017389731155,
        0.038412751081503015,
        0.2618328871741167,
        0.09136633759085538,
        -0.4144697072436323,
        -0.30858300139136174,
        -0.016878212630697605,
        0.016424557631415097,
        0.3519928450112406,
        -0.038313031072127635,
        -0.7262320802889727,
        -0.24208947667678693,
        -0.12189119634943602,
        -1,
        0.7822123766464378,
        0.6689103661884412,
        -0.9415652382471784,
        0.9114842888546388,
        -0.8097413266261877,
        0.7427474764452338
      ],
      [
        -0.4269514843328539,
        -0.28844386061003385,
        0.7027020405785526,
        0.8847587159987571,
        -0.48197978485882015,
        -0.030586355010685767,
        0.1861691684980138,
        -1,
        -0.2708028449807478,
        -0.145010332166416,
        0.21516642400989514,
        0.2493494008782417,
        0.011933644593324315,
        0.689572932500629,
        1,
        -0.26994938911794564,
        -0.04111800736100779,
        0.1824367970259233,
        -0.27144209451013546,
        -0.2008985911745344,
        -0.2632990695493559,
        1
      ],
      [
        -0.38529983053123384,
        0.8440898652306379,
        0.11402636216201596,
        -0.07393324149559422,
        -0.3276592653087177,
        1,
        -0.09206461795949988,
        0.02533096916614988,
        -0.9722292616477273,
        -0.3777078466909509,
        0.5289904290981946,
        0.3028602840935841,
        1,
        -0.5112334689890257,
        0.26806483453694785,
        0.17865428578043785,
        -0.4649348254822513,
        0.48913682703066097,
        -0.18634409721412704,
        -0.7182612377798698,
        -0.4807727616715374,
        -0.8038129646354017
      ],
      [
        0.2788173428222618,
        0.5924240023091902,
        -0.7303341388338724,
        -0.5264055291827251,
        -0.32271496882311596,
        -0.5313111870762806,
        0.936089670205466,
        0.9404756938169172,
        0.9946063339926605,
        -0.019142128712513258,
        0.672707620931537,
        0.468026304253374,
        0.1031558311469174,
        1,
        -0.558626641208922,
        -0.8440525900369498,
        0.31273986220117944,
        0.39626409827033937,
        -0.6982537118107723,
        0.19873814553520863,
        0.15146705283778317,
        -0.4819232210310307
      ],
      [
        -1,
        -0.26556525354681804,
        0.6976091970396346,
        -0.3111010206813394,
        -0.46523655806936093,
        0.38484008881084625,
        -0.037942622026173066,
        -0.6539924931046053,
        -0.9935821490794869,
        0.7003705855259609,
        0.907655034309536,
        -0.21969832193324623,
        -0.6817501069058118,
        0.07320184490256687,
        -0.06288142404133423,
        0.08244551081507755,
        -0.011782839680498241,
        0.23942974441170328,
        -0.5039551889497496,
        -1,
        -1,
        -1
      ],
      [
        0.870670280570543,
        0.06029902820906261,
        0.4938952636217977,
        0.10805854819018428,
        0.084604965020733,
        0.4269245236605992,
        0.05689124627820519,
        -0.3702582353759707,
        -0.11340575159844574,
        0.526673971683169,
        0.4656351733355031,
        -1,
        -0.861406635478748,
        0.6681121608160892,
        0.6617088250633634,
        0.03273742704543695,
        -0.955631236628937,
        0.3586521063384573,
        -1,
        -1,
        -0.3037676505672358,
        -0.7181473202051867
      ],
      [
        0.03131822077973023,
        0.4202417371285636,
        0.17955070309837418,
        0.9572378640963289,
        0.42492048747216415,
        0.24567927151842314,
        -0.20356509288019842,
        -0.08680528247349611,
        0.45275574740108715,
        0.8001077912050152,
        0.13241202811971511,
        1,
        -0.34244347938295827,
        -0.8134504996704258,
        -0.003809027883756759,
        0.005597517326408209,
        -0.6038629558639008,
        0.11329960819919718,
        -0.16355060658554677,
        -0.8819948587186427,
        0.06495102933798624,
        -0.8194347778932483
      ],
      [
        -0.8684883637936911,
        -0.06571910308129832,
        -0.6836608387921259,
        0.43725915055896225,
        1,
        -0.14314182142455212,
        -0.9406762787529153,
        -0.7027385965961342,
        -0.9230420127385819,
        0.1744465759738374,
        -0.04096994373097429,
        -0.7581721089796492,
        -0.7683112401339168,
        -0.6070197630067233,
        -0.5306043539194405,
        -0.6017891267508695,
        0.6530822154555129,
        0.6328782604794554,
        1,
        -0.30940422469507345,
        -0.8091386200283679,
        0.09007571894824906
      ],
      [
        0.542871051345216,
        -0.5050845614815243,
        -0.7593981520534205,
        -0.17282454061373853,
        -0.542332976381921,
        -0.7965465903437832,
        0.577119790445874,
        -0.15162630368140784,
        -0.3575630389304893,
        0.007152568353472724,
        0.04547571594620853,
        0.09252882971218031,
        -0.9584603479208933,
        0.4742393664032327,
        -1,
        1,
        -0.6481474321594873,
        -0.5095340767341427,
        -0.25185526633835753,
        -0.8437213875683087,
        -0.6525082797417097,
        0.6839630912398844
      ],
      [
        -0.31441467636488024,
        0.7167259676885366,
        0.0045593214653925915,
        1,
        0.8440245998134415,
        -0.5606872227939108,
        -0.42354810785712305,
        0.6201180655051626,
        0.5516959088365863,
        -0.5782147223401055,
        1,
        0.8677552980128537,
        -0.2716890559188141,
        -1,
        0.12284138234763908,
        -0.5136670070559863,
        -0.2534369800616889,
        -0.28964544174195744,
        -1,
        0.05907903928641564,
        0.14735823935740552,
        0.9184221461903324
      ],
      [
        -0.8749972404529864,
        0.388332923337831,
        0.24570575358215185,
        0.8712008155010575,
        1,
        -0.2776979323854684,
        0.3397983583862385,
        -1,
        0.10484427692986253,
        -1,
        -0.07356808392244392,
        -0.9337646439516385,
        -0.364006334466992,
        0.7378587265641292,
        -0.46518072858693915,
        0.04146794567336143,
        0.5213263459919162,
        0.23320893784466756,
        -0.3173370726158109,
        0.7676128122237206,
        0.9530377381314574,
        -1
      ],
      [
        0.3660650202844867,
        -0.17850103331539763,
        0.43981305934618575,
        1,
        -0.3876898986047381,
        -0.5408096174953154,
        -1,
        0.599601261339854,
        -0.6216272000307255,
        -0.007464595609969952,
        -0.007072741955925159,
        -0.9902784721103075,
        -0.5173627891584078,
        -0.41061098947594943,
        -0.01711197303152745,
        0.46532616959485607,
        0.21604904375254352,
        0.142500545063041,
        0.8070577315823677,
        0.029324767171464792,
        -0.2649071340965463,
        0.5770103404990408
      ],
      [
        0.23263453730186479,
        0.9909402353464409,
        0.29340725512749144,
        -0.48234301212457065,
        0.7839265230691543,
        0.12355551619452941,
        0.34173170658534224,
        0.6246322795849112,
        1,
        0.5357041950249526,
        0.9722417098643559,
        -0.2813002200462009,
        -0.026562228261718612,
        0.22284497337015902,
        0.357099180705325,
        0.18557507568323905,
        -0.5668633357778667,
        0.8633357368690424,
        0.8117940449221526,
        -0.6714887193260355,
        0.40915320432566443,
        -0.0022551699899035086
      ],
      [
        1,
        0.8444809855363196,
        -0.5928005109403021,
        -0.5104570480438555,
        0.033183158413145626,
        0.15317492042117098,
        -0.24238791647611224,
        0.09258802510041186,
        0.7831251446506631,
        0.2730084187312409,
        0.0383398044417468,
        1,
        0.7232834058708348,
        -1,
        -1,
        -0.17533418983000246,
        0.09914919458718185,
        -0.9112179328938934,
        -0.39668004199146745,
        0.22763495674377918,
        0.9644501751181043,
        -0.7656451170701515
      ],
      [
        0.41127721257200095,
        -1,
        0.7503880780318994,
        -0.028993654384085545,
        0.012702177750508612,
        0.21609032812976353,
        -0.3834166073514469,
        -0.8368417337970835,
        -0.5363791090133215,
        0.33128358139444536,
        -0.05397658990742324,
        -0.9693352596250522,
        -0.000285585030967378,
        -0.8867327038499722,
        -0.6774254869388083,
        0.9507738596231757,
        -1,
        -0.926747226926921,
        0.44609685071217364,
        0.6972163229165795,
        -0.2650545746332367,
        -0.1308204576061507
      ],
      [
        -0.5129552198778173,
        -0.2740280318614629,
        0.9745342834625024,
        -0.7688317058170773,
        0.45138438830854327,
        -0.31363102932412756,
        0.008686931469499943,
        -0.1573732074103206,
        -1,
        1,
        -0.436209122796577,
        0.6356570083583346,
        0.31048352002766416,
        -0.5549426187658566,
        -1,
        0.049386575974154745,
        -0.9754338283435204,
        0.4640337575772693,
        0.551037490087156,
        -0.40812722494514647,
        0.054147539086970786,
        -0.1981408040782699
      ],
      [
        1,
        0.24548303592532264,
        -0.8534822914687947,
        0.3977787749070935,
        -0.18923297402080075,
        -0.9483626896628472,
        0.8833956115378818,
        0.4310170478364279,
        -0.7534420619246052,
        0.9694700969847845,
        -0.9912399375867783,
        -0.4358178259683072,
        0.2793809165159946,
        -1,
        0.016092233865517835,
        -0.0497696699949548,
        0.34653912629105105,
        0.25810220782302024,
        0.3772673206424047,
        0.4624053024722758,
        0.23040825556530575,
        -0.3638765975449618
      ],
      [
        -0.30986059205967603,
        0.30715622954686395,
        0.5807879862899967,
        -0.1251996738569597,
        0.21895904042771427,
        0.5833117077264323,
        -0.11825231996594933,
        0.5897163865817969,
        0.2054686684142542,
        0.24350226507817233,
        0.569444342822234,
        -0.041208545565142286,
        -0.18971499131329117,
        0.11159407333657802,
        -0.7562311508362458,
        0.7308641206394452,
        -0.4115869008566374,
        -0.3916464129940054,
        -0.08281244520576811,
        0.04802734400611157,
        0.02016158366292964,
        -0.6619346056075657
      ],
      [
        -0.07641630158011892,
        0.7843516137428264,
        -0.14385358372381285,
        -0.865707584701076,
        0.5898806316881535,
        -0.9815984163504323,
        -0.5053690139401424,
        0.40932892212157723,
        0.15030274082219158,
        0.13263879042797375,
        0.9554891619885624,
        -0.4576569140793264,
        0.046177702297048304,
        0.13207677107546645,
        -0.3995854151126039,
        -0.8172707878559733,
        -0.19247339023679313,
        0.09174438052569305,
        -0.9542682885100184,
        -0.11554846478521541,
        -0.13396868207126442,
        0.48840500958655864
      ],
      [
        -0.7107295257206374,
        -0.03905927235092398,
        -0.8016811093713163,
        0.6491141067267188,
        0.018157452068611468,
        -0.14969140084385457,
        -0.865773788663156,
        0.3307281526558576,
        0.8680615014773234,
        1,
        -0.8218240399980661,
        -0.04524409504482185,
        0.809305016424695,
        -0.4144341159991769,
        0.1382137868631136,
        1,
        0.35190193592845076,
        -0.8663654250073116,
        -0.14121372421106276,
        0.8747746569144743,
        0.13462815133099346,
        0.8554307265813568
      ],
      [
        -0.04881261158579794,
        -0.8887777473858796,
        0.1689746609424415,
        0.40489044918014305,
        0.4648263456515058,
        0.3094113954512648,
        0.2923483566523728,
        0.11748735254814587,
        -0.5480065157687952,
        0.4653080027719747,
        -0.7126116334342529,
        -0.5453920838119957,
        0.5044162330601933,
        -0.9557247310951191,
        -1,
        -0.06385962868188923,
        0.13351306278633435,
        -0.8443967223331688,
        0.06990345341296351,
        -0.20856939263639784,
        0.9790627433305161,
        0.8327616421655335
      ],
      [
        0.3955298753319374,
        -1,
        0.7817913274429669,
        -0.4416171110247493,
        0.09823849705379768,
        1,
        0.07674398104185043,
        -0.33434271785781483,
        -0.07226447576578184,
        0.7647150075546476,
        -0.6674161634964815,
        0.8246957311319334,
        -0.6597225865586589,
        0.015359038039981485,
        -0.41403331699281054,
        0.28299449205074256,
        1,
        -0.41712614099050493,
        -0.6833758693510593,
        -0.09720618081871878,
        0.0015938814292817732,
        -0.596549256940458
      ],
      [
        0.7960776277316819,
        -0.007144127481918838,
        -0.7394973334823745,
        0.13074946203260596,
        0.047907756763837135,
        -0.001081907776372994,
        -0.05886280371123487,
        0.41326615352890594,
        0.36327721038913835,
        -0.005878292953447626,
        -0.26570896335435856,
        -0.002799854574893351,
        -0.5854259827984394,
        -0.09569625283957531,
        0.6364048562220987,
        -0.4698190535159571,
        -0.7470159612244078,
        0.7188325264034638,
        0.3432137157552289,
        -0.1246480806419421,
        -0.5498855327071991,
        0.695072523291304
      ],
      [
        0.2526094277489932,
        0.608489582489286,
        -0.18874403359607472,
        0.4073737678344689,
        -0.5839510684662262,
        0.004802930028936334,
        -0.8742409346585154,
        0.8070456337262624,
        0.34371895103312733,
        -0.4204905724102239,
        0.29472744319336075,
        0.7677130556131551,
        0.25343694487411944,
        0.08387214169392779,
        0.7841303638440562,
        -0.4656158467126641,
        0.12690530120838472,
        0.907631028414226,
        -0.40435040294921865,
        0.4056663800018281,
        0.09530032810956679,
        1
      ],
      [
        -0.37698893783106224,
        -0.5034211721204387,
        0.27398945216758297,
        0.5082443784013073,
        -0.14089485979349958,
        0.9562268070976938,
        -0.33243518761283547,
        -0.033247063475209095,
        0.16272727143835375,
        0.5098277174056705,
        -0.6525548652890796,
        -0.6116855861371389,
        -0.0076633997658194595,
        -0.8035061566669637,
        0.28613576403047514,
        -0.12202775418647319,
        -0.31146898001437706,
        -0.09653756993395435,
        -0.12846894883101467,
        0.5955070322830611,
        -0.7770109854288103,
        -0.9486114207426108
      ],
      [
        0.06662127698338921,
        -0.3462505240403647,
        -1,
        -0.7989889602610503,
        -0.03601842929472523,
        -1,
        -0.13204052906557065,
        -1,
        -0.6806078699855436,
        0.8630619405811891,
        1,
        -0.6571301381015522,
        -0.38513385596256644,
        -0.6174534119207749,
        0.9516360247421787,
        0.14739055115335167,
        0.04640776651874268,
        -0.2761089676331811,
        -0.9878145978067581,
        -0.0935491258172838,
        -0.7030948287557564,
        1
      ],
      [
        0.10398025320424767,
        -0.7967725982429696,
        0.15392513861865487,
        0.4299125311183893,
        -0.016529167712484194,
        0.25730535889863515,
        -0.961252538327461,
        0.08631075888336127,
        0.15156004090772393,
        0.6499853166224829,
        0.021828328788515823,
        0.6032476195872646,
        -1,
        -0.46695172414272185,
        0.695084058111774,
        -0.06920264336978926,
        0.8446069115427397,
        0.40719478362905137,
        0.1518134346124152,
        0.5682624112620001,
        0.4291938479405334,
        -0.3634341070427911
      ],
      [
        0.2934964924576726,
        0.3783405456362089,
        -0.2052864059415216,
        -0.6400622499447004,
        0.26069612861188546,
        0.7193237976055527,
        -0.34440513920897403,
        0.029711815585960213,
        -0.15019899028615294,
        0.8333408626002816,
        0.03642098252505922,
        -0.16144891544879347,
        -0.7827552833829763,
        -0.11421363866340618,
        -0.96130842729958,
        -0.24351765622089763,
        0.0010927544662264754,
        0.0722783402446554,
        -0.04364965245430689,
        1,
        0.7035605674865979,
        -0.6078148559765982
      ],
      [
        -0.973258927629578,
        -0.37795024478451644,
        -0.3721397570413621,
        -0.01978335514800156,
        0.8184534297683812,
        -0.7253538934416142,
        -0.5596337960818055,
        -0.5256324317835537,
        -0.19559875431987717,
        0.28137694577714667,
        -0.2263536179943358,
        0.007307851568336243,
        0.27564976426084664,
        -0.3798344686964561,
        0.6748264476719663,
        -0.48587829512751046,
        0.7389424410982863,
        -0.7408138868449448,
        0.07401047077291478,
        0.9620793920686501,
        -0.9352025039572884,
        -0.17934525421791886
      ]
    ]
  ],
  "generation": 19
}