{
  "neurons": [
    [
      0.5,
      0.5,
      0.6,
      1.5,
      2.9503e-07,
      0.0003,
      1,
      1,
      0,
      1.0,
      0.546448087431694
    ],
    [
      1.7079071379875692,
      0,
      1.8795267174190755,
      1.2092359738147245,
      3.952995976900707,
      1.628956713254556,
      0.7137139790958004,
      0.43956431283452235,
      0.7806097098641896,
      0,
      0,
      0.7672184341623547,
      0,
      1.0137146755586355,
      0,
      0.5050185354371324,
      0.4162984603908409,
      0,
      0,
      1.855506752913639,
      0.5886715723795932,
      0
    ],
    [
      0,
      0.09164283632989458,
      5.33356210528338,
      7.2010131554010295,
      3.8206577212569837,
      2.721350959959618,
      0,
      0,
      0,
      0,
      0,
      0,
      8.00021981236087,
      2.882574410119015,
      4.844698269046316,
      3.5799942808605425,
      0,
      0,
      1.1651236268255711,
      0.5116864336190732,
      0.05577851703893749,
      0,
      0,
      0.3398983468790199,
      2.336078766898815,
      0,
      0.23865487276409292,
      0,
      0,
      0,
      4.543759804678298,
      0.05872064361509721,
      4.110084882582138
    ]
  ],
  "bias": [
    [
      0.0,
      0.0,
      0.0,
      0.0,
      0.0,
      -0.0,
      0.0,
      0.0,
      -0.0,
      0.0,
      -0.0,
      0.0,
      0.0,
      0.0,
      0.0,
      0.0,
      0.0,
      0.0,
      0.0,
      0.0,
      0.0,
      0.0
    ],
    [
      -0.0,
      -0.0,
      -0.0,
      0.0,
      0.0,
      -0.0,
      0.0,
      0.0,
      0.0,
      0.0,
      0.0,
      -0.0,
      0.0,
      1,
      0.0,
      -0.0,
      0.0,
      0.0,
      0.0,
      0.0,
      0.0,
      -0.0,
      0.0,
      0.0,
      0.0,
      0.0,
      0.0,
      0.0,
      0.0,
      0.0,
      0.0,
      0.0,
      0.0
    ]
  ],
  "weights": [
    [
      [
        0.45196529048305134,
        0.48408604054619775,
        -0.00025793994361649,
        1,
        -0.7424221882119043,
        0.7251885926736821,
        -0.23686952008404247,
        0.16382497944981414,
        -0.2182238944652859,
        -0.6534045765082521,
        0.8532704693543185
      ],
      [
        -0.6522125805954063,
        0.7745660823567522,
        -0.2916034279800499,
        0.5051028668890523,
        0.5690828490382674,
        -0.9892001958752823,
        -0.4262990478506197,
        -0.13690116950807973,
        0.3414968223991208,
        -0.6693891701475152,
        -0.18342604701044873
      ],
      [
        0.11567354101861538,
        0.6089216331729432,
        0.34440199926846465,
        0.6862593384137057,
        -0.9698918000459213,
        -0.7736225911927934,
        0.4809944700788298,
        -0.45657460219994994,
        0.16156516561317807,
        0.08397376096749198,
        0.3166589310122754
      ],
      [
        0.2591534585661579,
        -0.17220866217881098,
        -0.28442079252517516,
        0.03234473493193416,
        0.04622940596144365,
        0.21555231569066868,
        0.9673629004445017,
        -0.543765498324364,
        -0.5188677748753971,
        1,
        -0.24844653286964247
      ],
      [
        0.7761601398873275,
        0.509466249782671,
        0.7942474827059018,
        0.9149391318983902,
        0.006571793590613295,
        -0.36289215074750536,
        0.008277735846973753,
        0.5809412055865939,
        0.196800337689375,
        0.7341133666376858,
        0.2525439385803072
      ],
      [
        -0.4941667695228787,
        -0.03130662440371701,
        -0.6887672415596979,
        0.32155338067513883,
        -0.5191856629532478,
        0.4963833403432789,
        0.6521091045486365,
        0.5725213580895689,
        0.07466818716653534,
        0.6562138098615753,
        -0.10681591083959918
      ],
      [
        -0.6536723894340524,
        -0.7893266562976806,
        0.425299017957141,
        0.3092221158546421,
        -0.9996387209746906,
        -0.7943159056836777,
        0.04623008550156372,
        0.5186376190648515,
        0.02017504683776434,
        0.6125876685814882,
        -0.8436590348666819
      ],
      [
        -0.10003213652711865,
        -0.3004841461112415,
        -1,
        0.7889504885009525,
        0.6799343850112426,
        -0.7065721546382682,
        0.12461589921964829,
        -0.012482725869482222,
        -0.6124454721424188,
        -0.05565410646526159,
        0.00023684877977570018
      ],
      [
        0.5586853808443344,
        -0.03587332228119977,
        -0.4875753240882086,
        -0.2207059000348397,
        0.5278838751988879,
        -0.5608917070961552,
        1,
        -0.23327000639980855,
        -0.4307733952370283,
        0.32019637116959676,
        0.10257053392207932
      ],
      [
        -0.11549368681231383,
        -0.24842654034974032,
        -0.05801218251973295,
        0.18776480491268943,
        0.3070517064114405,
        0.2644156919359191,
        -0.23513478722094594,
        -0.0802945807646942,
        -0.31200573016056277,
        -0.5167752264598662,
        -0.3771012308925792
      ],
      [
        0.865959231030762,
        -0.07993661501505861,
        -0.12998623431840828,
        -0.8372370295561289,
        1,
        0.2356314568274101,
        -0.2747894975642473,
        -0.4259914339909998,
        0.8912516890944324,
        0.0019596964142012214,
        -0.000511552070320925
      ],
      [
        -0.773213610677056,
        0.7422814437390237,
        0.5773082878836782,
        -0.22117657022613413,
        0.8165923260458865,
        -0.6632916791382688,
        0.5084050117289391,
        0.7759720380102939,
        -0.46213226053447043,
        -0.2087445304660942,
        -0.5624859515803271
      ],
      [
        -0.03934836334130475,
        -0.1282675126408641,
        -0.8233386394706386,
        -0.610264640771756,
        0.2613849126604997,
        0.6940444106125454,
        -0.5124147174559657,
        0.18252252761002494,
        -0.3383999430651283,
        0.8498917935705506,
        0.4087381372220507
      ],
      [
        0.012332276136035603,
        0.36419147783061634,
        -0.01786847486784926,
        0.7274812061797256,
        0.9350696759499748,
        -0.6207081985636993,
        0.5372735231588948,
        -0.08020159086100034,
        -1,
        -0.3039007664907132,
        -0.7467006736404618
      ],
      [
        -0.7185314682829886,
        -1,
        0.1398679254754498,
        -0.13911212995759728,
        -0.4575150058489481,
        0.5499136357181433,
        -0.040289552638331214,
        0.46359084494451785,
        0.9258895518898522,
        0.07571399897001395,
        -0.48275691526907183
      ],
      [
        -0.6836170047868477,
        1,
        0.8414336320816256,
        0.20862351611378543,
        -0.39186521529602847,
        0.8499011239084956,
        0.11660154147424162,
        -0.8627957534794464,
        -0.46341241417452106,
        -0.12417528782022202,
        0.7304376000054069
      ],
      [
        -0.856960651629094,
        0.02484881401725472,
        0.28865542873685146,
        -0.21347390642163955,
        -0.7870753476399517,
        -0.8238474238367477,
        0.1883838451858182,
        0.07446166225716987,
        0.605712377287184,
        0.31024050626395483,
        0.743956038402227
      ],
      [
        0.5280558964631246,
        -0.03816026102560357,
        0.2893666733584084,
        0.18959423556166732,
        0.8631248980672381,
        0.3727468949553565,
        -1,
        0.19280486164560873,
        -0.3515425590000494,
        -0.5009197037905846,
        -0.9455969407674396
      ],
      [
        0.8419433165265195,
        -0.2449799165287001,
        -0.0062545298586741994,
        -0.2516697479710064,
        0.1868567268960637,
        0.023150953490373275,
        -0.6222292659474733,
        -0.3653433215005972,
        0.20424228248559384,
        -0.13362083297518992,
        -0.5642229903160743
      ],
      [
        -0.3000153891158315,
        0.38200876246267246,
        0.9181153969078997,
        0.6872886683275616,
        -0.48771537872988624,
        0.33050105754713427,
        0.6294628439446865,
        -0.6736791861279696,
        0.4905367644149905,
        0.7360631166416662,
        -0.840405458163942
      ],
      [
        -0.1858119859121258,
        -0.3448062020299174,
        0.07042342477754995,
        0.4295502579492821,
        -0.8203483221865526,
        -0.6427130513367347,
        0.222665301897776,
        0.2866362043711652,
        0.4309370758477573,
        0.015205206964278073,
        -0.6531497518964324
      ],
      [
        0.04713305429879526,
        0.4660733633195544,
        0.2485703903552059,
        -0.5983807057578848,
        0.8363185874265919,
        0.433572651088884,
        -0.821060327703707,
        0.03214373964683713,
        0.08716370678573648,
        0.14865209334335794,
        -0.45969316969508545
      ]
    ],
    [
      [
        0.2712106186730292,
        -0.10493239481199021,
        -0.5656079530904923,
        -0.42176775141181233,
        -0.5165209229949868,
        -0.8050105603894424,
        0.8371902465446321,
        -0.9480992011423088,
        -0.7881677066468511,
        -0.11603073321693325,
        -1,
        -1,
        -0.46022967558393635,
        -0.32421705209388496,
        0.04312033283906258,
        0.9671099956183802,
        -0.12809383348062608,
        -0.20859172667480247,
        0.00023026272122694068,
        0.14730276907203188,
        -0.7437521794128419,
        -0.1767152537946247
      ],
      [
        -0.37202341844982856,
        0.6761958490680726,
        -0.43689169000111283,
        -0.4192958337454873,
        0.2960693228519522,
        0.768736924669774,
        -0.2855709023711422,
        0.6772402848328024,
        -0.8386493712570253,
        -0.46686153825295884,
        0.2713380707220583,
        0.841657942466822,
        1,
        -0.4694234627112406,
        0.38179945400703735,
        0.8567171974965555,
        -0.38755317265169364,
        0.4699373581905988,
        0.007088222301285212,
        -0.13122421260239103,
        -0.007342446351058296,
        -0.8366337898354479
      ],
      [
        -0.10720523205154328,
        0.029974533128676133,
        0.5490039365373844,
        0.24349097682115328,
        0.9529920939597114,
        0.7058778965879613,
        0.8942946263881377,
        -0.7078645141298797,
        -0.7812372327903061,
        -0.19871521378464463,
        -0.04978066186230112,
        0.28890006138334784,
        -0.5381739768118909,
        -0.6346229011866767,
        -0.3659658896995932,
        -0.07702145690691618,
        -0.5334035776216282,
        -0.00584148694181108,
        0.7696168706261788,
        0.1753500245734234,
        -0.14724053312037713,
        -0.4551007618326064
      ],
      [
        0.6260167067432756,
        -0.18672134458069123,
        0.414524697502948,
        0.3796194575000106,
        0.88792460869683,
        -0.04591434830083801,
        0.015488608496221959,
        -0.04658591538701251,
        -0.5699116591597526,
        0.34709209315346534,
        -0.8656726783837627,
        0.703853545162459,
        -0.9121884064340886,
        1,
        0.47286615613413474,
        0.6415378282537645,
        -0.5217663555369956,
        0.721960579793935,
        -0.8885536710765956,
        0.1186755049727543,
        0.05453206121261597,
        1
      ],
      [
        -0.08404565335538128,
        0.7697428829261899,
        0.33221185102306916,
        0.21431734892617538,
        0.7345081279038436,
        -0.9108854982986714,
        0.24509412843001122,
        -0.42073474680163847,
        0.9966503250788281,
        0.9391942469956807,
        0.5617471424190674,
        -0.9064700456878548,
        0.01586091414277561,
        0.09413824818177999,
        -0.8737028257752955,
        0.49818448590562436,
        -0.4243213414852988,
        0.2651260744723456,
        -0.26848632434797315,
        0.9562072616960038,
        -0.6051319621460135,
        0.641293263274096
      ],
      [
        0.09772131311182833,
        -0.5281033514401181,
        0.5475714200311037,
        -0.3388250255719407,
        0.16637191519499428,
        -0.3835200483031569,
        -0.05882216895082726,
        1,
        0.6600463451645755,
        -0.19941927793226566,
        0.4504617939748416,
        -0.0012978528636409248,
        0.88229107274685,
        -0.5302635463857128,
        -0.5503378871305291,
        0.17823573414664806,
        0.7727079874125691,
        -0.302541750286071,
        -0.027858191033172823,
        0.3037503580452488,
        0.9385148615950878,
        -0.9721718734030629
      ],
      [
        -1,
        0.3224849578246265,
        -0.25105271521165795,
        0.004539637757744849,
        -0.9765772066840295,
        0.8721564331968656,
        0.9086116648886877,
        -0.1802435924129946,
        -0.5217624283767186,
        -0.0741926051128019,
        -0.8470970454462696,
        -0.11820574787515348,
        0.33682347141041924,
        -0.3595949941615455,
        0.41850113994764326,
        -0.27860347669456664,
        0.054561854601035575,
        -0.5047467545749647,
        0.8883216846907458,
        -0.22911302479082551,
        0.9815674950512481,
        1
      ],
      [
        -0.8382213038714825,
        -0.26444884671879265,
        -0.8600261264378779,
        0.5877877262160989,
        -0.443610792187853,
        -0.20184281032807636,
        0.7698835596935161,
        -0.7436202573963202,
        -0.5012893118847366,
        0.12952013914551633,
        0.4264160974320994,
        0.6018152057579136,
        0.38706004978758507,
        -0.697211993834157,
        -0.4506680659267075,
        0.0063492536627861125,
        0.21192660202885502,
        0.6183201752768293,
        0.029116555403526846,
        0.03478385606570966,
        0.4983700490992651,
        0.01038935545537023
      ],
      [
        -0.28932491162440144,
        -1,
        -0.8209343779369969,
        -0.3175872684516534,
        -0.49786422335591585,
        0.34880295853334564,
        1,
        0.5554657661268789,
        0.6568441371209077,
        0.017297161810429736,
        0.8746530809060553,
        -0.005488451692755639,
        -0.5026846340268925,
        0.7573097588648475,
        0.5238580640743216,
        0.08899591346919346,
        -0.400184938625727,
        -0.17220341816550344,
        0.6856604118348313,
        0.720702780576262,
        0.19064189263108158,
        -0.046053643702858506
      ],
      [
        0.1453949052847651,
        -0.09906582189854865,
        0.31996247239058473,
        -0.21183706712873485,
        -0.344857192738766,
        -0.978931187223099,
        -0.049212484913423234,
        -0.060572536513314665,
        0.5353159987113985,
        0.4845023700928808,
        -0.43836396363354035,
        0.6444572770851084,
        0.037248709510061984,
        0.32023436445264686,
        -0.10920553391141871,
        -0.48849089247662314,
        -0.9377050940448877,
        0.4748737422189031,
        0.24301709008861513,
        -0.2534192377050839,
        -0.5891444721124821,
        -0.32029062138049946
      ],
      [
        -0.47070897198115325,
        0.7741346030748266,
        -1,
        0.07745205740390777,
        -0.07824566564300682,
        0.3655545877093638,
        0.8067751431829004,
        0.15224665805302884,
        -0.9809809500582473,
        -0.35458154176185386,
        0.658213536059352,
        -0.965417105671357,
        0.21574057546355635,
        0.7104760776023622,
        -0.3027375328474149,
        -0.7059543825646677,
        -0.2356901082506846,
        1,
        -0.6104966078904999,
        0.235945172875574,
        -0.4695092732134609,
        0.034126359994140265
      ],
      [
        -0.8574860371635487,
        -0.9330111345588255,
        0.6500035031493756,
        0.6199995290349403,
        -0.4798842235222469,
        -0.9489742846805336,
        -0.2922739023692517,
        0.3193696131472621,
        -0.2542440071898602,
        0.11297104755029061,
        0.6516071984220848,
        0.5409258951681652,
        0.2701180833085213,
        -0.6200589709493665,
        0.6599398584351192,
        -0.16087851073615145,
        -0.8537708655853041,
        -0.9698655989226086,
        0.6496804454295337,
        -1,
        0.9728786593473304,
        0.26402269185898464
      ],
      [
        0.6681835577331764,
        0.8270253088411379,
        0.3210033326984927,
        0.5695728518489576,
        0.5742560585963983,
        0.7935792136491998,
        -0.35616986721717536,
        -0.48731347617539056,
        -0.02140958259794279,
        0.4599667873644939,
        0.5980869972532968,
        -0.4874551012732753,
        1,
        0.8955774868223403,
        0.23863462768919352,
        -0.4201344399076392,
        1,
        -0.10962959468060096,
        -0.5753291937034111,
        1,
        -0.17697395417219927,
        0.8615886909079264
      ],
      [
        0.45349571222161295,
        -0.03944354720904286,
        -0.25993142369577515,
        0.32283234719843334,
        0.18912575364519585,
        -0.3970461592745051,
        -0.9951699317042402,
        -1,
        0.8909736572410683,
        0.6213661118822422,
        -0.5549114752822928,
        0.297016402854618,
        -0.7591867602700089,
        0.7399814176906294,
        0.04516044965548138,
        -0.2624469283483243,
        1,
        0.42721858879204744,
        0.6084225336271398,
        0.10996790595409889,
        0.1594927068163666,
        0.21849083214236775
      ],
      [
        0.929272994285107,
        -0.2513996452907378,
        -0.0716491416160725,
        -0.05587939375799467,
        0.9708165690959443,
        -0.6747500757513989,
        -0.7969155514551418,
        -0.6737572173582478,
        0.34518587223743835,
        0.465941738068524,
        -0.2252549619998437,
        1,
        -0.5418337148181986,
        -0.6757409137361672,
        -0.10700059538381197,
        -0.6210865152598541,
        0.051777652752820646,
        -0.24756677448970707,
        -0.27100454304078436,
        0.6258671946512544,
        0.620714960404078,
        -0.28387501917312474
      ],
      [
        1,
        0.49350301644320327,
        0.009842121945313526,
        0.6240189453317501,
        -0.1385925395122863,
        0.20308381215068927,
        0.14845373594098388,
        -0.00010670558060469335,
        0.8006807398822571,
        0.41372230472664845,
        -0.8204872804689542,
        0.6738599350004884,
        -1,
        0.27242803222974854,
        0.07472603404504277,
        -0.07600534743514897,
        0.1464217681034099,
        -0.6184505708609904,
        -0.08723224500793872,
        0.04004851869425896,
        -0.5179895090598801,
        -0.9825251613985531
      ],
      [
        0.6513984792836214,
        -0.5819978841697571,
        -0.4916455919704447,
        0.3581126805777448,
        -1,
        -0.35193053367281313,
        0.7376716745871608,
        -0.7708203417413382,
        0.3223048070333687,
        -0.07077685317527904,
        0.30252434821653185,
        -0.12283032068011268,
        0.6167610609936538,
        0.5609718821006062,
        -0.17487502762438178,
        -0.27873049840250547,
        -0.743593827103258,
        -0.41579261321214345,
        -0.676322544318559,
        0.6560684326598618,
        0.44932499165254125,
        0.7529081404788951
      ],
      [
        0.9800295314107825,
        -0.1908427046387413,
        0.9207185370724857,
        0.5415785107676558,
        -0.8934969197951539,
        -0.8027668445860257,
        0.4885678323557712,
        -0.9815729787816379,
        -0.9143460268252008,
        0.10990275888880217,
        -0.35574914026545756,
        -0.16612758804499228,
        -0.03673216676144937,
        0.4762977530707333,
        0.02164240137397222,
        0.5257850699630533,
        0.344192197806646,
        0.10410206123500854,
        -0.6316478190581261,
        -0.5470115974274403,
        -0.6925216788672782,
        0.2759993117790149
      ],
      [
        -0.4971503101946502,
        0.029329645132941895,
        -0.6386221744887004,
        0.390920573010334,
        0.1977930536617476,
        0.9319449156807167,
        0.4343489094051303,
        -0.5193495503546208,
        0.11590095096570269,
        0.11466187686154297,
        -0.6528768011104396,
        0.15297405122350016,
        0.5037624532122591,
        -0.32492724300137765,
        0.9074750756675171,
        0.7532109623341612,
        1,
        -0.08095315111781075,
        0.5757636234733752,
        -0.09820310403570454,
        -0.22560264273869013,
        0.26468966978015884
      ],
      [
        0.1633494534174608,
        -0.597848828265872,
        -0.9068520472044301,
        0.16231170707582482,
        0.34902842504031134,
        0.39909096176582565,
        -0.9517891554394509,
        -0.8235134546318532,
        0.4501058815873499,
        0.44401040136550485,
        0.4055553394932068,
        0.8807630889110787,
        -0.19756023980094797,
        -0.5478754490324489,
        -0.673628789739698,
        0.2867923213106906,
        -0.5736203463168705,
        -0.7264042834078821,
        -1,
        0.10880891678411819,
        0.2934124270755175,
        -0.6570182492889447
      ],
      [
        0.430371635023477,
        0.28889358222403777,
        0.2776282446580958,
        1,
        -0.2247151106132259,
        -0.9423894974060667,
        0.6321175866924931,
        0.20867135334559905,
        -0.6876129771171526,
        0.5508097926065265,
        -0.606751655776917,
        -1,
        0.5794612817145164,
        0.2602581784689646,
        0.7054718213209235,
        0.08241702844820262,
        -0.6503130729701363,
        -1,
        -0.629017251065725,
        0.586264955614556,
        -0.5917324528878263,
        -0.717732580109961
      ],
      [
        0.5432728625444601,
        0.48931622711152767,
        -0.12542909710474384,
        -1,
        -0.1341920650936337,
        -0.4836040268761561,
        -0.7234735882274761,
        0.006654913184184994,
        -0.44461785872190074,
        -0.6070534828817626,
        0.10030334013338688,
        -0.03505794717967759,
        0.08141516292596829,
        0.2864739675897132,
        1,
        -0.9536175265672844,
        0.586715606164566,
        -0.6260147747296361,
        -0.24793408403773487,
        -0.5528522384706696,
        1,
        -0.033621869883252796
      ],
      [
        -0.4190858642428663,
        0.2767295967670389,
        0.23389756848873233,
        0.02825515531677114,
        -0.6703808661787112,
        -1,
        0.0799319044819411,
        1,
        0.9950812643469451,
        0.7376281721845783,
        -0.238795655725609,
        0.5569424799500206,
        0.5586487450932793,
        -0.8722094619629037,
        -0.3455094421194295,
        -0.21876532218902706,
        0.8626273694567494,
        0.29133600564318285,
        0.45167435099868264,
        0.06645445513358528,
        0.06793713088596649,
        0.9458331374225117
      ],
      [
        -0.5087571146576624,
        0.4345828830209988,
        0.926161762547639,
        0.33594047207651023,
        -0.7996053652082171,
        -0.19488309138744206,
        0.852408060211077,
        0.22256885183501574,
        -0.1675750372142673,
        0.09460181006843271,
        0.031238717856412412,
        0.39800296540643676,
        0.307785544263246,
        -0.030117757378786456,
        -0.013301327260793583,
        -0.13977001936176162,
        -0.737437155207141,
        1,
        0.8137582685162152,
        0.8138727868097737,
        0.9467680980601048,
        0.6956315990244394
      ],
      [
        0.4903818843138328,
        0.3924756233773252,
        0.3080745655948109,
        0.13577776927657004,
        0.5324725594800563,
        -0.20709035118650743,
        -0.04990475662360475,
        0.4615689159398333,
        -0.6388478184842488,
        0.7906386409678137,
        -0.4016470015485136,
        0.002548101359691009,
        -0.039752424629623286,
        -0.7199013577699485,
        0.0752521940766064,
        0.7835981408331063,
        -1,
        -0.639020572019374,
        1,
        0.05052063510831628,
        -0.04438117437790544,
        0.7814024967062665
      ],
      [
        0.13511220114299122,
        0.2307615056994797,
        0.6248310314198959,
        0.0822869044870096,
        -1,
        0.0433239333199049,
        0.6357022481025802,
        -0.008282610050557304,
        0.5570290928780393,
        0.9778379662281067,
        -0.030974982445465926,
        0.9020502355976312,
        0.056290873651813324,
        -0.1118552799511261,
        0.5919867810170973,
        0.9700472930367758,
        -0.25703840953292456,
        -0.18431414556156556,
        0.4859577209866861,
        -0.36765165233702635,
        0.03133412414488598,
        0.9882853075892399
      ],
      [
        -0.15898069203179976,
        0.8496717920339634,
        -1,
        1,
        0.016706090857094402,
        -0.11100447580364603,
        -0.8156080551380189,
        0.7998226932975185,
        0.2886967332811394,
        -0.16361717410303256,
        -0.7123811478144575,
        -0.40474980797025717,
        0.8834262407364557,
        -0.46079895072504873,
        0.13512665132440205,
        0.12535912754552792,
        0.5056396216412027,
        0.6533194241436477,
        0.5883514909001826,
        0.6551326505765045,
        1,
        0.16999245147575714
      ],
      [
        0.03388781906644668,
        -0.039246491586204704,
        -0.98072599877179,
        0.20679423219376616,
        0.039402122065266325,
        0.6748239703612823,
        -0.19213296658987122,
        0.5586759248289854,
        0.6222373227896493,
        -0.43366535877853507,
        -1,
        -0.06635151693548784,
        0.4024731903665715,
        0.9854859393231012,
        -0.3875036517121908,
        -0.8417795564734836,
        -0.7506060810678115,
        -0.6019019277598685,
        -0.6737179541620832,
        -1,
        0.5456803954817913,
        0.9599605076260829
      ],
      [
        0.47270591681907215,
        -0.5339057159057561,
        -0.7630383974989614,
        -0.03335214207526299,
        0.20747977825006791,
        -0.7041375888318452,
        -0.493163272219751,
        -0.5486449285647967,
        0.14084992702592938,
        -0.6251915243162149,
        -0.07128250016643112,
        -0.5900263226806259,
        0.754134842774355,
        0.2325356401752745,
        0.8635911708705559,
        -1,
        0.018849451667051542,
        -0.44404845004255855,
        -0.0012516219477176497,
        -0.7606095710479319,
        -0.834777840044564,
        -0.37843063573153923
      ],
      [
        0.07073124501300164,
        -0.03544915262887709,
        -0.5504444320698932,
        0.5054712818586358,
        -0.7191425368782902,
        0.4365564740652692,
        -0.8142798805924518,
        -0.1590017955200099,
        -0.8117947537133352,
        -0.5281074107201191,
        -0.20794721993364426,
        -0.4898945655936984,
        -0.9871066365408006,
        -0.04274260213320775,
        -1,
        0.07228291801066566,
        0.11750820081770819,
        -0.511009713179621,
        0.021147037208924694,
        0.7824817509810431,
        0.2900532207889992,
        0.16813401643885828
      ],
      [
        -0.5629589771423094,
        -0.20639883009953408,
        0.14112740037588123,
        -1,
        0.8032478989611211,
        0.6060990660349512,
        0.9294412967891104,
        0.8763469513499336,
        -0.6880429150028295,
        0.6370824026084877,
        -0.07554362470136922,
        0.2274708895308326,
        -0.006642987506134143,
        -0.005574050107557203,
        -0.0812649442513311,
        0.7172212519286072,
        -0.3952536488694196,
        0.9435740216527235,
        -0.04202376351233993,
        0.5043490431186657,
        0.8032454940138378,
        -1
      ],
      [
        -0.7488171963905037,
        0.26803272320280347,
        0.11830034560830227,
        -0.35230199666300754,
        0.3661945883586939,
        0.27387669676457094,
        0.3540330472608648,
        0.3110345643852577,
        -0.6066342192706398,
        -1,
        1,
        -0.6523268574626049,
        -0.6530078075663179,
        0.2797916312504187,
        -0.044127060446468705,
        -0.5325098102782335,
        0.5243727723617659,
        0.9178797912389071,
        1,
        -0.3176736150802686,
        1,
        -0.09761026919072102
      ],
      [
        0.6669995127889787,
        -0.03528423441198016,
        -0.8930163417612642,
        0.2843441320998339,
        0.9566727969538069,
        0.4445763272018578,
        0.8128665609752654,
        -0.1539136603718363,
        -0.01622888558242397,
        -0.2461064346236408,
        -0.8352049040763292,
        0.8646527590538347,
        -0.3962689945665563,
        0.4870015216447774,
        -0.07643725413693137,
        -0.2997297858480994,
        0.8209510602587218,
        -0.96338009268057,
        0.3324564583521523,
        -1,
        -0.32645117051423256,
        -0.8375359419213275
      ]
    ]
  ],
  "generation": 14
}