{
  "neurons": [
    [
      0.4,
      0.4,
      0.4,
      4.1,
      1.2924e-07,
      6.15e-05,
      0,
      1,
      0,
      1.0,
      0.546448087431694
    ],
    [
      4.274372634750574,
      0,
      3.0417370816796443,
      0,
      5.145097398016695,
      0,
      0,
      0,
      0,
      0,
      0,
      0,
      0,
      2.3339614919240876,
      0,
      0,
      0,
      0,
      0,
      2.9926176523458117,
      1.0298593842764907,
      1.5137771729096763
    ],
    [
      2.777886525234967,
      0,
      6.453299864114131,
      2.9267328358460083,
      10.564489780391085,
      0.09199529138823026,
      0,
      0,
      0,
      0,
      0,
      0,
      11.571540779154654,
      0,
      5.651481153925961,
      0,
      3.4257575592948912,
      0.8091158186190135,
      1.3058390877785322,
      0,
      0,
      2.086150656787259,
      0,
      0,
      1.753292012844437,
      0.2943597455719673,
      0,
      0,
      0,
      3.6858200563941628,
      2.570314962116284,
      0,
      7.46920210788339
    ]
  ],
  "bias": [
    [
      0.0,
      0.0,
      0.0,
      -0.0,
      0.0,
      0.0,
      0.0,
      0.0,
      -0.0,
      0.0,
      -0.0,
      0.0,
      0.0,
      0.0,
      0.0,
      0.0,
      0.0,
      0.0,
      0.0,
      0.0,
      0.0,
      0.0
    ],
    [
      -0.0,
      0.0,
      0.0,
      0.0,
      0.0,
      0.0,
      0.0,
      0.0,
      0.0,
      0.0,
      0.0,
      0.0,
      0.0,
      -0.0,
      0.0,
      0.0,
      0.0,
      0.0,
      0.0,
      0.0,
      0.0,
      0.0,
      0.0,
      0.0,
      0.0,
      0.0,
      0.0,
      0.0,
      0.0,
      0.0,
      0.0,
      0.0,
      0.0
    ]
  ],
  "weights": [
    [
      [
        0.45196529048305134,
        0.48408604054619775,
        -0.0006998784509593126,
        0.9719901449082888,
        0.9347755585845072,
        0.4461425834197973,
        -0.15725200488764512,
        0.10218146148364288,
        -0.2182238944652859,
        -0.6534045765082521,
        0.8532704693543185
      ],
      [
        -0.6522125805954063,
        0.7745660823567522,
        -0.2916034279800499,
        -0.6149421087570486,
        -0.5289006575243587,
        -0.9892001958752823,
        -0.4262990478506197,
        -0.13690116950807973,
        0.3414968223991208,
        0.7929366015764112,
        -0.18342604701044873
      ],
      [
        0.11567354101861538,
        0.6089216331729432,
        0.34440199926846465,
        0.6862593384137057,
        -0.8701439098096266,
        0.6213214548874482,
        -0.7532090888688789,
        -0.45657460219994994,
        0.16156516561317807,
        0.08397376096749198,
        0.3166589310122754
      ],
      [
        0.2591534585661579,
        -0.8671158657722273,
        -0.28442079252517516,
        -0.06920623269149292,
        0.04622940596144365,
        0.21555231569066868,
        0.9673629004445017,
        -0.543765498324364,
        -0.5188677748753971,
        0.8883999001902423,
        0.3337813956534408
      ],
      [
        0.7761601398873275,
        0.2669393824728781,
        0.4259831840380641,
        0.9149391318983902,
        -0.2672055203292729,
        -0.36289215074750536,
        -0.2877661615467768,
        0.5809412055865939,
        -0.6764005538489035,
        0.7341133666376858,
        -0.9311375716233645
      ],
      [
        -0.4941667695228787,
        -0.03130662440371701,
        -0.6237339700708782,
        -0.29234990838378727,
        0.2462099267273159,
        0.4963833403432789,
        0.5222647340204869,
        0.5725213580895689,
        0.07466818716653534,
        0.6562138098615753,
        -0.10681591083959918
      ],
      [
        -0.6536723894340524,
        -0.7893266562976806,
        0.11282707874421805,
        -0.3423145942487089,
        -0.4184177436623361,
        -0.7943159056836777,
        0.28861026082695784,
        -0.36768996250924557,
        0.0124042324782907,
        0.6125876685814882,
        -0.8436590348666819
      ],
      [
        0.1610950885623177,
        -0.3004841461112415,
        -0.7575353283991504,
        -0.7919336737362426,
        -0.869192503302028,
        -0.7065721546382682,
        -0.06431046950543129,
        -0.04682583594061107,
        -0.6124454721424188,
        -0.05565410646526159,
        0.00023684877977570018
      ],
      [
        0.5586853808443344,
        -0.03587332228119977,
        -0.4875753240882086,
        -0.2207059000348397,
        -0.2973869941874281,
        -0.5608917070961552,
        -0.8731758315672149,
        -0.23327000639980855,
        -0.31019551297286974,
        0.32019637116959676,
        0.24879160716691762
      ],
      [
        -0.7495936447194982,
        -0.24842654034974032,
        -0.03868368902710517,
        0.18776480491268943,
        -0.6030608968437938,
        0.1727634391304853,
        -0.23513478722094594,
        -0.0802945807646942,
        -0.31200573016056277,
        -0.5167752264598662,
        -0.3771012308925792
      ],
      [
        0.865959231030762,
        0.28138974745230905,
        -0.0791045234575749,
        -0.8372370295561289,
        1,
        -0.21201528624557398,
        -0.2266412587464386,
        -0.4259914339909998,
        0.8912516890944324,
        0.03594770345688891,
        0.0013106737872409047
      ],
      [
        -0.773213610677056,
        -0.2500611010065714,
        0.7900401624580489,
        -0.22117657022613413,
        0.8106440285450798,
        -0.6632916791382688,
        0.5084050117289391,
        0.7759720380102939,
        -0.46213226053447043,
        -0.2087445304660942,
        -0.5624859515803271
      ],
      [
        -0.06393140791654583,
        -0.1282675126408641,
        -0.8233386394706386,
        -0.610264640771756,
        -0.1879154966675931,
        0.6940444106125454,
        -0.5124147174559657,
        0.3100194820954947,
        0.21270195243856582,
        0.8498917935705506,
        0.4117930803643748
      ],
      [
        0.012332276136035603,
        0.36419147783061634,
        -0.01786847486784926,
        0.7274812061797256,
        0.9350696759499748,
        -0.6207081985636993,
        0.5372735231588948,
        -0.08020159086100034,
        1,
        -0.3039007664907132,
        -0.7467006736404618
      ],
      [
        -0.7185314682829886,
        0.8283219115277967,
        0.007645106640267407,
        -0.1446361792073716,
        -0.4575150058489481,
        0.5499136357181433,
        -0.07291740810551217,
        0.46359084494451785,
        0.9258895518898522,
        -0.1130704907360844,
        -0.48275691526907183
      ],
      [
        -0.6836170047868477,
        0.999703298831387,
        0.8414336320816256,
        -0.44409038640503695,
        -0.39186521529602847,
        0.5008730990882257,
        0.11660154147424162,
        -0.8627957534794464,
        -0.46341241417452106,
        -0.15293445200094613,
        0.7304376000054069
      ],
      [
        -0.856960651629094,
        -0.028414664159372327,
        -0.36263121307430324,
        -0.21347390642163955,
        -0.7687963892067444,
        -0.8238474238367477,
        0.1883838451858182,
        0.07446166225716987,
        0.605712377287184,
        0.31024050626395483,
        0.743956038402227
      ],
      [
        0.5280558964631246,
        0.5075993799553566,
        0.2893666733584084,
        0.18959423556166732,
        0.8631248980672381,
        -0.8484595580761485,
        0.9445843236286027,
        -0.707235616737115,
        -0.3515425590000494,
        -0.5009197037905846,
        -0.9455969407674396
      ],
      [
        0.8419433165265195,
        -0.2449799165287001,
        -0.3113062124582562,
        0.16852286066766808,
        0.1868567268960637,
        0.023150953490373275,
        -0.6222292659474733,
        -0.3653433215005972,
        0.1634702121571566,
        -0.13362083297518992,
        -0.5642229903160743
      ],
      [
        -0.3000153891158315,
        0.38200876246267246,
        0.9181153969078997,
        0.6872886683275616,
        -0.48771537872988624,
        0.5059686697440104,
        0.6294628439446865,
        -0.5021656113007644,
        0.4905367644149905,
        0.7360631166416662,
        -0.840405458163942
      ],
      [
        -0.29870937418447774,
        -0.3448062020299174,
        0.07042342477754995,
        0.3205382680781832,
        -0.8203483221865526,
        -0.6427130513367347,
        0.222665301897776,
        0.2866362043711652,
        0.6877669710228267,
        0.015205206964278073,
        -0.6531497518964324
      ],
      [
        -0.8641929610646537,
        0.4660733633195544,
        0.2485703903552059,
        0.36872590333348776,
        0.8363185874265919,
        -0.5156958668953311,
        -0.821060327703707,
        0.16439861945026846,
        0.08716370678573648,
        0.14865209334335794,
        -0.45969316969508545
      ]
    ],
    [
      [
        0.6436033733542597,
        0.39810835342460016,
        0.6942554893204127,
        -0.42176775141181233,
        -0.5165209229949868,
        -0.8050105603894424,
        0.8371902465446321,
        -0.9480992011423088,
        0.5678374846529717,
        -0.11603073321693325,
        0.8547601968509757,
        1,
        -0.46022967558393635,
        0.5362987983520253,
        -0.8041584185560751,
        0.9671099956183802,
        0.1897119096289881,
        0.25597085471742975,
        -0.019796980189898283,
        0.4381910337886117,
        -0.7437521794128419,
        -0.8088278494799248
      ],
      [
        -0.9480282312745649,
        -0.6303167572264914,
        -0.43689169000111283,
        -0.4192958337454873,
        0.2960693228519522,
        0.768736924669774,
        -0.2940722860048899,
        0.6772402848328024,
        -0.8386493712570253,
        -0.7428242906492881,
        0.2713380707220583,
        0.841657942466822,
        -0.555909549586654,
        -0.4694234627112406,
        0.3233735863983851,
        0.8567171974965555,
        -0.38755317265169364,
        0.4699373581905988,
        -0.19103610413160688,
        -0.13122421260239103,
        -0.007342446351058296,
        -0.8366337898354479
      ],
      [
        -0.10720523205154328,
        -0.323944301933329,
        0.5490039365373844,
        0.553414724297222,
        0.9529920939597114,
        0.7058778965879613,
        0.7574816698329372,
        0.7937684991219838,
        -0.7812372327903061,
        -0.19871521378464463,
        -0.04978066186230112,
        0.15285310914691896,
        -0.5381739768118909,
        0.4765125112259645,
        -0.3659658896995932,
        0.38466343664659663,
        -0.5334035776216282,
        -0.00584148694181108,
        0.7696168706261788,
        -0.10666528010061871,
        0.2275455234906567,
        -0.4551007618326064
      ],
      [
        0.6260167067432756,
        -0.18672134458069123,
        -0.8982436759993961,
        0.3796194575000106,
        0.88792460869683,
        0.09742875294568965,
        0.015488608496221959,
        -0.04658591538701251,
        -0.5699116591597526,
        0.34709209315346534,
        -0.8656726783837627,
        0.703853545162459,
        -0.9121884064340886,
        -0.853001038136799,
        0.47286615613413474,
        -0.40482956446292095,
        -0.5217663555369956,
        0.721960579793935,
        -0.8885536710765956,
        0.55298406005585,
        -0.06772745248318701,
        -0.7792308492469542
      ],
      [
        -0.08404565335538128,
        0.7697428829261899,
        0.6924581469261015,
        0.21431734892617538,
        0.7992829892078737,
        -0.6556116589353014,
        0.24509412843001122,
        -0.42073474680163847,
        0.9966503250788281,
        0.9391942469956807,
        -0.4648061826927661,
        -0.7233506517270607,
        -0.35918726464977246,
        0.23730932684040273,
        -0.021428250025107287,
        -0.7487582593454065,
        0.48801009315631294,
        0.2651260744723456,
        -0.26848632434797315,
        0.9562072616960038,
        0.3096142159840749,
        0.641293263274096
      ],
      [
        -0.3733538413891184,
        -0.5281033514401181,
        0.5475714200311037,
        -0.3388250255719407,
        0.16637191519499428,
        -0.3835200483031569,
        -0.05882216895082726,
        1,
        0.6600463451645755,
        -0.19941927793226566,
        0.8662750446372172,
        -0.0012978528636409248,
        0.88229107274685,
        -0.5302635463857128,
        -0.5503378871305291,
        0.17823573414664806,
        0.7727079874125691,
        -0.302541750286071,
        -0.015618755967593989,
        0.3037503580452488,
        0.9385148615950878,
        -0.9721718734030629
      ],
      [
        -0.7009855182741429,
        0.3224849578246265,
        0.25481555134186684,
        0.03845720890350908,
        -0.9765772066840295,
        -0.8206190188923514,
        0.9086116648886877,
        -0.1802435924129946,
        -0.5217624283767186,
        -0.0741926051128019,
        -0.8470970454462696,
        -0.11820574787515348,
        0.3117094632071744,
        -0.3595949941615455,
        0.41850113994764326,
        0.8676449712738614,
        -0.6503419966581038,
        -0.5047467545749647,
        0.722128967528282,
        -0.4867089379453806,
        0.9815674950512481,
        0.8570288752687529
      ],
      [
        -0.8382213038714825,
        -0.26444884671879265,
        -0.7852739441459418,
        0.5877877262160989,
        0.4761829786333194,
        -0.20184281032807636,
        0.7698835596935161,
        0.0125931800888103,
        0.7338754482032115,
        -0.6460857574958883,
        -0.2624772977630958,
        0.6018152057579136,
        0.4032899417081848,
        -0.697211993834157,
        -0.4506680659267075,
        -0.27054592098755825,
        0.13999594313741537,
        -0.6404595522659697,
        -0.7663938342655185,
        0.03478385606570966,
        0.4983700490992651,
        0.01038935545537023
      ],
      [
        -0.2588232448702786,
        0.5908011016609169,
        -0.9096091292051396,
        -0.3175872684516534,
        -0.49786422335591585,
        0.34880295853334564,
        -0.8345571962675677,
        0.5554657661268789,
        0.6568441371209077,
        0.01391141855975353,
        0.8746530809060553,
        -0.005488451692755639,
        -0.7089505790641804,
        0.46790692596823114,
        0.5238580640743216,
        0.14245025105340248,
        -0.400184938625727,
        -0.17220341816550344,
        -0.008020862031922801,
        0.720702780576262,
        -0.7323821608782695,
        0.19949824882997946
      ],
      [
        -0.19402167116970315,
        -0.21871415630799795,
        0.1864081973868681,
        -0.21183706712873485,
        -0.344857192738766,
        -0.978931187223099,
        0.5510654834209077,
        0.049829996487876754,
        0.5353159987113985,
        0.4845023700928808,
        -0.43836396363354035,
        -0.6499953358531194,
        0.037248709510061984,
        0.32023436445264686,
        0.8272136418433689,
        -0.48849089247662314,
        -0.9377050940448877,
        0.4748737422189031,
        -0.21237770270525003,
        -0.2534192377050839,
        -0.5891444721124821,
        -0.38820777350580027
      ],
      [
        -0.47070897198115325,
        0.7741346030748266,
        -0.6059867412202284,
        -0.7702886345236253,
        -0.06454277853749923,
        0.3655545877093638,
        0.8067751431829004,
        0.15224665805302884,
        0.5133313538344415,
        -0.35458154176185386,
        0.658213536059352,
        -0.965417105671357,
        -0.26844928482563946,
        0.7104760776023622,
        -0.3027375328474149,
        -0.7059543825646677,
        -0.2356901082506846,
        -0.839826715963826,
        -0.6104966078904999,
        0.11843247265359413,
        -0.4695092732134609,
        0.25885417977425007
      ],
      [
        -0.8574860371635487,
        -0.9330111345588255,
        -0.32516249379113127,
        0.8259975456194499,
        -0.4798842235222469,
        -0.9489742846805336,
        0.5991757820656691,
        0.3193696131472621,
        -0.2542440071898602,
        0.08370907856310805,
        0.6516071984220848,
        0.5409258951681652,
        0.2701180833085213,
        -0.6200589709493665,
        0.6599398584351192,
        -0.16087851073615145,
        -0.6387757764607453,
        -0.9698655989226086,
        0.6496804454295337,
        0.9635108896949991,
        0.9728786593473304,
        -0.3889604867592438
      ],
      [
        0.6209051486649617,
        0.8270253088411379,
        0.3210033326984927,
        -0.30594202881404975,
        0.5742560585963983,
        -0.7382197449643719,
        -0.35616986721717536,
        -0.48731347617539056,
        -0.02140958259794279,
        0.4599667873644939,
        0.5980869972532968,
        -0.4874551012732753,
        0.7336010773513733,
        0.8955774868223403,
        0.23863462768919352,
        -0.4201344399076392,
        -0.6461856726254602,
        0.2358453449306237,
        -0.5463515978741416,
        0.5929285705561631,
        -0.17706830659381456,
        0.8615886909079264
      ],
      [
        -0.7995663474168242,
        -0.03944354720904286,
        -0.25993142369577515,
        0.32283234719843334,
        0.24765039518921061,
        0.9200158792373554,
        -0.9951699317042402,
        -0.9250922620928261,
        0.8909736572410683,
        0.6213661118822422,
        -0.5549114752822928,
        -0.17449625125724832,
        -0.7591867602700089,
        0.7399814176906294,
        0.04516044965548138,
        -0.24978726860507683,
        0.714730980463347,
        0.42721858879204744,
        0.8213783755568047,
        -0.833069118487072,
        -0.5222641865477469,
        0.21849083214236775
      ],
      [
        0.929272994285107,
        0.9368692785203194,
        -0.0716491416160725,
        0.7045472443902328,
        0.9708165690959443,
        -0.41836251569455696,
        -0.7969155514551418,
        -0.6737572173582478,
        0.34518587223743835,
        -0.5688158500659266,
        0.2194121280477206,
        -0.9407281512286629,
        0.419130614565306,
        -0.6757409137361672,
        -0.11227354705828851,
        -0.6210865152598541,
        0.051777652752820646,
        0.6348973802211126,
        -0.27100454304078436,
        -0.4024727479125068,
        0.620714960404078,
        -0.6310272598905033
      ],
      [
        0.8385887794482871,
        0.49350301644320327,
        -0.1728385504716583,
        0.7447844658991265,
        -0.6450799908196749,
        0.20308381215068927,
        0.6518377031978684,
        0.08876295716524418,
        0.8006807398822571,
        0.5907144908081808,
        -0.8204872804689542,
        0.6738599350004884,
        -1,
        0.27242803222974854,
        0.0496634232839781,
        -0.07600534743514897,
        0.1464217681034099,
        -0.5996554229773634,
        0.2396940995909833,
        0.04004851869425896,
        -0.5179895090598801,
        -0.9825251613985531
      ],
      [
        0.6513984792836214,
        -0.5961989239698144,
        0.4671461576573772,
        -0.4524541699124054,
        -0.685577080214947,
        -0.35193053367281313,
        0.7376716745871608,
        -0.7708203417413382,
        0.3223048070333687,
        -0.07077685317527904,
        0.30252434821653185,
        1,
        0.6167610609936538,
        0.5609718821006062,
        -0.17487502762438178,
        0.39254243607822925,
        0.42025495594052664,
        -0.41579261321214345,
        -0.676322544318559,
        0.6560684326598618,
        0.44932499165254125,
        -0.6523598942735265
      ],
      [
        0.9800295314107825,
        -0.1908427046387413,
        0.9207185370724857,
        0.5415785107676558,
        -0.9139641204082016,
        -0.6813068627262577,
        0.4527416006924434,
        0.6816627739106846,
        -0.9143460268252008,
        -0.06251671030221373,
        -0.35574914026545756,
        0.7528119592590186,
        0.5809070891759882,
        0.21882779932686636,
        0.7070589058315051,
        0.5257850699630533,
        0.344192197806646,
        0.10410206123500854,
        -0.5560378600839601,
        -0.5470115974274403,
        0.5914985806761652,
        -0.6347990745835439
      ],
      [
        0.72866954094261,
        0.029329645132941895,
        -0.6386221744887004,
        0.390920573010334,
        0.1977930536617476,
        0.9319449156807167,
        0.48027559306636536,
        -0.5193495503546208,
        -0.2648650926500584,
        0.20340810591872382,
        -0.6528768011104396,
        0.0848027114185479,
        -0.34381425088640105,
        -0.32492724300137765,
        -0.590086931784682,
        0.7532109623341612,
        1,
        0.6811716263437861,
        0.5757636234733752,
        -0.09820310403570454,
        -0.22560264273869013,
        0.26468966978015884
      ],
      [
        -0.8281472138908255,
        -0.597848828265872,
        -0.9068520472044301,
        0.16231170707582482,
        0.34902842504031134,
        0.8776543254702593,
        -0.9517891554394509,
        -0.8235134546318532,
        0.4501058815873499,
        -0.2476228245212495,
        0.728661299368558,
        0.8807630889110787,
        -0.8468149529764137,
        -0.5478754490324489,
        -0.673628789739698,
        -0.7837936489705033,
        -0.5736203463168705,
        -0.7264042834078821,
        0.9513226934045504,
        0.10880891678411819,
        0.7122343660948762,
        -0.6570182492889447
      ],
      [
        0.3440538673138105,
        0.28889358222403777,
        -0.6135809568088613,
        -1,
        -0.2247151106132259,
        -0.9423894974060667,
        0.6321175866924931,
        0.20867135334559905,
        -0.6876129771171526,
        0.5508097926065265,
        -0.606751655776917,
        0.8793184195621395,
        0.5794612817145164,
        0.2602581784689646,
        0.7054718213209235,
        0.35745397788543687,
        -0.6503130729701363,
        -0.7904496134966157,
        -0.629017251065725,
        0.31478914932757207,
        -0.5917324528878263,
        -0.717732580109961
      ],
      [
        0.5432728625444601,
        0.6920021568176906,
        0.08696854097803253,
        -1,
        -0.1341920650936337,
        -0.4836040268761561,
        -0.7234735882274761,
        -0.055313505323652645,
        0.09099707809162516,
        -0.6070534828817626,
        0.4050974677344805,
        -0.03103686372842307,
        0.08141516292596829,
        0.2864739675897132,
        0.7946105013030247,
        -0.9536175265672844,
        -0.9496652647901798,
        -0.4703012315787254,
        -0.24793408403773487,
        -0.5528522384706696,
        1,
        0.0963765251368538
      ],
      [
        -0.4190858642428663,
        0.2767295967670389,
        0.23389756848873233,
        0.02825515531677114,
        -0.6703808661787112,
        0.6557548085224254,
        0.0799319044819411,
        0.6402939687143336,
        0.9950812643469451,
        0.7376281721845783,
        -0.238795655725609,
        0.12367829948516729,
        -0.9117842112382841,
        -0.5656102494143176,
        -0.3455094421194295,
        -0.6189648088876376,
        0.8110838482802658,
        -0.450103007664995,
        -0.3244214830152452,
        0.06645445513358528,
        0.06793713088596649,
        0.9458331374225117
      ],
      [
        -0.5087571146576624,
        0.4345828830209988,
        0.926161762547639,
        0.33594047207651023,
        -0.7996053652082171,
        0.7583267777378058,
        -0.4432541162980359,
        0.22256885183501574,
        -0.2576009742108192,
        0.09460181006843271,
        0.031238717856412412,
        0.39800296540643676,
        0.307785544263246,
        -0.6968735083544337,
        -0.013301327260793583,
        -0.3915811876385975,
        0.9290068122457578,
        1,
        0.8137582685162152,
        0.8138727868097737,
        0.9467680980601048,
        0.39750715418347604
      ],
      [
        0.4903818843138328,
        0.3924756233773252,
        -0.2094802414655932,
        0.13577776927657004,
        0.5324725594800563,
        -0.20709035118650743,
        -0.5948802098935657,
        0.4615689159398333,
        -0.6388478184842488,
        0.7906386409678137,
        -0.4016470015485136,
        0.002548101359691009,
        0.06021963138010728,
        -0.7199013577699485,
        -0.10050487541098585,
        0.7835981408331063,
        -1,
        0.39261598335201864,
        0.9098369959323601,
        -0.5669094887054662,
        -0.2440392659420747,
        0.7814024967062665
      ],
      [
        0.3267232046544195,
        -0.5052512112825298,
        0.6248310314198959,
        0.0822869044870096,
        -0.778517917118478,
        -0.08154057810577942,
        -0.7176433023243654,
        -0.008282610050557304,
        0.5570290928780393,
        0.9778379662281067,
        -0.030974982445465926,
        0.9020502355976312,
        -0.27780569995398086,
        0.2136318066021743,
        0.5919867810170973,
        0.9700472930367758,
        -0.25703840953292456,
        -0.18431414556156556,
        0.4859577209866861,
        -0.36765165233702635,
        0.10524785171958828,
        0.9882853075892399
      ],
      [
        -0.15898069203179976,
        0.8496717920339634,
        -1,
        0.6641780164411706,
        0.016706090857094402,
        -0.11100447580364603,
        -0.8156080551380189,
        0.6549205342871727,
        -0.22177637957025675,
        0.3245218529935656,
        -0.002808229514029037,
        -0.9918219598141773,
        0.8834262407364557,
        -0.46079895072504873,
        0.13512665132440205,
        0.12535912754552792,
        0.5056396216412027,
        1,
        0.5883514909001826,
        0.6551326505765045,
        -0.3678290260270824,
        0.16999245147575714
      ],
      [
        -0.10483273401309656,
        -0.041481080855870545,
        -0.98072599877179,
        0.8879536320965045,
        -0.7822923335633609,
        0.6748239703612823,
        -0.24884619940342145,
        0.5586759248289854,
        -0.44644397921004275,
        -0.43366535877853507,
        0.9007854077922459,
        -0.2415985225894699,
        0.4024731903665715,
        0.9854859393231012,
        -0.3875036517121908,
        -0.8417795564734836,
        -0.7506060810678115,
        -0.6019019277598685,
        -0.6737179541620832,
        -0.6278724760879015,
        0.5456803954817913,
        0.9599605076260829
      ],
      [
        0.47270591681907215,
        -0.5339057159057561,
        -0.7630383974989614,
        -0.03335214207526299,
        0.19391746675890897,
        -0.7066656119540244,
        -0.493163272219751,
        -0.5486449285647967,
        0.38450635797510846,
        -0.9030333888375615,
        -0.25694571237980934,
        -0.5900263226806259,
        0.8668382858042978,
        0.2325356401752745,
        0.8635911708705559,
        0.6745051105078431,
        -0.38777766948609194,
        -0.4889332924033627,
        -0.5019928411749175,
        -0.7606095710479319,
        -0.5304694012620856,
        -0.37843063573153923
      ],
      [
        0.7328016376546995,
        0.029759618447379402,
        0.47948608482888133,
        0.5054712818586358,
        -0.7191425368782902,
        0.4365564740652692,
        -0.8142798805924518,
        0.6098069891883384,
        -0.8117947537133352,
        -0.5281074107201191,
        0.6473702819942608,
        -0.9926150757860561,
        -0.9871066365408006,
        -0.04274260213320775,
        -0.9886082163846355,
        0.07228291801066566,
        0.11750820081770819,
        0.7251309243623585,
        -0.04727421293710665,
        0.7824817509810431,
        0.2900532207889992,
        0.16813401643885828
      ],
      [
        0.6929972497711308,
        -0.20639883009953408,
        -0.32464314233839175,
        -1,
        -0.129078657297647,
        0.6060990660349512,
        0.9294412967891104,
        0.8763469513499336,
        -0.6880429150028295,
        0.8266445370265822,
        -0.07554362470136922,
        0.2274708895308326,
        -0.23773829410744218,
        -0.24332058329633166,
        -0.0812649442513311,
        0.7172212519286072,
        -0.3952536488694196,
        -0.34054521825608597,
        0.31638800727458394,
        0.5043490431186657,
        0.5643840690816184,
        -0.17365262368610024
      ],
      [
        -0.7488171963905037,
        0.26803272320280347,
        -0.35426669296791613,
        -0.2149661642759606,
        0.3661945883586939,
        0.27387669676457094,
        0.3540330472608648,
        0.3110345643852577,
        -0.6066342192706398,
        -1,
        1,
        -0.6523268574626049,
        -0.6530078075663179,
        0.2797916312504187,
        -0.044127060446468705,
        -0.5325098102782335,
        -0.4313587985770184,
        0.6364005061013316,
        0.9857003138223277,
        -0.3176736150802686,
        0.8810762841090505,
        -0.09761026919072102
      ],
      [
        0.6669995127889787,
        -0.03528423441198016,
        -0.8930163417612642,
        0.2843441320998339,
        0.9566727969538069,
        -0.894735140901747,
        0.8896647182368649,
        -0.1539136603718363,
        -0.01622888558242397,
        0.7342165777663898,
        -0.8352049040763292,
        0.8646527590538347,
        -0.3962689945665563,
        0.4870015216447774,
        -0.7838507305370477,
        -0.2997297858480994,
        0.8209510602587218,
        -0.96338009268057,
        0.3324564583521523,
        0.9622821804503914,
        -0.32645117051423256,
        -0.8375359419213275
      ]
    ]
  ],
  "generation": 2
}