{
  "neurons": [
    [
      0.5,
      0.5,
      0.4,
      2.3,
      2.0806e-07,
      0.0001725,
      0,
      0,
      0,
      1.0,
      0.546448087431694
    ],
    [
      2.5169004029168947,
      1.8590801187715615,
      2.3355732694972833,
      0.841361043851463,
      3.142798895776152,
      0.8252726275898187,
      0,
      0,
      0,
      0,
      0,
      0,
      0,
      1.1422804621503984,
      0,
      0,
      0,
      0.05185552609822408,
      0.45972371482418,
      2.265914725556204,
      0.4090076047743067,
      0
    ],
    [
      0,
      0,
      5.580858842716246,
      2.3062457513709744,
      7.239148347947102,
      2.0200203286197635,
      0,
      0,
      0,
      0,
      0,
      0,
      9.977468686645434,
      1.5088498592829795,
      5.384089254487451,
      1.879584877044395,
      0.7751077924189012,
      1.967066586808114,
      0,
      0,
      0,
      0,
      0,
      1.9473629581233283,
      3.931168242306482,
      0,
      0.758177639360062,
      0,
      0,
      0,
      0,
      0,
      0.2946740145346155
    ]
  ],
  "bias": [
    [
      0.0,
      0.0,
      0.0,
      0.0,
      0.0,
      0.0,
      0.0,
      0.0,
      -0.0,
      0.0,
      -0.0,
      0.0,
      0.0,
      0.0,
      0.0,
      0.0,
      0.0,
      0.0,
      0.0,
      0.0,
      0.0,
      0.0
    ],
    [
      -0.0,
      -0.0,
      0.0,
      0.0,
      0.0,
      0.0,
      0.0,
      0.0,
      0.0,
      0.0,
      0.0,
      -0.0,
      0.0,
      -0.0,
      0.0,
      -0.0,
      0.0,
      0.0,
      0.0,
      0.0,
      0.0,
      0.0,
      0.0,
      0.0,
      0.0,
      0.0,
      0.0,
      0.0,
      0.0,
      0.0,
      0.0,
      0.0,
      0.0
    ]
  ],
  "weights": [
    [
      [
        0.45196529048305134,
        0.48408604054619775,
        0.0007716876480198582,
        0.9719901449082888,
        0.9347755585845072,
        0.7251885926736821,
        -0.15725200488764512,
        -0.08073578208443763,
        -0.2182238944652859,
        -0.6534045765082521,
        0.8532704693543185
      ],
      [
        -0.6522125805954063,
        0.7745660823567522,
        -0.2916034279800499,
        0.5051028668890523,
        -0.5289006575243587,
        -0.9892001958752823,
        -0.4262990478506197,
        -0.13690116950807973,
        0.3414968223991208,
        0.8532117048889635,
        -0.18342604701044873
      ],
      [
        0.11567354101861538,
        0.6089216331729432,
        0.34440199926846465,
        0.6862593384137057,
        -0.9698918000459213,
        0.6213214548874482,
        -0.7532090888688789,
        -0.45657460219994994,
        0.16156516561317807,
        0.08397376096749198,
        0.3166589310122754
      ],
      [
        0.2591534585661579,
        -0.17220866217881098,
        -0.28442079252517516,
        -0.06920623269149292,
        0.04622940596144365,
        0.21555231569066868,
        0.9673629004445017,
        -0.543765498324364,
        -0.5188677748753971,
        0.8883999001902423,
        0.3337813956534408
      ],
      [
        0.7761601398873275,
        0.509466249782671,
        0.4259831840380641,
        0.9149391318983902,
        0.006571793590613295,
        -0.36289215074750536,
        0.15596396077445945,
        0.5809412055865939,
        -0.6764005538489035,
        0.7341133666376858,
        -0.9311375716233645
      ],
      [
        -0.4941667695228787,
        -0.03130662440371701,
        -0.6237339700708782,
        0.32155338067513883,
        0.2462099267273159,
        0.4963833403432789,
        0.5222647340204869,
        0.5725213580895689,
        0.07466818716653534,
        0.6562138098615753,
        -0.10681591083959918
      ],
      [
        -0.6536723894340524,
        -0.7893266562976806,
        0.11282707874421805,
        -0.3423145942487089,
        -0.4184177436623361,
        -0.7943159056836777,
        0.04623008550156372,
        -0.36768996250924557,
        0.02017504683776434,
        0.6125876685814882,
        -0.8436590348666819
      ],
      [
        0.1610950885623177,
        -0.3004841461112415,
        -0.7575353283991504,
        -0.7919336737362426,
        -0.869192503302028,
        -0.7065721546382682,
        -0.06431046950543129,
        -0.012482725869482222,
        -0.6124454721424188,
        -0.05565410646526159,
        0.00023684877977570018
      ],
      [
        0.5586853808443344,
        -0.03587332228119977,
        -0.4875753240882086,
        -0.2207059000348397,
        -0.2973869941874281,
        -0.5608917070961552,
        -0.8731758315672149,
        -0.23327000639980855,
        0.7669089506590898,
        0.32019637116959676,
        0.10257053392207932
      ],
      [
        -0.7495936447194982,
        -0.24842654034974032,
        -0.03868368902710517,
        0.18776480491268943,
        0.3070517064114405,
        0.2644156919359191,
        -0.23513478722094594,
        -0.0802945807646942,
        -0.31200573016056277,
        -0.5167752264598662,
        -0.3771012308925792
      ],
      [
        0.865959231030762,
        -0.07993661501505861,
        -0.12998623431840828,
        -0.8372370295561289,
        1,
        0.2356314568274101,
        -0.2266412587464386,
        -0.4259914339909998,
        0.8912516890944324,
        0.03594770345688891,
        0.0013106737872409047
      ],
      [
        -0.773213610677056,
        -0.47834786704506144,
        0.5773082878836782,
        -0.22117657022613413,
        0.8165923260458865,
        -0.6632916791382688,
        0.5084050117289391,
        0.7759720380102939,
        -0.46213226053447043,
        -0.2087445304660942,
        -0.5624859515803271
      ],
      [
        -0.06393140791654583,
        -0.1282675126408641,
        -0.8233386394706386,
        -0.610264640771756,
        -0.1879154966675931,
        0.6940444106125454,
        -0.5124147174559657,
        0.18252252761002494,
        0.21270195243856582,
        0.8498917935705506,
        0.4117930803643748
      ],
      [
        0.012332276136035603,
        0.36419147783061634,
        -0.01786847486784926,
        0.7274812061797256,
        0.9350696759499748,
        -0.6207081985636993,
        0.5372735231588948,
        -0.08020159086100034,
        1,
        -0.3039007664907132,
        -0.7467006736404618
      ],
      [
        -0.7185314682829886,
        0.8283219115277967,
        0.1398679254754498,
        -0.23172778180996612,
        -0.4575150058489481,
        0.5499136357181433,
        -0.07291740810551217,
        0.46359084494451785,
        0.9258895518898522,
        0.08093163962397908,
        -0.48275691526907183
      ],
      [
        -0.6836170047868477,
        1,
        0.8414336320816256,
        -0.44409038640503695,
        -0.39186521529602847,
        0.8499011239084956,
        0.11660154147424162,
        -0.8627957534794464,
        -0.46341241417452106,
        -0.15293445200094613,
        0.7304376000054069
      ],
      [
        -0.856960651629094,
        0.02484881401725472,
        -0.36263121307430324,
        -0.21347390642163955,
        -0.7870753476399517,
        -0.8238474238367477,
        0.1883838451858182,
        0.07446166225716987,
        0.605712377287184,
        0.31024050626395483,
        0.743956038402227
      ],
      [
        0.5280558964631246,
        0.5075993799553566,
        0.2893666733584084,
        0.18959423556166732,
        0.8631248980672381,
        -0.8484595580761485,
        -1,
        -0.707235616737115,
        -0.3515425590000494,
        -0.5009197037905846,
        -0.9455969407674396
      ],
      [
        0.8419433165265195,
        -0.2449799165287001,
        0.5389370244778645,
        0.16852286066766808,
        0.1868567268960637,
        0.023150953490373275,
        -0.6222292659474733,
        -0.3653433215005972,
        -0.3119926151459666,
        -0.13362083297518992,
        -0.5642229903160743
      ],
      [
        -0.3000153891158315,
        0.38200876246267246,
        0.9181153969078997,
        0.6872886683275616,
        -0.48771537872988624,
        0.4804816201159894,
        0.6294628439446865,
        -0.5021656113007644,
        0.4905367644149905,
        0.7360631166416662,
        -0.840405458163942
      ],
      [
        -0.1858119859121258,
        -0.3448062020299174,
        0.07042342477754995,
        0.4295502579492821,
        -0.8203483221865526,
        -0.6427130513367347,
        0.222665301897776,
        0.2866362043711652,
        0.6877669710228267,
        0.015205206964278073,
        -0.6531497518964324
      ],
      [
        0.037115998353793866,
        0.4660733633195544,
        0.2485703903552059,
        -0.5983807057578848,
        0.8363185874265919,
        0.433572651088884,
        -0.821060327703707,
        0.16439861945026846,
        0.08716370678573648,
        0.14865209334335794,
        -0.45969316969508545
      ]
    ],
    [
      [
        0.2712106186730292,
        -0.10493239481199021,
        0.6942554893204127,
        -0.42176775141181233,
        -0.5165209229949868,
        -0.8050105603894424,
        0.8371902465446321,
        -0.9480992011423088,
        0.5678374846529717,
        -0.11603073321693325,
        -1,
        1,
        -0.46022967558393635,
        -0.32421705209388496,
        0.04312033283906258,
        0.9671099956183802,
        0.20282634996356466,
        0.25597085471742975,
        -0.019796980189898283,
        0.4381910337886117,
        -0.7437521794128419,
        -0.8088278494799248
      ],
      [
        -0.37202341844982856,
        -0.6303167572264914,
        -0.43689169000111283,
        -0.4192958337454873,
        0.2960693228519522,
        0.768736924669774,
        -0.2855709023711422,
        0.6772402848328024,
        -0.8386493712570253,
        -0.46686153825295884,
        0.2713380707220583,
        0.841657942466822,
        -0.555909549586654,
        -0.4694234627112406,
        0.3233735863983851,
        0.8567171974965555,
        -0.38755317265169364,
        0.4699373581905988,
        -0.19103610413160688,
        -0.13122421260239103,
        -0.007342446351058296,
        -0.8366337898354479
      ],
      [
        -0.10720523205154328,
        -0.323944301933329,
        0.5490039365373844,
        0.24349097682115328,
        0.9529920939597114,
        0.7058778965879613,
        0.7574816698329372,
        -0.6674868395351018,
        -0.7812372327903061,
        -0.19871521378464463,
        -0.04978066186230112,
        0.15285310914691896,
        -0.5381739768118909,
        0.4765125112259645,
        -0.3659658896995932,
        -0.07702145690691618,
        -0.5334035776216282,
        -0.00584148694181108,
        0.7696168706261788,
        0.1753500245734234,
        0.2275455234906567,
        -0.4551007618326064
      ],
      [
        0.6260167067432756,
        -0.18672134458069123,
        -0.4025197170865736,
        0.3796194575000106,
        0.88792460869683,
        -0.04591434830083801,
        0.015488608496221959,
        -0.04658591538701251,
        -0.5699116591597526,
        0.34709209315346534,
        -0.8656726783837627,
        0.703853545162459,
        -0.9121884064340886,
        -0.853001038136799,
        0.47286615613413474,
        -0.40482956446292095,
        -0.5217663555369956,
        0.721960579793935,
        -0.8885536710765956,
        0.1186755049727543,
        0.05453206121261597,
        -0.7792308492469542
      ],
      [
        -0.08404565335538128,
        0.7697428829261899,
        0.6924581469261015,
        0.21431734892617538,
        0.7345081279038436,
        -0.6556116589353014,
        0.24509412843001122,
        -0.42073474680163847,
        0.9966503250788281,
        0.9391942469956807,
        -0.4648061826927661,
        -0.7233506517270607,
        -0.021911658819770752,
        0.23730932684040273,
        0.03412250942153561,
        -0.7487582593454065,
        0.48801009315631294,
        0.2651260744723456,
        -0.26848632434797315,
        0.9562072616960038,
        0.3096142159840749,
        0.641293263274096
      ],
      [
        0.5395800479933741,
        -0.5281033514401181,
        0.5475714200311037,
        -0.3388250255719407,
        0.16637191519499428,
        -0.3835200483031569,
        -0.05882216895082726,
        1,
        0.6600463451645755,
        -0.19941927793226566,
        0.4504617939748416,
        -0.0012978528636409248,
        0.88229107274685,
        -0.5302635463857128,
        -0.5503378871305291,
        0.17823573414664806,
        0.7727079874125691,
        -0.302541750286071,
        -0.015618755967593989,
        0.3037503580452488,
        0.9385148615950878,
        -0.9721718734030629
      ],
      [
        -0.7009855182741429,
        0.3224849578246265,
        -0.25105271521165795,
        0.03845720890350908,
        -0.9765772066840295,
        -0.9798874269969505,
        0.9086116648886877,
        -0.1802435924129946,
        -0.5217624283767186,
        -0.0741926051128019,
        -0.8470970454462696,
        -0.11820574787515348,
        0.33682347141041924,
        -0.3595949941615455,
        0.41850113994764326,
        0.8676449712738614,
        -0.14141363740600896,
        -0.5047467545749647,
        0.722128967528282,
        -0.4867089379453806,
        0.9815674950512481,
        1
      ],
      [
        -0.8382213038714825,
        -0.26444884671879265,
        -0.8600261264378779,
        0.5877877262160989,
        0.4761829786333194,
        -0.20184281032807636,
        0.7698835596935161,
        0.0125931800888103,
        -0.5012893118847366,
        -0.6756512792326836,
        -0.2624772977630958,
        0.6018152057579136,
        0.38706004978758507,
        -0.697211993834157,
        -0.4506680659267075,
        -0.27054592098755825,
        0.21192660202885502,
        -0.6404595522659697,
        -0.8250971230499022,
        0.03478385606570966,
        0.4983700490992651,
        0.01038935545537023
      ],
      [
        -0.2588232448702786,
        0.5908011016609169,
        -0.8209343779369969,
        -0.3175872684516534,
        -0.49786422335591585,
        0.34880295853334564,
        1,
        0.5554657661268789,
        0.6568441371209077,
        0.027083225824680104,
        0.8746530809060553,
        -0.005488451692755639,
        -0.7089505790641804,
        0.46790692596823114,
        0.5238580640743216,
        0.08899591346919346,
        -0.400184938625727,
        -0.17220341816550344,
        -0.008020862031922801,
        0.720702780576262,
        0.19064189263108158,
        -0.046053643702858506
      ],
      [
        -0.19402167116970315,
        -0.21871415630799795,
        0.31996247239058473,
        -0.21183706712873485,
        -0.344857192738766,
        -0.978931187223099,
        -0.049212484913423234,
        0.049829996487876754,
        0.5353159987113985,
        0.4845023700928808,
        -0.43836396363354035,
        0.39655925256453234,
        0.037248709510061984,
        0.32023436445264686,
        -0.10920553391141871,
        -0.48849089247662314,
        -0.9377050940448877,
        0.4748737422189031,
        -0.21237770270525003,
        -0.2534192377050839,
        -0.5891444721124821,
        -0.32029062138049946
      ],
      [
        -0.47070897198115325,
        0.7741346030748266,
        -1,
        -1,
        -0.07824566564300682,
        0.3655545877093638,
        0.8067751431829004,
        0.15224665805302884,
        -0.8442138357773595,
        -0.35458154176185386,
        0.658213536059352,
        -0.965417105671357,
        0.21574057546355635,
        0.7104760776023622,
        -0.3027375328474149,
        -0.7059543825646677,
        -0.2356901082506846,
        -0.839826715963826,
        -0.6104966078904999,
        0.235945172875574,
        -0.4695092732134609,
        0.25885417977425007
      ],
      [
        -0.8574860371635487,
        -0.9330111345588255,
        0.6500035031493756,
        0.8259975456194499,
        -0.4798842235222469,
        -0.9489742846805336,
        -0.2922739023692517,
        0.3193696131472621,
        -0.2542440071898602,
        0.11297104755029061,
        0.6516071984220848,
        0.5409258951681652,
        0.2701180833085213,
        -0.6200589709493665,
        0.6599398584351192,
        -0.16087851073615145,
        -0.6387757764607453,
        -0.9698655989226086,
        0.6496804454295337,
        -1,
        0.9728786593473304,
        -0.3889604867592438
      ],
      [
        0.6681835577331764,
        0.8270253088411379,
        0.3210033326984927,
        0.5695728518489576,
        0.5742560585963983,
        0.7935792136491998,
        -0.35616986721717536,
        -0.48731347617539056,
        -0.02140958259794279,
        0.4599667873644939,
        0.5980869972532968,
        -0.4874551012732753,
        0.7336010773513733,
        0.8955774868223403,
        0.23863462768919352,
        -0.4201344399076392,
        1,
        -0.10962959468060096,
        -0.5463515978741416,
        1,
        0.0917280861701774,
        0.8615886909079264
      ],
      [
        0.45349571222161295,
        -0.03944354720904286,
        -0.25993142369577515,
        0.32283234719843334,
        0.18912575364519585,
        0.9200158792373554,
        -0.9951699317042402,
        -0.9250922620928261,
        0.8909736572410683,
        0.6213661118822422,
        -0.5549114752822928,
        -0.17449625125724832,
        -0.7591867602700089,
        0.7399814176906294,
        0.04516044965548138,
        -0.2624469283483243,
        1,
        0.42721858879204744,
        0.8213783755568047,
        -0.833069118487072,
        0.1594927068163666,
        0.21849083214236775
      ],
      [
        0.929272994285107,
        -0.1370294757038868,
        -0.0716491416160725,
        -0.05587939375799467,
        0.9708165690959443,
        -0.41836251569455696,
        -0.7969155514551418,
        -0.6737572173582478,
        0.34518587223743835,
        -0.5688158500659266,
        0.2194121280477206,
        -0.9407281512286629,
        0.419130614565306,
        -0.6757409137361672,
        -0.10700059538381197,
        -0.6210865152598541,
        0.051777652752820646,
        0.6348973802211126,
        -0.27100454304078436,
        0.6258671946512544,
        0.620714960404078,
        -0.6310272598905033
      ],
      [
        0.7565113370391293,
        0.49350301644320327,
        0.009842121945313526,
        0.7447844658991265,
        -0.6450799908196749,
        0.20308381215068927,
        0.14845373594098388,
        0.08876295716524418,
        0.8006807398822571,
        0.5907144908081808,
        -0.8204872804689542,
        0.6738599350004884,
        -1,
        0.27242803222974854,
        0.07472603404504277,
        -0.07600534743514897,
        0.1464217681034099,
        -0.6184505708609904,
        0.2396940995909833,
        0.04004851869425896,
        -0.5179895090598801,
        -0.9825251613985531
      ],
      [
        0.6513984792836214,
        -0.5961989239698144,
        0.4671461576573772,
        -0.4524541699124054,
        -0.685577080214947,
        -0.35193053367281313,
        0.7376716745871608,
        -0.7708203417413382,
        0.3223048070333687,
        -0.07077685317527904,
        0.30252434821653185,
        1,
        0.6167610609936538,
        0.5609718821006062,
        -0.17487502762438178,
        0.39254243607822925,
        -0.743593827103258,
        -0.41579261321214345,
        -0.676322544318559,
        0.6560684326598618,
        0.44932499165254125,
        0.7529081404788951
      ],
      [
        0.9800295314107825,
        -0.1908427046387413,
        0.9207185370724857,
        0.5415785107676558,
        -0.9139641204082016,
        1,
        0.4527416006924434,
        0.6816627739106846,
        -0.9143460268252008,
        -0.06251671030221373,
        -0.35574914026545756,
        0.7528119592590186,
        0.5809070891759882,
        0.4762977530707333,
        0.7070589058315051,
        0.5257850699630533,
        0.344192197806646,
        0.10410206123500854,
        -0.5560378600839601,
        -0.5470115974274403,
        0.5914985806761652,
        -0.6347990745835439
      ],
      [
        -0.4971503101946502,
        0.029329645132941895,
        -0.6386221744887004,
        0.390920573010334,
        0.1977930536617476,
        0.9319449156807167,
        0.48027559306636536,
        -0.5193495503546208,
        0.11590095096570269,
        0.11466187686154297,
        -0.6528768011104396,
        0.15297405122350016,
        -0.34381425088640105,
        -0.32492724300137765,
        0.4674809343961238,
        0.7532109623341612,
        1,
        0.6811716263437861,
        0.5757636234733752,
        -0.09820310403570454,
        -0.22560264273869013,
        0.26468966978015884
      ],
      [
        0.1633494534174608,
        -0.597848828265872,
        -0.9068520472044301,
        0.16231170707582482,
        0.34902842504031134,
        0.39909096176582565,
        -0.9517891554394509,
        -0.8235134546318532,
        0.4501058815873499,
        -0.2476228245212495,
        0.728661299368558,
        0.8807630889110787,
        -0.8468149529764137,
        -0.5478754490324489,
        -0.673628789739698,
        -0.7837936489705033,
        -0.5736203463168705,
        -0.7264042834078821,
        -1,
        0.10880891678411819,
        0.2934124270755175,
        -0.6570182492889447
      ],
      [
        0.3440538673138105,
        0.28889358222403777,
        -0.6135809568088613,
        -1,
        -0.2247151106132259,
        -0.9423894974060667,
        0.6321175866924931,
        0.20867135334559905,
        -0.6876129771171526,
        0.5508097926065265,
        -0.606751655776917,
        -1,
        0.5794612817145164,
        0.2602581784689646,
        0.7054718213209235,
        0.08241702844820262,
        -0.6503130729701363,
        -0.7904496134966157,
        -0.629017251065725,
        0.586264955614556,
        -0.5917324528878263,
        -0.717732580109961
      ],
      [
        0.5432728625444601,
        0.48931622711152767,
        -0.12963422478199993,
        -1,
        -0.1341920650936337,
        -0.4836040268761561,
        -0.7234735882274761,
        -0.055313505323652645,
        -0.44461785872190074,
        -0.6070534828817626,
        0.4050974677344805,
        -0.03505794717967759,
        0.08141516292596829,
        0.2864739675897132,
        1,
        -0.9536175265672844,
        -0.9496652647901798,
        -0.6260147747296361,
        -0.24793408403773487,
        -0.5528522384706696,
        1,
        -0.06566908433299719
      ],
      [
        -0.4190858642428663,
        0.2767295967670389,
        0.23389756848873233,
        0.02825515531677114,
        -0.6703808661787112,
        0.6557548085224254,
        0.0799319044819411,
        1,
        0.9950812643469451,
        0.7376281721845783,
        -0.238795655725609,
        0.3846752133909863,
        -1,
        -0.5656102494143176,
        -0.3455094421194295,
        -0.21876532218902706,
        0.8110838482802658,
        0.29133600564318285,
        -0.517244099585572,
        0.06645445513358528,
        0.06793713088596649,
        0.9458331374225117
      ],
      [
        -0.5087571146576624,
        0.4345828830209988,
        0.926161762547639,
        0.33594047207651023,
        -0.7996053652082171,
        0.7583267777378058,
        0.852408060211077,
        0.22256885183501574,
        -0.2576009742108192,
        0.09460181006843271,
        0.031238717856412412,
        0.39800296540643676,
        0.307785544263246,
        -0.6968735083544337,
        -0.013301327260793583,
        -0.3915811876385975,
        -0.737437155207141,
        1,
        0.8137582685162152,
        0.8138727868097737,
        0.9467680980601048,
        0.6956315990244394
      ],
      [
        0.4903818843138328,
        0.3924756233773252,
        0.3080745655948109,
        0.13577776927657004,
        0.5324725594800563,
        -0.20709035118650743,
        -0.5948802098935657,
        0.4615689159398333,
        -0.6388478184842488,
        0.7906386409678137,
        -0.4016470015485136,
        0.002548101359691009,
        0.06021963138010728,
        -0.7199013577699485,
        -0.10050487541098585,
        0.7835981408331063,
        -1,
        0.39261598335201864,
        0.9098369959323601,
        0.05052063510831628,
        -0.2440392659420747,
        0.7814024967062665
      ],
      [
        0.3267232046544195,
        -0.5052512112825298,
        0.6248310314198959,
        0.0822869044870096,
        -0.778517917118478,
        -0.08154057810577942,
        -0.7176433023243654,
        -0.008282610050557304,
        0.5570290928780393,
        0.9778379662281067,
        -0.030974982445465926,
        0.9020502355976312,
        -0.27780569995398086,
        -0.1118552799511261,
        0.5919867810170973,
        0.9700472930367758,
        -0.25703840953292456,
        -0.18431414556156556,
        0.4859577209866861,
        -0.36765165233702635,
        0.03133412414488598,
        0.9882853075892399
      ],
      [
        -0.15898069203179976,
        0.8496717920339634,
        -1,
        1,
        0.016706090857094402,
        -0.11100447580364603,
        -0.8156080551380189,
        0.7998226932975185,
        -0.22177637957025675,
        0.3245218529935656,
        -0.002808229514029037,
        -0.9918219598141773,
        0.8834262407364557,
        -0.46079895072504873,
        0.13512665132440205,
        0.12535912754552792,
        0.5056396216412027,
        0.6533194241436477,
        0.5883514909001826,
        0.6551326505765045,
        -0.3678290260270824,
        0.16999245147575714
      ],
      [
        -0.10483273401309656,
        -0.041481080855870545,
        -0.98072599877179,
        -0.6187470054885778,
        -0.7822923335633609,
        0.6748239703612823,
        -0.24884619940342145,
        0.5586759248289854,
        -0.44644397921004275,
        -0.43366535877853507,
        -1,
        -0.06635151693548784,
        0.4024731903665715,
        0.9854859393231012,
        -0.3875036517121908,
        -0.8417795564734836,
        -0.7506060810678115,
        -0.6019019277598685,
        -0.6737179541620832,
        -0.6278724760879015,
        0.5456803954817913,
        0.9599605076260829
      ],
      [
        0.47270591681907215,
        -0.5339057159057561,
        -0.7630383974989614,
        -0.03335214207526299,
        -0.27337093580655397,
        0.4662432419261047,
        -0.493163272219751,
        -0.5486449285647967,
        0.14084992702592938,
        -0.9030333888375615,
        0.28033260295865675,
        -0.5900263226806259,
        0.754134842774355,
        0.2325356401752745,
        0.8635911708705559,
        0.6745051105078431,
        -0.38777766948609194,
        -0.44404845004255855,
        -0.0012516219477176497,
        -0.7606095710479319,
        -0.834777840044564,
        -0.37843063573153923
      ],
      [
        0.07073124501300164,
        0.029759618447379402,
        -0.5504444320698932,
        0.5054712818586358,
        -0.7191425368782902,
        0.4365564740652692,
        -0.8142798805924518,
        -0.1590017955200099,
        -0.8117947537133352,
        -0.5281074107201191,
        0.6473702819942608,
        -0.4898945655936984,
        -0.9871066365408006,
        -0.04274260213320775,
        -0.9886082163846355,
        0.07228291801066566,
        0.11750820081770819,
        -0.8800284455535944,
        -0.04727421293710665,
        0.7824817509810431,
        0.2900532207889992,
        0.16813401643885828
      ],
      [
        -0.5629589771423094,
        -0.20639883009953408,
        -0.32464314233839175,
        -1,
        -0.129078657297647,
        0.6060990660349512,
        0.9294412967891104,
        0.8763469513499336,
        -0.6880429150028295,
        0.8266445370265822,
        -0.07554362470136922,
        0.2274708895308326,
        -0.23773829410744218,
        -0.005574050107557203,
        -0.0812649442513311,
        0.7172212519286072,
        -0.3952536488694196,
        -0.34054521825608597,
        -0.04202376351233993,
        0.5043490431186657,
        0.8032454940138378,
        -0.5464415084523082
      ],
      [
        -0.7488171963905037,
        0.26803272320280347,
        -0.35426669296791613,
        -0.35230199666300754,
        0.3661945883586939,
        0.27387669676457094,
        0.3540330472608648,
        0.3110345643852577,
        -0.6066342192706398,
        -1,
        1,
        -0.6523268574626049,
        -0.6530078075663179,
        0.2797916312504187,
        -0.044127060446468705,
        -0.5325098102782335,
        -0.4160176682152861,
        0.6364005061013316,
        0.9857003138223277,
        -0.3176736150802686,
        0.8810762841090505,
        -0.09761026919072102
      ],
      [
        0.6669995127889787,
        -0.03528423441198016,
        -0.8930163417612642,
        0.2843441320998339,
        0.9566727969538069,
        -0.894735140901747,
        0.8128665609752654,
        -0.1539136603718363,
        -0.01622888558242397,
        0.7342165777663898,
        -0.8352049040763292,
        0.8646527590538347,
        -0.3962689945665563,
        0.4870015216447774,
        -0.7838507305370477,
        -0.2997297858480994,
        0.8209510602587218,
        -0.96338009268057,
        0.3324564583521523,
        -1,
        -0.32645117051423256,
        -0.8375359419213275
      ]
    ]
  ],
  "generation": 4
}