{
  "neurons": [
    [
      0.5,
      0.6,
      0.6,
      0.9,
      3.16371e-07,
      0.000712,
      0,
      0,
      0,
      1.0,
      0.546448087431694
    ],
    [
      0.8353343714607298,
      0,
      1.0857973819212767,
      0.7328138807820193,
      2.2933473563180056,
      0.20846805862717566,
      0.25363568997234043,
      0.33707555324732136,
      0.14248467025115266,
      0,
      0,
      0.2085362694047037,
      0,
      0.32318450325216047,
      0,
      1.170846241500987,
      0.2838945364022076,
      0,
      0,
      1.5257247113491208,
      0,
      0
    ],
    [
      0,
      1.0481040881414216,
      2.524065737076179,
      4.605114753802475,
      3.87666365829128,
      1.3254925779331534,
      0,
      0.18636051118682348,
      0,
      0,
      0,
      0,
      3.441732194676163,
      1.7354502045602747,
      1.9648250200687356,
      0.9101844591149735,
      0.9476264670447359,
      0,
      0,
      0,
      0.8342839251785896,
      0,
      0,
      4.288897464243203,
      2.1995259488657473,
      0.37714632083674776,
      1.3274535516740105,
      0,
      0,
      0,
      3.1345766445148073,
      0,
      0.03043119345985157
    ]
  ],
  "bias": [
    [
      0.0,
      0.0,
      0.0,
      0.0,
      -0.0,
      -0.0,
      0.0,
      0.0,
      -0.0,
      0.0,
      0.3499273218347392,
      0.0,
      0.0,
      0.0,
      0.0,
      0.0,
      0.0,
      0.0,
      0.0,
      0.0,
      0.0,
      0.0
    ],
    [
      -0.0,
      -0.0,
      -0.0,
      0.0,
      0.0,
      -0.0,
      0.0,
      0.0,
      0.0,
      0.0,
      0.0,
      -0.0,
      0.0,
      1,
      0.0,
      -0.0,
      0.0,
      0.0,
      0.0,
      -0.0,
      0.0,
      -0.0,
      0.0,
      0.0,
      0.0,
      0.0,
      0.0,
      0.0,
      0.0,
      0.0,
      0.0,
      0.0,
      0.0
    ]
  ],
  "weights": [
    [
      [
        -0.33477220624390225,
        0.48408604054619775,
        -0.0004536708667663968,
        1,
        -0.7424221882119043,
        -0.45246050068366317,
        -0.08420365586942591,
        0.16382497944981414,
        -0.2182238944652859,
        -0.6534045765082521,
        0.8532704693543185
      ],
      [
        -0.6522125805954063,
        0.7745660823567522,
        -0.2916034279800499,
        0.5051028668890523,
        0.5690828490382674,
        -0.9892001958752823,
        -0.30925371479550134,
        -0.13690116950807973,
        0.3414968223991208,
        -0.6693891701475152,
        -0.18342604701044873
      ],
      [
        0.22681598423703508,
        0.4408948012673001,
        0.34440199926846465,
        0.4817033360668128,
        -0.9698918000459213,
        -0.7736225911927934,
        0.4809944700788298,
        -0.45657460219994994,
        0.16156516561317807,
        -0.10480823406808595,
        0.3166589310122754
      ],
      [
        0.007893284577963204,
        0.00484021517742218,
        -0.28442079252517516,
        0.03580581082547318,
        0.04622940596144365,
        0.21555231569066868,
        0.9673629004445017,
        -0.543765498324364,
        -0.4115496926326128,
        1,
        -0.24844653286964247
      ],
      [
        -0.36799697222943073,
        0.509466249782671,
        0.7942474827059018,
        0.9149391318983902,
        0.006571793590613295,
        -0.6223830273319971,
        0.008277735846973753,
        -0.41300281068594596,
        0.196800337689375,
        0.7341133666376858,
        0.2525439385803072
      ],
      [
        -0.4941667695228787,
        -0.03130662440371701,
        -0.6887672415596979,
        0.32155338067513883,
        -0.5191856629532478,
        0.4963833403432789,
        0.6521091045486365,
        0.04333212858561505,
        0.07466818716653534,
        0.6562138098615753,
        -0.10681591083959918
      ],
      [
        -0.6536723894340524,
        -0.33624098158052584,
        0.5881843933598865,
        0.3092221158546421,
        -0.9996387209746906,
        -0.7943159056836777,
        0.04623008550156372,
        0.5186376190648515,
        0.8092810926018523,
        0.6125876685814882,
        -0.8436590348666819
      ],
      [
        -0.10003213652711865,
        0.5551065124762852,
        -1,
        0.7889504885009525,
        0.10952614929603681,
        -0.7065721546382682,
        0.12461589921964829,
        -0.012482725869482222,
        -0.6124454721424188,
        -0.05565410646526159,
        0.00023684877977570018
      ],
      [
        0.5586853808443344,
        -0.03587332228119977,
        -0.4875753240882086,
        -0.2207059000348397,
        -0.03376012987218591,
        -0.5608917070961552,
        -1,
        -0.23327000639980855,
        -0.5698530434609277,
        0.32019637116959676,
        0.10257053392207932
      ],
      [
        -0.1572088535179564,
        0.1707936848755663,
        -0.05801218251973295,
        0.18776480491268943,
        0.3070517064114405,
        0.2644156919359191,
        -0.23513478722094594,
        -0.0802945807646942,
        -0.13311495990769906,
        -0.5167752264598662,
        -0.3771012308925792
      ],
      [
        0.865959231030762,
        -0.07993661501505861,
        -0.12998623431840828,
        -0.8372370295561289,
        -1,
        0.2356314568274101,
        -0.2747894975642473,
        -0.4259914339909998,
        -0.3337653074604755,
        0.0019596964142012214,
        -0.000511552070320925
      ],
      [
        0.5546752537451881,
        0.7422814437390237,
        0.5773082878836782,
        -0.22117657022613413,
        0.8165923260458865,
        0.8203273678392279,
        0.5084050117289391,
        0.7759720380102939,
        -0.46213226053447043,
        -0.35471124222175693,
        -0.5624859515803271
      ],
      [
        -0.03934836334130475,
        -0.12807380325462064,
        -0.8233386394706386,
        -0.610264640771756,
        0.3529605634177549,
        0.6940444106125454,
        -0.5124147174559657,
        0.18252252761002494,
        -0.3383999430651283,
        0.8498917935705506,
        0.24828444698124597
      ],
      [
        0.02213768597566102,
        0.36419147783061634,
        -0.8933881693669352,
        0.43085370507418713,
        0.9350696759499748,
        -0.9582530204444201,
        0.5372735231588948,
        -0.08020159086100034,
        -1,
        -0.3039007664907132,
        1
      ],
      [
        -0.7185314682829886,
        -1,
        0.1398679254754498,
        -0.13911212995759728,
        0.12026270605739652,
        0.5499136357181433,
        -0.040289552638331214,
        -0.21073550275797587,
        1,
        0.07571399897001395,
        -0.48275691526907183
      ],
      [
        -0.6836170047868477,
        1,
        0.8414336320816256,
        0.20862351611378543,
        -0.045232619316368836,
        1,
        0.11660154147424162,
        -0.8627957534794464,
        -0.46341241417452106,
        0.1498864061901259,
        0.12706606512164104
      ],
      [
        -0.856960651629094,
        0.02484881401725472,
        0.28865542873685146,
        -0.21347390642163955,
        -0.7870753476399517,
        -0.5263753237787335,
        0.1883838451858182,
        0.07446166225716987,
        -0.33317682457163245,
        0.31024050626395483,
        0.743956038402227
      ],
      [
        0.5280558964631246,
        -0.051369953655517005,
        0.2893666733584084,
        0.18959423556166732,
        0.8631248980672381,
        0.32317752318571424,
        -1,
        0.19280486164560873,
        -0.3515425590000494,
        -0.5009197037905846,
        -0.9455969407674396
      ],
      [
        0.8419433165265195,
        -0.2449799165287001,
        -0.0015767998293189423,
        -0.2516697479710064,
        -0.004463880882849007,
        0.028099821467322962,
        -0.6222292659474733,
        0.5050827285411804,
        0.20424228248559384,
        -0.18116683628822047,
        -0.5642229903160743
      ],
      [
        -0.3000153891158315,
        0.38200876246267246,
        0.9181153969078997,
        0.6872886683275616,
        -0.48771537872988624,
        0.38356984278996237,
        0.6294628439446865,
        -0.6736791861279696,
        0.4905367644149905,
        0.7360631166416662,
        -0.840405458163942
      ],
      [
        -0.020501991226383343,
        -0.3448062020299174,
        0.12314316953947535,
        0.4295502579492821,
        -0.8203483221865526,
        -0.6427130513367347,
        0.222665301897776,
        0.2866362043711652,
        0.2909364192686484,
        0.015205206964278073,
        -0.6531497518964324
      ],
      [
        0.04713305429879526,
        0.696024412136295,
        0.2485703903552059,
        -0.5983807057578848,
        1,
        0.433572651088884,
        -0.821060327703707,
        -0.02342543000820652,
        0.08716370678573648,
        -0.07268692940806883,
        -0.45969316969508545
      ]
    ],
    [
      [
        -0.5829453845961761,
        -0.10493239481199021,
        0.014367406806691019,
        -0.42176775141181233,
        -0.13621077326657824,
        -0.8050105603894424,
        0.8371902465446321,
        -0.7332430551704605,
        -0.7881677066468511,
        0.11335126834583265,
        -0.022159758411248287,
        0.6550541095241886,
        -0.46022967558393635,
        -0.32421705209388496,
        0.04312033283906258,
        0.9671099956183802,
        -0.12809383348062608,
        0.8450589277011151,
        0.00023026272122694068,
        0.028894574746675814,
        0.41418880295180743,
        -0.1767152537946247
      ],
      [
        0.5975805349573418,
        -0.34316600073766784,
        -0.43689169000111283,
        0.5825746444759767,
        0.2960693228519522,
        0.768736924669774,
        -0.2855709023711422,
        0.6772402848328024,
        -0.8386493712570253,
        -0.46686153825295884,
        0.2713380707220583,
        -1,
        1,
        0.2828591556529057,
        0.38179945400703735,
        -0.46736643149989093,
        0.3235277946319859,
        -0.3792280260098779,
        0.007088222301285212,
        0.19221438692303405,
        -0.007342446351058296,
        -0.8366337898354479
      ],
      [
        -0.1895497646679276,
        0.029974533128676133,
        0.04886262333027854,
        0.24349097682115328,
        0.9529920939597114,
        0.6419645394711254,
        0.8942946263881377,
        -0.7078645141298797,
        -0.7812372327903061,
        -0.19871521378464463,
        -0.04978066186230112,
        -0.22201837983237607,
        -0.5381739768118909,
        0.8509395486228918,
        -0.3659658896995932,
        -0.07702145690691618,
        -0.5334035776216282,
        -0.003900584456737977,
        0.7696168706261788,
        0.1753500245734234,
        0.21190187795347945,
        -0.3158959987372058
      ],
      [
        1,
        0.6733145572935268,
        0.414524697502948,
        0.3796194575000106,
        0.88792460869683,
        0.0006106841636870875,
        0.015488608496221959,
        0.03193285837216949,
        1,
        0.34709209315346534,
        -0.8656726783837627,
        -0.176948683915444,
        0.7375256999921185,
        0.12259530125269125,
        -0.8255679476425042,
        0.6415378282537645,
        -0.89611676617399,
        0.3276746491491358,
        -0.8885536710765956,
        0.22836110224386505,
        -0.04630446662260423,
        1
      ],
      [
        -0.08404565335538128,
        0.055766930413607065,
        0.33221185102306916,
        0.21431734892617538,
        0.7345081279038436,
        -0.9108854982986714,
        0.24509412843001122,
        -0.0973059892127985,
        0.9966503250788281,
        0.9391942469956807,
        0.5617471424190674,
        -0.9064700456878548,
        -0.004812204291668491,
        0.09413824818177999,
        -0.8737028257752955,
        0.49818448590562436,
        -0.4243213414852988,
        0.2651260744723456,
        0.10992487991256034,
        0.9562072616960038,
        0.5849611049927976,
        0.641293263274096
      ],
      [
        0.09772131311182833,
        -0.5281033514401181,
        0.5475714200311037,
        -0.3388250255719407,
        0.2853414184328459,
        -0.3835200483031569,
        -0.05882216895082726,
        1,
        0.6600463451645755,
        -0.19941927793226566,
        0.4504617939748416,
        -0.0012978528636409248,
        0.88229107274685,
        -0.2170224670273848,
        -0.5503378871305291,
        0.17823573414664806,
        0.7727079874125691,
        -0.302541750286071,
        -0.027858191033172823,
        -0.29538522633889264,
        0.9385148615950878,
        -0.9721718734030629
      ],
      [
        -1,
        0.4473801831968878,
        -0.5274656598522918,
        0.004539637757744849,
        -0.9765772066840295,
        -0.230322482447221,
        -0.2463328320343745,
        0.014454391594393228,
        -0.5217624283767186,
        -0.053703616382461045,
        -0.8470970454462696,
        -0.11820574787515348,
        -0.45013796772991743,
        -0.3595949941615455,
        0.5748086698379281,
        -0.27860347669456664,
        -0.09674059837986815,
        -0.5047467545749647,
        0.8883216846907458,
        -0.06351928603545123,
        0.9815674950512481,
        1
      ],
      [
        -0.8382213038714825,
        -0.26444884671879265,
        -0.8600261264378779,
        0.5877877262160989,
        0.6635820968465641,
        0.2887565153271088,
        0.7698835596935161,
        -1,
        -0.5012893118847366,
        0.12952013914551633,
        0.4264160974320994,
        0.6018152057579136,
        0.38706004978758507,
        -0.697211993834157,
        -0.4506680659267075,
        0.0063492536627861125,
        0.21192660202885502,
        0.6183201752768293,
        0.029116555403526846,
        0.03478385606570966,
        0.414855680377804,
        0.01038935545537023
      ],
      [
        -0.28932491162440144,
        -1,
        -0.8209343779369969,
        -0.3175872684516534,
        -0.49786422335591585,
        0.7127011409321814,
        1,
        0.5554657661268789,
        0.6568441371209077,
        0.01907812434757055,
        0.8746530809060553,
        -0.3006198616905973,
        -0.5026846340268925,
        0.5650333678638159,
        0.8521664245840856,
        0.17017307511192004,
        0.0035455950636390115,
        -0.15988688124434614,
        0.6856604118348313,
        0.720702780576262,
        0.2805896138681809,
        -0.06885226141078353
      ],
      [
        0.24356096975026875,
        -0.09906582189854865,
        0.31996247239058473,
        -0.40394332367047603,
        0.32266620873482593,
        -0.978931187223099,
        -0.049212484913423234,
        -0.060572536513314665,
        0.5353159987113985,
        0.4845023700928808,
        -0.43836396363354035,
        0.6444572770851084,
        0.037248709510061984,
        0.32023436445264686,
        0.1710028645748299,
        -0.48849089247662314,
        -0.9377050940448877,
        0.4748737422189031,
        0.24301709008861513,
        -0.2941982668970988,
        -0.5891444721124821,
        -0.32029062138049946
      ],
      [
        -0.47070897198115325,
        0.7741346030748266,
        -1,
        0.07745205740390777,
        -0.07824566564300682,
        0.3655545877093638,
        0.8067751431829004,
        0.09664362754702105,
        -0.9809809500582473,
        -0.35458154176185386,
        0.658213536059352,
        -0.965417105671357,
        0.21574057546355635,
        0.7104760776023622,
        0.1229827614695696,
        -1,
        -0.2356901082506846,
        1,
        -0.6104966078904999,
        -0.04303814169381676,
        -0.4695092732134609,
        0.034126359994140265
      ],
      [
        -0.8574860371635487,
        -0.9330111345588255,
        0.6500035031493756,
        0.6199995290349403,
        0.7802408958595933,
        -0.9489742846805336,
        -0.2922739023692517,
        -0.028515998094489126,
        -0.2542440071898602,
        -0.13319477869440552,
        0.6516071984220848,
        -0.16991619395967086,
        -0.19646176179771044,
        -0.5573973270470152,
        0.6599398584351192,
        -0.16087851073615145,
        -0.8537708655853041,
        -0.9698655989226086,
        -0.649636322996967,
        -1,
        0.4384244950624901,
        -0.22582261498710202
      ],
      [
        -0.09587860675322127,
        -0.01558744865445294,
        0.3210033326984927,
        0.5695728518489576,
        0.5742560585963983,
        0.7935792136491998,
        0.1663329462159431,
        -0.48731347617539056,
        -0.02140958259794279,
        -0.5665626042990016,
        0.5980869972532968,
        -1,
        1,
        0.8955774868223403,
        0.23863462768919352,
        -0.4201344399076392,
        1,
        -0.10962959468060096,
        -0.5753291937034111,
        1,
        -0.17697395417219927,
        0.8615886909079264
      ],
      [
        0.45349571222161295,
        -0.03944354720904286,
        -0.25993142369577515,
        -0.21790579275058125,
        0.32429172001533496,
        -0.3970461592745051,
        -0.9951699317042402,
        -0.0768508463075741,
        0.013335966359468166,
        0.6475515232352023,
        -0.5549114752822928,
        0.14615658434116555,
        1,
        0.7399814176906294,
        0.04516044965548138,
        -0.2624469283483243,
        1,
        0.42721858879204744,
        0.6084225336271398,
        0.10996790595409889,
        0.1594927068163666,
        0.21849083214236775
      ],
      [
        0.9097082720996847,
        -0.2513996452907378,
        -0.0716491416160725,
        -0.06905887630444374,
        0.7023045680817389,
        -0.6747500757513989,
        -0.7969155514551418,
        -0.6737572173582478,
        0.34518587223743835,
        0.2332619485475953,
        -0.2252549619998437,
        1,
        -0.5418337148181986,
        -0.6757409137361672,
        -0.10700059538381197,
        -0.6210865152598541,
        0.09000457236256783,
        0.21968526557290866,
        0.9665624895005134,
        0.6258671946512544,
        0.620714960404078,
        -0.28387501917312474
      ],
      [
        1,
        0.5439781149661378,
        0.009842121945313526,
        0.6240189453317501,
        -0.1385925395122863,
        0.13317935616304094,
        -0.14643136723170644,
        0.47820719140139223,
        -0.21731186005167213,
        0.41372230472664845,
        -0.8204872804689542,
        -1,
        -0.6149410614369839,
        -0.003965688821088699,
        0.07472603404504277,
        -0.07600534743514897,
        0.1464217681034099,
        -0.6184505708609904,
        -0.047248473331553194,
        0.04004851869425896,
        -0.5179895090598801,
        -0.9825251613985531
      ],
      [
        0.6513984792836214,
        0.47327111290198265,
        1,
        0.3581126805777448,
        -1,
        0.6339563501195079,
        0.7376716745871608,
        -0.7708203417413382,
        0.3223048070333687,
        -0.07077685317527904,
        0.30252434821653185,
        0.21470216433304556,
        0.6167610609936538,
        1,
        -0.17487502762438178,
        -0.27873049840250547,
        0.7068318099793112,
        -0.41579261321214345,
        -1,
        0.6560684326598618,
        0.44932499165254125,
        0.7529081404788951
      ],
      [
        0.9800295314107825,
        0.04522437227952407,
        -1,
        0.8742314733510493,
        -0.8934969197951539,
        -0.8027668445860257,
        0.4885678323557712,
        -0.9815729787816379,
        -0.9143460268252008,
        0.059893681268521425,
        -0.35574914026545756,
        -0.16612758804499228,
        0.015761115946905546,
        0.4762977530707333,
        0.02164240137397222,
        0.5257850699630533,
        -0.6264750526554299,
        0.10410206123500854,
        -0.6316478190581261,
        -0.5470115974274403,
        0.5773806949051156,
        0.2759993117790149
      ],
      [
        -0.4971503101946502,
        0.029329645132941895,
        -0.6386221744887004,
        0.390920573010334,
        0.1977930536617476,
        1,
        -0.08728483237199808,
        -0.5193495503546208,
        0.11590095096570269,
        0.11466187686154297,
        -0.6528768011104396,
        0.15297405122350016,
        0.5037624532122591,
        -0.32492724300137765,
        0.28092816560345657,
        -0.9996400691315873,
        1,
        0.06910819761816867,
        0.9939374530172376,
        -0.03964828658725738,
        0.03702008687460893,
        0.26468966978015884
      ],
      [
        -0.3071306032972463,
        -0.597848828265872,
        -0.9068520472044301,
        0.04071925179989524,
        0.34902842504031134,
        0.3160147248914554,
        -0.9517891554394509,
        -0.8235134546318532,
        0.4501058815873499,
        0.44401040136550485,
        0.4055553394932068,
        -0.04394867755707891,
        -0.19756023980094797,
        0.31401056086090834,
        -0.417563528145581,
        0.6444888364097372,
        -0.5736203463168705,
        -0.5437769090076937,
        -1,
        -0.017582782227046113,
        0.2934124270755175,
        -1
      ],
      [
        0.430371635023477,
        0.28889358222403777,
        -0.00920166004961997,
        1,
        -0.2247151106132259,
        -1,
        0.6321175866924931,
        -0.11199427677072857,
        -0.6876129771171526,
        0.5508097926065265,
        -0.606751655776917,
        -1,
        -0.5555326171014094,
        -0.14658408431882872,
        0.7054718213209235,
        0.08241702844820262,
        -1,
        -1,
        -0.629017251065725,
        0.586264955614556,
        -0.5917324528878263,
        -0.717732580109961
      ],
      [
        0.5432728625444601,
        0.48931622711152767,
        -0.1357666879833315,
        -1,
        -0.1341920650936337,
        -0.4836040268761561,
        -0.7234735882274761,
        0.006654913184184994,
        -0.44461785872190074,
        -0.40671022115711164,
        0.03083515689052824,
        -0.03505794717967759,
        0.08141516292596829,
        0.11628837512028722,
        1,
        -0.9536175265672844,
        0.586715606164566,
        -1,
        -0.24793408403773487,
        -0.5528522384706696,
        1,
        -0.033621869883252796
      ],
      [
        -0.4190858642428663,
        0.5163819844606767,
        0.23389756848873233,
        -0.023681195521059097,
        -0.6703808661787112,
        -1,
        0.0799319044819411,
        1,
        0.9950812643469451,
        0.21659267529171422,
        -0.238795655725609,
        0.5569424799500206,
        0.9401115627515798,
        1,
        -0.6485767883127129,
        -0.21876532218902706,
        0.8626273694567494,
        0.29133600564318285,
        0.45167435099868264,
        0.06645445513358528,
        0.05755230759033339,
        0.3674352396490108
      ],
      [
        -0.5087571146576624,
        0.4345828830209988,
        0.926161762547639,
        0.33594047207651023,
        1,
        -0.19488309138744206,
        0.852408060211077,
        0.22256885183501574,
        -0.1675750372142673,
        0.09460181006843271,
        0.044680186259987556,
        0.39800296540643676,
        0.307785544263246,
        -0.030117757378786456,
        -0.013301327260793583,
        -0.13977001936176162,
        -0.737437155207141,
        0.8587933835100907,
        0.8137582685162152,
        0.8138727868097737,
        0.9467680980601048,
        1
      ],
      [
        0.4903818843138328,
        0.3924756233773252,
        0.3080745655948109,
        0.13577776927657004,
        0.40863758247817356,
        -0.20709035118650743,
        0.06440712872050582,
        0.4615689159398333,
        -0.6388478184842488,
        0.7906386409678137,
        0.43998446345345144,
        0.002548101359691009,
        0.5433868540725295,
        -0.7199013577699485,
        0.0752521940766064,
        0.7835981408331063,
        -1,
        -0.639020572019374,
        1,
        -0.0133915475320802,
        -0.04438117437790544,
        0.7814024967062665
      ],
      [
        0.13511220114299122,
        0.5255938866639032,
        0.6248310314198959,
        0.0822869044870096,
        -1,
        0.0433239333199049,
        1,
        -0.008282610050557304,
        0.5570290928780393,
        0.9778379662281067,
        -0.030974982445465926,
        0.04910016733878334,
        -0.06545365768079739,
        -0.1118552799511261,
        0.5919867810170973,
        0.9700472930367758,
        -0.25703840953292456,
        -0.18431414556156556,
        0.4859577209866861,
        0.2901910398491564,
        -0.025885577053124553,
        0.9882853075892399
      ],
      [
        -0.062133089343929346,
        0.8496717920339634,
        -1,
        1,
        0.016706090857094402,
        -0.11100447580364603,
        -0.8156080551380189,
        0.7998226932975185,
        0.50329909454469,
        -0.16361717410303256,
        -0.7123811478144575,
        -0.40474980797025717,
        0.22387063074784558,
        -0.46079895072504873,
        0.13512665132440205,
        0.12535912754552792,
        0.5056396216412027,
        0.6533194241436477,
        0.5883514909001826,
        1,
        1,
        0.16999245147575714
      ],
      [
        0.03388781906644668,
        -0.039246491586204704,
        -0.98072599877179,
        0.20679423219376616,
        0.039402122065266325,
        0.3375866099737599,
        -0.3826732705259618,
        0.5586759248289854,
        0.6222373227896493,
        0.10013988938331417,
        -0.26462578222936584,
        -0.06635151693548784,
        0.4024731903665715,
        0.9854859393231012,
        -0.3875036517121908,
        0.2554198356359516,
        -0.3258728681651878,
        -0.6019019277598685,
        -0.6737179541620832,
        -1,
        0.4067981955257005,
        0.9599605076260829
      ],
      [
        1,
        -0.5339057159057561,
        -0.7630383974989614,
        -0.03335214207526299,
        0.1957458802844192,
        -0.7041375888318452,
        -0.493163272219751,
        -0.5486449285647967,
        0.14084992702592938,
        -0.6251915243162149,
        0.002427556944480167,
        -0.5900263226806259,
        0.754134842774355,
        0.2325356401752745,
        0.8635911708705559,
        -1,
        0.003248953834380436,
        -0.44404845004255855,
        0.0020058447743459286,
        -0.6688135101440754,
        -0.834777840044564,
        -0.37843063573153923
      ],
      [
        0.07073124501300164,
        -0.03544915262887709,
        0.373774631614603,
        0.5054712818586358,
        -0.7191425368782902,
        0.4365564740652692,
        -0.5158630787619904,
        -0.1590017955200099,
        -0.8117947537133352,
        -0.5281074107201191,
        -0.20794721993364426,
        -0.4898945655936984,
        -0.9871066365408006,
        -0.04274260213320775,
        -1,
        0.09108423434948847,
        -0.8485389076766132,
        -0.511009713179621,
        -0.009145153674825789,
        0.7824817509810431,
        -0.17985232544143318,
        0.16813401643885828
      ],
      [
        -0.3348636699836649,
        -0.20639883009953408,
        0.14112740037588123,
        -1,
        0.8032478989611211,
        0.6776003946974404,
        0.04964692111593793,
        0.8763469513499336,
        -0.6880429150028295,
        -0.26175269167132753,
        -0.010203361353759547,
        0.2274708895308326,
        0.01219736261263999,
        -0.005574050107557203,
        -0.020950135861584646,
        0.7172212519286072,
        0.5130550523274747,
        0.9435740216527235,
        -0.04202376351233993,
        0.5043490431186657,
        0.8032454940138378,
        -1
      ],
      [
        -0.7488171963905037,
        0.44566514536023266,
        0.12364420158882042,
        -0.35230199666300754,
        0.3661945883586939,
        0.7760733585937991,
        -0.1931021814548182,
        0.3110345643852577,
        -0.6066342192706398,
        -1,
        1,
        0.8890017851708727,
        -0.6530078075663179,
        -0.4378515508760003,
        -0.044127060446468705,
        -0.5325098102782335,
        0.6305007621479646,
        0.9178797912389071,
        1,
        -0.3176736150802686,
        -1,
        -0.09761026919072102
      ],
      [
        0.6669995127889787,
        0.06378620667059619,
        -0.8930163417612642,
        0.15406206065453762,
        0.9566727969538069,
        0.2916687487951562,
        -0.016873832390208624,
        0.1719229111856649,
        -0.01622888558242397,
        -0.2461064346236408,
        -1,
        0.8646527590538347,
        -0.3962689945665563,
        0.012684271086310256,
        -0.07643725413693137,
        -0.2997297858480994,
        -1,
        -0.96338009268057,
        -0.02428053681378899,
        -1,
        -0.24927174738059946,
        -0.8375359419213275
      ]
    ]
  ],
  "generation": 27
}