{
  "neurons": [
    [
      0.7,
      0.6,
      0.6,
      0.3,
      1.45826e-07,
      0.000496,
      1,
      0,
      0,
      1.0,
      0.546448087431694
    ],
    [
      0.08427413242706333,
      0.9118796732206188,
      0.8840122659808424,
      2.1819679829844674,
      1.6791966521931765,
      0.5732749948789775,
      0.9339460840360858,
      0,
      0,
      0,
      0.9267752262587027,
      0.4673616029881049,
      0.3459810487053365,
      0.5120989093323463,
      0,
      1.1829828863104868,
      0.42721240452427545,
      0,
      0,
      1.8959752992563343,
      0,
      0
    ],
    [
      0.13553616277121694,
      1.1586907907239485,
      3.3305656452705463,
      3.6408649603241563,
      2.4897522333023976,
      0,
      0,
      2.3152898161475384,
      0,
      0,
      0.10021966386516919,
      0,
      5.387847518138667,
      0,
      1.7210559039320728,
      0.17870045724448091,
      2.991793984719592,
      0,
      0,
      0,
      2.99961885714505,
      0,
      0.01682351742607638,
      5.611002472738539,
      2.2981165987038192,
      2.060712736087328,
      2.9117795461169615,
      0,
      0,
      0.7445165487579072,
      1.6320870257868463,
      0.056610482502312376,
      0
    ]
  ],
  "bias": [
    [
      0.0,
      0.0,
      0.0,
      0.0,
      -0.0,
      -0.0,
      0.0,
      0.0,
      -0.0,
      0.0,
      0.3499273218347392,
      0.0,
      0.0,
      0.0,
      0.0,
      0.0,
      0.0,
      0.0,
      0.0,
      0.0,
      0.0,
      0.0
    ],
    [
      -0.0,
      -0.0,
      -0.0,
      0.0,
      0.0,
      -0.0,
      0.0,
      0.0,
      0.0,
      0.0,
      0.0,
      -0.0,
      0.0,
      1,
      0.0,
      -0.0,
      0.0,
      0.0,
      0.0,
      -0.0,
      0.0,
      0.0,
      0.0,
      0.0,
      0.0,
      0.0,
      0.0,
      0.0,
      0.0,
      0.0,
      0.0,
      0.0,
      0.0
    ]
  ],
  "weights": [
    [
      [
        -0.33477220624390225,
        0.48408604054619775,
        -0.0004536708667663968,
        1,
        -0.7424221882119043,
        -0.45246050068366317,
        -0.08420365586942591,
        -0.2318061581647802,
        -0.2182238944652859,
        -0.6534045765082521,
        0.8532704693543185
      ],
      [
        -0.6522125805954063,
        0.7745660823567522,
        0.5214212149401918,
        0.5051028668890523,
        -0.1464864458631201,
        -0.9892001958752823,
        -0.30925371479550134,
        0.03830717704575513,
        0.3414968223991208,
        0.8248876019627371,
        -0.13878350580833126
      ],
      [
        0.22681598423703508,
        0.4408948012673001,
        0.34440199926846465,
        0.4817033360668128,
        -0.9698918000459213,
        -0.7736225911927934,
        0.4809944700788298,
        -0.45657460219994994,
        0.16156516561317807,
        -0.10480823406808595,
        -0.4872381988708794
      ],
      [
        0.007893284577963204,
        0.00484021517742218,
        0.5518168716781935,
        0.03580581082547318,
        0.04622940596144365,
        0.21555231569066868,
        0.9673629004445017,
        -0.543765498324364,
        -0.40970177243090444,
        1,
        -0.24844653286964247
      ],
      [
        -0.36799697222943073,
        0.509466249782671,
        0.7942474827059018,
        0.9149391318983902,
        0.006571793590613295,
        -0.6223830273319971,
        0.008277735846973753,
        -0.41300281068594596,
        0.196800337689375,
        0.7341133666376858,
        0.2525439385803072
      ],
      [
        -0.4941667695228787,
        -0.02368938395401754,
        -0.6887672415596979,
        0.32155338067513883,
        -0.5191856629532478,
        0.4963833403432789,
        0.6521091045486365,
        0.04333212858561505,
        0.07466818716653534,
        0.6562138098615753,
        -0.10681591083959918
      ],
      [
        -0.6536723894340524,
        -0.33624098158052584,
        0.5881843933598865,
        0.3092221158546421,
        -0.9996387209746906,
        -0.7943159056836777,
        0.09087849113542618,
        0.5186376190648515,
        -0.30242599114793844,
        0.6125876685814882,
        0.8134570360576077
      ],
      [
        -0.10003213652711865,
        -0.34767163696419756,
        -1,
        0.7889504885009525,
        -0.07137202678400636,
        -0.7065721546382682,
        0.12461589921964829,
        -0.023574020354810685,
        -0.6124454721424188,
        -0.05565410646526159,
        0.00023684877977570018
      ],
      [
        0.5586853808443344,
        -0.03587332228119977,
        -0.4875753240882086,
        -0.2207059000348397,
        0.055640762154364115,
        -0.5608917070961552,
        -1,
        -0.23327000639980855,
        -0.5698530434609277,
        0.32019637116959676,
        0.10257053392207932
      ],
      [
        -0.1572088535179564,
        0.1707936848755663,
        -0.05801218251973295,
        0.18776480491268943,
        0.3070517064114405,
        0.6152096084988541,
        -0.23513478722094594,
        -0.0802945807646942,
        -0.13311495990769906,
        -0.5167752264598662,
        -0.3771012308925792
      ],
      [
        -0.48138446192769063,
        0.43592372190707596,
        -0.12998623431840828,
        -0.8372370295561289,
        1,
        0.2356314568274101,
        0.9796284652946459,
        -0.43987929934822617,
        0.5065060995747674,
        0.0019596964142012214,
        -0.000511552070320925
      ],
      [
        0.5546752537451881,
        1,
        -0.6688269321732577,
        0.11217895385557015,
        0.8165923260458865,
        0.8203273678392279,
        0.5084050117289391,
        -1,
        -0.8911091012324085,
        -0.35471124222175693,
        -0.5624859515803271
      ],
      [
        -0.06838817179936449,
        -0.12807380325462064,
        -0.8233386394706386,
        -1,
        0.3529605634177549,
        0.6940444106125454,
        0.27878958233906787,
        0.18252252761002494,
        -0.3383999430651283,
        0.8498917935705506,
        0.24828444698124597
      ],
      [
        0.02213768597566102,
        0.36419147783061634,
        -0.8933881693669352,
        0.43085370507418713,
        0.6249847815042403,
        -0.9582530204444201,
        0.5372735231588948,
        -0.08020159086100034,
        -1,
        -0.3983819756825604,
        1
      ],
      [
        -0.7185314682829886,
        -1,
        0.1398679254754498,
        -0.13911212995759728,
        0.12026270605739652,
        0.5499136357181433,
        -0.019813899873105056,
        -0.21073550275797587,
        1,
        0.07571399897001395,
        -0.40904585828053003
      ],
      [
        -0.45840471014870254,
        1,
        0.8414336320816256,
        0.20862351611378543,
        -0.045232619316368836,
        1,
        0.11660154147424162,
        -0.8627957534794464,
        -0.46341241417452106,
        0.1498864061901259,
        0.12706606512164104
      ],
      [
        -0.856960651629094,
        0.02484881401725472,
        0.28865542873685146,
        -0.21347390642163955,
        -0.7870753476399517,
        -0.5263753237787335,
        0.1883838451858182,
        0.07446166225716987,
        -0.33317682457163245,
        0.31024050626395483,
        0.7405302383387385
      ],
      [
        0.5280558964631246,
        -0.051369953655517005,
        0.1876949292135715,
        0.18959423556166732,
        0.8631248980672381,
        0.32317752318571424,
        -1,
        0.19280486164560873,
        -0.3515425590000494,
        0.7065664231627266,
        -0.9455969407674396
      ],
      [
        -0.3052505101060968,
        -0.1898579560745647,
        -0.0015767998293189423,
        -0.1436210199567982,
        -0.004463880882849007,
        0.028099821467322962,
        -0.6222292659474733,
        0.5050827285411804,
        0.20424228248559384,
        -0.18116683628822047,
        -0.5642229903160743
      ],
      [
        -0.3000153891158315,
        0.38200876246267246,
        0.9181153969078997,
        0.6872886683275616,
        0.8997025094893906,
        0.1332342054816531,
        0.8428335987900439,
        -0.6736791861279696,
        -0.3596698339859418,
        0.7360631166416662,
        -0.840405458163942
      ],
      [
        -0.020501991226383343,
        -0.3732762863614428,
        0.12314316953947535,
        0.06645310370711471,
        -0.8203483221865526,
        -0.6427130513367347,
        0.222665301897776,
        0.2866362043711652,
        0.2909364192686484,
        0.015205206964278073,
        -0.7339570283567255
      ],
      [
        0.04713305429879526,
        0.696024412136295,
        0.2485703903552059,
        -0.5983807057578848,
        1,
        0.433572651088884,
        -0.821060327703707,
        -0.02342543000820652,
        -0.1253456583129898,
        -0.07268692940806883,
        -0.45969316969508545
      ]
    ],
    [
      [
        -0.5829453845961761,
        -0.10493239481199021,
        0.014367406806691019,
        -0.42176775141181233,
        -0.13621077326657824,
        -0.8050105603894424,
        0.8371902465446321,
        -0.7332430551704605,
        -0.7881677066468511,
        0.11335126834583265,
        0.02394219399436908,
        0.6550541095241886,
        -0.46022967558393635,
        -0.32421705209388496,
        0.04312033283906258,
        0.9671099956183802,
        -0.12809383348062608,
        0.8450589277011151,
        0.00023026272122694068,
        0.0020215898567829465,
        0.41418880295180743,
        -0.1767152537946247
      ],
      [
        0.5975805349573418,
        -0.34316600073766784,
        -0.43689169000111283,
        0.5825746444759767,
        0.2960693228519522,
        0.768736924669774,
        -0.2855709023711422,
        0.6772402848328024,
        -0.8386493712570253,
        -0.46686153825295884,
        0.2713380707220583,
        -1,
        1,
        -0.4192254965468337,
        -0.40548983570570285,
        -0.46736643149989093,
        0.3235277946319859,
        0.04604413137011777,
        0.007088222301285212,
        0.19221438692303405,
        -0.007342446351058296,
        -0.8366337898354479
      ],
      [
        -0.1895497646679276,
        0.029974533128676133,
        0.04886262333027854,
        0.24349097682115328,
        0.9529920939597114,
        1,
        0.36000218366755615,
        -0.7078645141298797,
        -0.7812372327903061,
        -0.19871521378464463,
        -0.04978066186230112,
        -0.22201837983237607,
        -0.18605441645962606,
        0.8509395486228918,
        -0.3659658896995932,
        -0.07702145690691618,
        -0.5334035776216282,
        -0.003900584456737977,
        0.7696168706261788,
        0.1753500245734234,
        0.21190187795347945,
        -0.3158959987372058
      ],
      [
        1,
        0.6733145572935268,
        0.414524697502948,
        0.3796194575000106,
        0.88792460869683,
        0.0006106841636870875,
        0.015488608496221959,
        0.03193285837216949,
        1,
        0.34709209315346534,
        -0.8656726783837627,
        -0.176948683915444,
        0.7375256999921185,
        0.12259530125269125,
        -0.8255679476425042,
        0.6415378282537645,
        -0.89611676617399,
        0.3276746491491358,
        -0.8885536710765956,
        0.22836110224386505,
        -0.04630446662260423,
        1
      ],
      [
        0.013824464763873874,
        0.055766930413607065,
        0.33221185102306916,
        -0.1966250626238647,
        0.7345081279038436,
        -0.9108854982986714,
        0.24509412843001122,
        -0.18526150729109983,
        0.9966503250788281,
        -0.3740620987628053,
        0.5617471424190674,
        -0.9064700456878548,
        -0.004812204291668491,
        0.09413824818177999,
        -0.8737028257752955,
        0.49818448590562436,
        -0.4243213414852988,
        0.2651260744723456,
        0.10992487991256034,
        0.5703706702716423,
        0.5849611049927976,
        0.641293263274096
      ],
      [
        0.09772131311182833,
        -0.5281033514401181,
        -0.8197593988725144,
        -0.3388250255719407,
        0.2853414184328459,
        -0.3835200483031569,
        0.06072008690505757,
        1,
        0.6600463451645755,
        -0.19941927793226566,
        0.4504617939748416,
        -0.0012978528636409248,
        0.88229107274685,
        -0.2170224670273848,
        -0.5503378871305291,
        0.17823573414664806,
        0.7727079874125691,
        -0.302541750286071,
        0.03349642307346647,
        -0.29538522633889264,
        0.9385148615950878,
        -0.9721718734030629
      ],
      [
        -1,
        0.4473801831968878,
        -0.5274656598522918,
        0.004539637757744849,
        -0.9765772066840295,
        -0.03024243004651496,
        -0.2564819361854976,
        0.014454391594393228,
        -0.5217624283767186,
        -0.0751576897266257,
        -0.8470970454462696,
        -0.11820574787515348,
        -0.45013796772991743,
        0.027174986915413153,
        0.5748086698379281,
        -0.27860347669456664,
        -0.09674059837986815,
        -0.5047467545749647,
        0.8883216846907458,
        -0.06351928603545123,
        0.9815674950512481,
        1
      ],
      [
        -1,
        -0.26444884671879265,
        -0.8600261264378779,
        0.5877877262160989,
        0.6635820968465641,
        0.2887565153271088,
        0.7698835596935161,
        -1,
        -0.5012893118847366,
        0.2156111826180233,
        0.4264160974320994,
        -0.13139464193009492,
        0.38706004978758507,
        -1,
        -0.4506680659267075,
        0.0063492536627861125,
        0.21192660202885502,
        0.6183201752768293,
        0.029116555403526846,
        0.03478385606570966,
        0.414855680377804,
        0.01038935545537023
      ],
      [
        -0.28932491162440144,
        -1,
        -0.6708741594541018,
        -0.3175872684516534,
        -0.49786422335591585,
        0.7127011409321814,
        -0.4288681946426971,
        0.5554657661268789,
        0.6666236469821261,
        0.01907812434757055,
        0.8746530809060553,
        -0.3006198616905973,
        -0.5026846340268925,
        0.7966912596357623,
        0.8521664245840856,
        0.17017307511192004,
        0.0035455950636390115,
        -0.15988688124434614,
        0.6856604118348313,
        0.720702780576262,
        0.05546797356938435,
        -0.06885226141078353
      ],
      [
        0.24356096975026875,
        -0.09906582189854865,
        0.31996247239058473,
        -0.40394332367047603,
        0.32266620873482593,
        -0.978931187223099,
        -0.049212484913423234,
        -0.060572536513314665,
        0.5353159987113985,
        0.4845023700928808,
        -0.43836396363354035,
        0.6444572770851084,
        -0.011296368229330729,
        0.32023436445264686,
        0.16919136706549667,
        0.14127524095825159,
        -0.9377050940448877,
        0.4748737422189031,
        0.24301709008861513,
        -0.2941982668970988,
        -1,
        -0.32029062138049946
      ],
      [
        -0.47070897198115325,
        0.7741346030748266,
        -1,
        0.07745205740390777,
        -0.07824566564300682,
        0.3655545877093638,
        0.8067751431829004,
        0.09664362754702105,
        -0.9809809500582473,
        -0.35458154176185386,
        0.658213536059352,
        -0.7916220329975825,
        0.3184993177380463,
        0.7104760776023622,
        0.1229827614695696,
        -1,
        -0.30935852088743304,
        1,
        -0.6104966078904999,
        -0.04303814169381676,
        -0.4695092732134609,
        0.034126359994140265
      ],
      [
        -0.8574860371635487,
        -0.9330111345588255,
        -1,
        0.6199995290349403,
        0.7802408958595933,
        0.7765024580491787,
        -0.2922739023692517,
        -0.028515998094489126,
        -0.7602789063320047,
        -0.13319477869440552,
        0.6516071984220848,
        -0.16991619395967086,
        -0.19646176179771044,
        -0.5573973270470152,
        0.6599398584351192,
        -0.16087851073615145,
        -0.8537708655853041,
        -0.6628501516316629,
        -0.649636322996967,
        -1,
        0.4384244950624901,
        -0.16409201735824877
      ],
      [
        -0.09587860675322127,
        -0.01558744865445294,
        -0.03490928992692139,
        0.5695728518489576,
        0.5742560585963983,
        0.7935792136491998,
        0.1663329462159431,
        -0.48731347617539056,
        -0.02140958259794279,
        -0.5665626042990016,
        0.6803778700520835,
        -1,
        1,
        0.8955774868223403,
        0.23863462768919352,
        -0.5641254362162127,
        1,
        -0.10962959468060096,
        1,
        1,
        -0.17697395417219927,
        -0.6262729979992097
      ],
      [
        0.45349571222161295,
        -0.03944354720904286,
        -0.25993142369577515,
        -0.21790579275058125,
        0.45299310988890024,
        -0.9092356015595842,
        -0.9951699317042402,
        -0.0768508463075741,
        0.013335966359468166,
        0.6475515232352023,
        -0.5549114752822928,
        0.14615658434116555,
        0.5974608445412537,
        0.7399814176906294,
        0.04516044965548138,
        -0.2624469283483243,
        -1,
        0.7317231897518488,
        0.6084225336271398,
        0.10996790595409889,
        0.1594927068163666,
        0.21849083214236775
      ],
      [
        0.9097082720996847,
        -0.2513996452907378,
        -0.0716491416160725,
        -0.06905887630444374,
        1,
        -0.6747500757513989,
        1,
        -0.6737572173582478,
        0.34518587223743835,
        0.2332619485475953,
        -0.6073333168918786,
        1,
        -0.5418337148181986,
        -0.6757409137361672,
        -0.10700059538381197,
        -0.6210865152598541,
        0.09000457236256783,
        0.03272824617887854,
        0.9665624895005134,
        0.6258671946512544,
        0.620714960404078,
        -0.28387501917312474
      ],
      [
        1,
        0.5439781149661378,
        -0.0173399254187891,
        0.1677891115137992,
        -0.1385925395122863,
        0.13317935616304094,
        -0.14643136723170644,
        0.47820719140139223,
        -0.6115074726966221,
        0.41372230472664845,
        -0.8204872804689542,
        1,
        -0.6149410614369839,
        -0.003965688821088699,
        0.07472603404504277,
        -0.07600534743514897,
        0.1464217681034099,
        -0.6184505708609904,
        -0.047248473331553194,
        0.04004851869425896,
        0.5361830115826794,
        1
      ],
      [
        0.6513984792836214,
        -0.012277422608957847,
        1,
        0.3581126805777448,
        -1,
        0.6339563501195079,
        0.7376716745871608,
        -0.7708203417413382,
        0.3223048070333687,
        -0.07077685317527904,
        0.30252434821653185,
        0.21470216433304556,
        0.6167610609936538,
        1,
        -0.17487502762438178,
        -0.27873049840250547,
        -0.43745261006040614,
        -0.009192739997662212,
        -1,
        0.6961730921956553,
        0.44932499165254125,
        -0.5415160967689555
      ],
      [
        1,
        0.04522437227952407,
        -1,
        0.8742314733510493,
        -0.8934969197951539,
        -0.8027668445860257,
        0.4885678323557712,
        -0.9815729787816379,
        -0.9143460268252008,
        0.059893681268521425,
        -0.5307594279346993,
        -0.16612758804499228,
        0.015761115946905546,
        0.4762977530707333,
        -0.01999003853135571,
        0.5257850699630533,
        -0.6264750526554299,
        0.10410206123500854,
        -0.6316478190581261,
        -0.5470115974274403,
        0.5773806949051156,
        0.2759993117790149
      ],
      [
        0.19849313875157684,
        0.029329645132941895,
        -0.6386221744887004,
        0.390920573010334,
        0.1977930536617476,
        -1,
        -0.08728483237199808,
        -0.5193495503546208,
        0.11590095096570269,
        0.11466187686154297,
        -0.6528768011104396,
        0.15297405122350016,
        0.5037624532122591,
        -0.32492724300137765,
        0.28092816560345657,
        -0.9996400691315873,
        -1,
        0.06910819761816867,
        0.9939374530172376,
        -0.03964828658725738,
        0.03702008687460893,
        0.26468966978015884
      ],
      [
        -0.3071306032972463,
        -0.597848828265872,
        -0.9068520472044301,
        0.04071925179989524,
        0.34902842504031134,
        0.3160147248914554,
        -0.9517891554394509,
        -0.8235134546318532,
        0.4501058815873499,
        0.44401040136550485,
        0.4055553394932068,
        -0.016726360965183068,
        -0.19756023980094797,
        0.31401056086090834,
        0.07067433125441397,
        -0.9101788834539041,
        -0.5736203463168705,
        -0.5437769090076937,
        -1,
        -0.017582782227046113,
        0.2934124270755175,
        -1
      ],
      [
        -0.6859632042964128,
        0.28889358222403777,
        -0.00920166004961997,
        1,
        -0.2247151106132259,
        1,
        0.6321175866924931,
        -0.11199427677072857,
        -0.6876129771171526,
        1,
        -0.606751655776917,
        -0.25328899177439324,
        -0.5555326171014094,
        -0.14658408431882872,
        0.7054718213209235,
        0.08241702844820262,
        -1,
        -1,
        -0.629017251065725,
        0.586264955614556,
        -0.5917324528878263,
        -0.717732580109961
      ],
      [
        0.5432728625444601,
        0.48931622711152767,
        0.3792520032100209,
        -1,
        -0.1341920650936337,
        -0.4836040268761561,
        -0.7234735882274761,
        0.006654913184184994,
        -0.44461785872190074,
        -0.40671022115711164,
        0.03083515689052824,
        -0.03505794717967759,
        -0.03175611670130654,
        0.11628837512028722,
        1,
        -0.9536175265672844,
        0.586715606164566,
        -1,
        -0.24793408403773487,
        -0.5528522384706696,
        1,
        -0.033621869883252796
      ],
      [
        0.12826481636996878,
        0.5163819844606767,
        0.23389756848873233,
        -0.023681195521059097,
        -0.6703808661787112,
        -1,
        -0.03539106218474898,
        -0.7890119073298565,
        0.9376300834785218,
        -0.24554097357912155,
        -0.238795655725609,
        0.5569424799500206,
        0.9401115627515798,
        1,
        -0.6485767883127129,
        -0.21876532218902706,
        0.8626273694567494,
        0.29133600564318285,
        0.45167435099868264,
        0.06645445513358528,
        0.05755230759033339,
        0.3674352396490108
      ],
      [
        -0.5087571146576624,
        0.4345828830209988,
        0.926161762547639,
        0.33594047207651023,
        1,
        -0.19488309138744206,
        0.852408060211077,
        0.22256885183501574,
        -0.1675750372142673,
        0.09460181006843271,
        0.002688300675382872,
        0.39800296540643676,
        0.307785544263246,
        -0.030117757378786456,
        -0.013301327260793583,
        -0.13977001936176162,
        -0.737437155207141,
        0.8587933835100907,
        0.8137582685162152,
        0.8138727868097737,
        -0.007455365848470198,
        1
      ],
      [
        0.4903818843138328,
        0.3924756233773252,
        0.3080745655948109,
        0.13577776927657004,
        0.40863758247817356,
        -0.20709035118650743,
        0.06440712872050582,
        0.4615689159398333,
        1,
        0.7906386409678137,
        0.43998446345345144,
        0.002548101359691009,
        0.5433868540725295,
        -0.7199013577699485,
        0.0752521940766064,
        0.7835981408331063,
        -1,
        -0.5720161189544014,
        1,
        -0.0133915475320802,
        -0.04438117437790544,
        1
      ],
      [
        0.13511220114299122,
        -0.9935225742107128,
        0.6248310314198959,
        0.0822869044870096,
        -0.16039873591654508,
        0.0433239333199049,
        1,
        -0.008282610050557304,
        0.5570290928780393,
        0.9778379662281067,
        0.0032335785241816065,
        0.04910016733878334,
        -0.06545365768079739,
        -0.1118552799511261,
        0.5919867810170973,
        0.9700472930367758,
        -0.25703840953292456,
        -0.18431414556156556,
        0.4859577209866861,
        0.2901910398491564,
        -0.7687802240898822,
        0.41624756391479284
      ],
      [
        -0.062133089343929346,
        0.8496717920339634,
        -1,
        1,
        0.016706090857094402,
        -0.11100447580364603,
        -0.8156080551380189,
        -0.6688964314585959,
        0.50329909454469,
        -0.16361717410303256,
        -0.7123811478144575,
        -0.40474980797025717,
        0.22387063074784558,
        0.29919422334240386,
        0.13512665132440205,
        0.12535912754552792,
        0.5056396216412027,
        0.6533194241436477,
        0.5883514909001826,
        1,
        1,
        0.16999245147575714
      ],
      [
        0.03388781906644668,
        -0.039246491586204704,
        -0.98072599877179,
        0.20679423219376616,
        0.039402122065266325,
        0.3375866099737599,
        -0.6186342090940504,
        0.5586759248289854,
        0.6222373227896493,
        0.10013988938331417,
        -0.26462578222936584,
        -0.060659430304184025,
        0.4024731903665715,
        0.9854859393231012,
        -0.3875036517121908,
        0.2554198356359516,
        -0.3258728681651878,
        -0.6019019277598685,
        -0.6737179541620832,
        -1,
        -0.7915771807519606,
        0.9599605076260829
      ],
      [
        0.31242857153213155,
        -0.5339057159057561,
        -0.7630383974989614,
        -0.03335214207526299,
        0.1957458802844192,
        -0.7041375888318452,
        -0.493163272219751,
        -0.5486449285647967,
        0.14084992702592938,
        -0.6251915243162149,
        0.002427556944480167,
        -0.5900263226806259,
        0.754134842774355,
        0.3695131424206905,
        0.8635911708705559,
        -1,
        0.002014689952495159,
        -0.1693404571261113,
        -0.0013925881791869842,
        -0.6688135101440754,
        -0.834777840044564,
        -0.37843063573153923
      ],
      [
        0.07073124501300164,
        -0.03544915262887709,
        0.373774631614603,
        0.5054712818586358,
        -1,
        0.4365564740652692,
        -0.5158630787619904,
        -0.1590017955200099,
        -0.8117947537133352,
        -0.5281074107201191,
        -0.20794721993364426,
        -0.4898945655936984,
        -0.9871066365408006,
        -0.04274260213320775,
        -1,
        0.10360591286410609,
        1,
        -0.511009713179621,
        -0.009145153674825789,
        0.7824817509810431,
        -0.15825299088196224,
        0.16813401643885828
      ],
      [
        -0.3348636699836649,
        -0.20639883009953408,
        0.14112740037588123,
        -1,
        0.8032478989611211,
        0.6776003946974404,
        0.04964692111593793,
        0.8763469513499336,
        -0.6880429150028295,
        -0.26175269167132753,
        -0.010203361353759547,
        0.2274708895308326,
        0.01219736261263999,
        -0.005574050107557203,
        -0.020950135861584646,
        0.7172212519286072,
        0.5130550523274747,
        0.9435740216527235,
        -0.03063860502456649,
        0.5043490431186657,
        0.8032454940138378,
        0.42615147322031266
      ],
      [
        -0.4470814265365139,
        0.44566514536023266,
        0.12364420158882042,
        -0.35230199666300754,
        0.3661945883586939,
        0.7760733585937991,
        -0.1931021814548182,
        0.3110345643852577,
        -0.6066342192706398,
        -1,
        0.15458585057789875,
        0.8890017851708727,
        0.556948623787354,
        -0.6198399027574568,
        -0.03315640685583882,
        -0.5325098102782335,
        0.6305007621479646,
        0.9178797912389071,
        1,
        -0.3194130702383784,
        -1,
        -0.09761026919072102
      ],
      [
        -0.148555599284519,
        -0.00954739104481085,
        -0.8930163417612642,
        0.15406206065453762,
        0.9566727969538069,
        0.2940392290409864,
        -0.016873832390208624,
        0.1719229111856649,
        -0.01622888558242397,
        -0.2461064346236408,
        -1,
        0.8646527590538347,
        -0.3962689945665563,
        0.012684271086310256,
        -0.07643725413693137,
        -0.2997297858480994,
        -1,
        -0.96338009268057,
        -0.03680351281609677,
        -1,
        -0.24927174738059946,
        1
      ]
    ]
  ],
  "generation": 33
}